,Dimension_0,Dimension_1,Dimension_2,Dimension_3,Dimension_4,Dimension_5,Dimension_6,Dimension_7,Dimension_8,Dimension_9,Dimension_10,Dimension_11,Dimension_12,Dimension_13,Dimension_14,Dimension_15,Dimension_16,Dimension_17,Dimension_18,Dimension_19,Dimension_20,Dimension_21,Dimension_22,Dimension_23,Dimension_24,Dimension_25,Dimension_26,Dimension_27,Dimension_28,Dimension_29,Dimension_30,Dimension_31,Dimension_32,Dimension_33,Dimension_34,Dimension_35,Dimension_36,Dimension_37,Dimension_38,Dimension_39,Dimension_40,Dimension_41,Dimension_42,Dimension_43,Dimension_44,Dimension_45,Dimension_46,Dimension_47,Dimension_48,Dimension_49,Dimension_50,Dimension_51,Dimension_52,Dimension_53,Dimension_54,Dimension_55,Dimension_56,Dimension_57,Dimension_58,Dimension_59,Dimension_60,Dimension_61,Dimension_62,Dimension_63,Dimension_64,Dimension_65,Dimension_66,Dimension_67,Dimension_68,Dimension_69,Dimension_70,Dimension_71,Dimension_72,Dimension_73,Dimension_74,Dimension_75,Dimension_76,Dimension_77,Dimension_78,Dimension_79,Dimension_80,Dimension_81,Dimension_82,Dimension_83,Dimension_84,Dimension_85,Dimension_86,Dimension_87,Dimension_88,Dimension_89,Dimension_90,Dimension_91,Dimension_92,Dimension_93,Dimension_94,Dimension_95,Dimension_96,Dimension_97,Dimension_98,Dimension_99,Dimension_100,Dimension_101,Dimension_102,Dimension_103,Dimension_104,Dimension_105,Dimension_106,Dimension_107,Dimension_108,Dimension_109,Dimension_110,Dimension_111,Dimension_112,Dimension_113,Dimension_114,Dimension_115,Dimension_116,Dimension_117,Dimension_118,Dimension_119,Dimension_120,Dimension_121,Dimension_122,Dimension_123,Dimension_124,Dimension_125,Dimension_126,Dimension_127
miRNA_0,0.30559376,0.17808166,0.20815937,0.37667727,0.33870837,-0.3256052,0.016267423,0.23352848,0.19168104,-0.0195875,0.013196508,0.015739677,-0.08011748,-0.44782266,0.31811285,0.032227132,-0.18331827,0.0097820135,0.11321063,-0.24487248,0.24545978,0.19620503,-0.023970855,0.19748999,-0.30008653,0.1278226,0.005692721,-0.19353664,-0.36679736,0.20305681,-0.14569378,-0.17233829,-0.12896447,0.20276226,-0.07837486,-0.10494342,0.009869835,0.18607102,-0.110883944,0.2462806,0.05878352,0.08803719,-0.0096384855,-0.27406454,-0.2187842,-0.4878464,-0.4518244,0.031163454,-0.024168223,-0.26375192,0.21122743,-0.1336344,0.22703756,0.45617628,0.15562792,-0.02347623,-0.3583358,-0.10499078,-0.1896393,0.15884458,-0.13964021,0.14751,0.023835694,0.42151913,0.105048984,0.19137266,-0.14901139,0.0058662873,0.22011918,0.040620696,-0.12513644,0.1452158,0.16275059,-0.25302598,-0.14759928,0.0070220456,-0.121060364,0.11963192,-0.34081027,-0.20395139,0.035257,-0.043496635,0.34695968,-0.04106993,0.78809047,0.3322735,-0.2952627,-0.07409574,0.2077334,0.12135953,-0.18665065,0.089232445,-0.4247115,-0.47433442,0.3445348,0.38166896,-0.37027037,0.18028079,0.3064832,0.09781615,0.19123152,-0.1677993,0.049361352,0.050279118,0.15465772,0.15309766,0.33326256,-0.27445623,-0.17209594,-0.040505756,0.045600705,0.31258798,0.034262836,0.16030379,0.33940515,-0.18986607,-0.30847013,-0.24949934,-0.44031927,-0.086713225,0.22314864,-0.09150506,-0.111448884,-0.081816174,0.08955133,-0.15631284,-0.23647104,-0.21389402
miRNA_1,0.27242905,0.057767868,-0.3257058,-0.076503105,-0.03137745,-0.11126354,-0.10678575,-0.22002354,0.3593594,0.25192088,0.14065324,0.1333932,-0.23392484,-0.18863228,-0.10997159,0.24017918,-0.13674451,0.4750774,0.03782168,0.30239448,0.28311527,0.23186126,-0.30731943,0.2553061,-0.32747272,0.24119608,-0.24705511,0.16339368,0.1389494,-0.04520776,0.21590081,0.17846942,0.19601558,0.31530136,-0.1469708,-0.07773848,0.02354907,0.12548919,0.294369,-0.47098684,-0.3507764,0.22893368,-0.19595139,-0.053376887,0.29021055,-0.061633162,0.02097928,-0.09528827,0.16437101,-0.09490901,0.2048477,0.17618886,-0.30554354,-0.005808415,-0.1254038,-0.13978918,-0.31103414,-0.09242862,-0.12626353,-0.4496804,-0.29145488,-0.09487547,0.1818648,0.5298703,-0.3712813,0.17832048,0.23092715,-0.2431004,-0.06650006,0.08570884,0.21721658,0.06470211,0.14692271,-0.25675017,0.061278637,-0.015067877,0.39342248,-0.054265086,0.18592587,0.5685085,-0.1913937,0.5465278,-0.030410651,0.029760128,0.47650105,0.2423603,0.2891875,-0.26546395,-0.0482733,-0.008500452,0.051843505,0.23632197,0.049721535,-0.1202224,0.37314188,0.10088205,0.08575057,-0.029482234,0.14701943,-0.18042262,-0.27955723,0.09848284,0.2712346,-0.1497343,0.073371954,0.23660661,-0.014712019,0.09248625,0.2595052,-0.08656659,-0.018271884,0.10345324,0.019108163,-0.037320986,0.072731234,-0.069951944,0.028694049,-0.05697808,-0.17163508,0.05038778,-0.26072425,-0.24930684,0.20097044,0.20013452,-0.33210102,-0.13036655,0.047125634,-0.20806156
miRNA_2,0.29570085,-0.5358596,-0.35706243,0.30801508,0.040724874,-0.021733193,-0.0066767293,0.18135273,0.22456534,0.19558229,0.33645254,-0.0638673,-0.29996487,-0.29253793,0.17997406,0.24638326,0.04853404,0.0069802767,-0.2842455,0.16450961,0.26940644,0.22309284,-0.22617227,0.07618493,-0.20725596,0.26860288,-0.16530634,0.18635581,-0.23164849,-0.13360944,-0.087683134,0.09768678,0.115911946,-0.137388,0.1172476,0.074652106,-0.3699208,0.07674894,0.062287576,-0.084624074,0.18244655,0.36932665,0.01979249,-0.04332327,0.32513058,-0.3169086,-0.15516227,-0.119554535,0.10409725,0.18724744,0.238814,0.28472388,0.07224823,0.039752364,0.084438786,-0.16715592,0.050174616,-0.25087047,0.12829645,0.020749383,0.053343948,0.021009201,-0.21039627,0.23690824,0.045377426,0.17184949,0.21698919,-0.2979545,-0.044128086,0.07147462,-0.16332595,0.044731144,0.3722745,-0.32878754,0.0502987,0.042032324,0.012713403,-0.20090362,0.14104888,0.029660696,-0.17864618,-0.09203137,0.123743355,-0.13412178,0.06321008,0.20689714,0.19141307,-0.20921718,0.050911687,-0.12736467,-0.18933389,0.225392,0.03397541,-0.26046884,-0.14772561,-0.17354654,0.011410271,-0.05817169,-0.123600595,-0.168795,-0.41405135,0.0034336792,0.1554463,0.25035253,0.14691535,-0.45865616,0.12214665,-0.20059903,0.19583595,0.12260537,-0.15611993,-0.13206154,-0.06683789,0.112090364,0.21323279,-0.11178785,0.21493329,0.27362737,-0.14010747,0.32599026,-0.23088235,-0.037057247,0.37513566,-0.016108625,-0.16629142,-0.20381813,0.2617123,0.041392487
miRNA_3,0.26134434,-0.47234458,-0.40227723,0.33841544,0.05986949,-0.027155565,-0.011857538,0.1833904,0.23834923,0.22509031,0.35558936,-0.039217953,-0.31483,-0.2904696,0.18066554,0.35827377,0.03826489,0.06361467,-0.27514437,0.17896073,0.2540998,0.2312367,-0.20492324,0.04804312,-0.23096855,0.23944913,-0.1960694,0.21801466,-0.21195303,-0.05807234,-0.13047685,0.05570569,0.17182615,-0.09938589,0.05839387,0.124458194,-0.4435076,0.03073722,0.064220205,-0.042102113,0.1772057,0.36408117,-0.008701453,-0.040650304,0.30564785,-0.3297709,-0.17887256,-0.12405306,0.093677714,0.29271454,0.2271091,0.28053623,0.03579755,0.047436427,0.039374463,-0.165513,0.07484253,-0.21849774,0.097372234,-0.049078345,0.03674054,0.0023296818,-0.23350678,0.19031887,0.08974676,0.17649104,0.17567906,-0.20483074,0.0281984,0.061743163,-0.15859024,0.0066020093,0.31316578,-0.27787578,0.08147899,0.048094038,0.10463158,-0.17711218,0.17705321,0.0032622027,-0.16515382,-0.092681274,0.15293552,-0.14321974,0.061302528,0.20222874,0.15268369,-0.22452308,0.08259728,-0.08810116,-0.15710884,0.24224357,0.007932611,-0.29943565,-0.11749037,-0.16178949,0.011499369,-0.091224514,-0.09368238,-0.2065822,-0.40507028,0.00913111,0.13946852,0.21458109,0.1379378,-0.5207243,0.15259573,-0.21118136,0.22866899,0.11548774,-0.16529518,-0.15038444,-0.08057039,0.14167035,0.24318147,-0.13397533,0.19029652,0.25150982,-0.13435026,0.33124813,-0.19730085,0.025370514,0.3381272,-0.02797863,-0.1424541,-0.16180266,0.28802365,0.061372243
miRNA_4,0.117311954,-0.45780325,-0.35248712,0.3973636,-0.014949874,-0.040983163,0.0694545,0.08034634,0.32114866,0.17488982,0.3251779,0.00011321434,-0.29792807,-0.26388696,0.20241526,0.37595534,0.03174056,0.03149111,-0.25859034,0.2597448,0.304095,0.18055366,-0.10647788,0.09855201,-0.2958506,0.20323478,-0.2478773,0.26075798,-0.20990914,-0.065371074,-0.23231395,0.114600964,0.2128057,-0.09454733,0.12866998,0.10750069,-0.4866735,0.04861995,-0.021479502,0.051906142,0.1761656,0.44066507,0.06770044,-0.18584414,0.30268514,-0.38781917,-0.19305846,-0.2510518,0.13566224,0.17669578,0.28802553,0.31194675,0.063533,0.019356871,0.04171887,-0.20753898,0.028990075,-0.23124757,0.07514957,-0.0816059,0.053897496,-0.009622241,-0.25661612,0.18558568,-0.030389508,0.125016,0.06495581,-0.25387174,-0.014735594,0.07433896,-0.27190304,0.13786745,0.22067142,-0.2971581,-0.0251484,-0.027172122,-0.017805558,-0.14770412,0.16502152,-0.03827418,-0.1389115,-0.14768405,0.06039316,-0.15988466,0.014758965,0.19893083,0.04295163,-0.19266543,-0.072240286,-0.09350177,-0.083844416,0.18189281,-0.055462044,-0.30494496,-0.114950456,-0.16431116,0.06016359,-0.02017004,-0.06775568,-0.24277622,-0.43056527,0.04775012,0.24089411,0.1872832,0.06733481,-0.49261,0.049073722,-0.13799143,0.14644772,0.0939299,-0.075692646,-0.11964012,-0.18333307,0.111342214,0.21941106,-0.09976002,0.32500815,0.17395557,-0.17125769,0.38697323,-0.16271596,-0.07087568,0.28931007,-0.014543238,-0.10414776,-0.17157264,0.2764354,0.066657975
miRNA_5,0.25694752,-0.13726334,-0.2996815,-0.05629553,0.021345442,0.11120895,0.07124705,0.1905137,0.24164824,0.06909136,0.44026682,-0.10969777,-0.082346104,0.034322385,0.35100526,-0.07758569,-0.14682579,-0.08628652,-0.24939357,0.12004194,0.38320002,-0.1254597,-0.53927535,0.1110384,0.012707906,-0.0070442474,0.0153527735,-0.16376464,-0.12293632,0.047505733,-0.2636516,-0.051385026,0.25907287,0.06956087,-0.3418255,-0.07894774,0.082934864,0.04212443,0.20286041,-0.3025544,0.39709824,0.32785496,-0.13942948,0.13617618,0.07452187,-0.17836563,-0.006883185,0.056222998,0.30006158,0.15434885,0.38727638,-0.08516004,-0.087804206,-0.3622019,0.35160962,-0.53352123,0.11943149,-0.2007234,0.22925298,0.100851566,-0.44389042,-0.24462503,-0.014738835,-0.062157005,0.23030218,-0.056781676,0.24643359,-0.003546997,0.22751053,-0.15289745,-0.32354662,-0.3081235,-0.0021728526,-0.052170973,-0.06800766,-0.35676548,-0.09501955,-0.2188216,-0.042351473,0.0009381337,-0.31308788,0.07357502,0.19419642,0.2563314,0.057641786,0.011991081,0.301685,-0.00014029496,-0.080920234,0.10930291,-0.33963242,0.1086113,-0.028040376,-0.17265417,0.20528442,0.30982015,-0.18256998,-0.14985372,-0.20159201,-0.35300732,-0.27388665,0.30561253,-0.11900371,-0.43830597,0.3627782,0.011209111,0.18354656,0.18324076,0.043924198,0.34666252,0.07909839,0.2738399,-0.071057364,0.046312917,0.10109148,-0.091116674,0.08585917,-0.012442197,-0.034026444,-0.29595116,-0.37288868,0.01629709,-0.0850483,-0.03040535,-0.08943633,0.13873623,-0.0836231,-0.04247401
miRNA_6,0.21829954,-0.1644427,-0.3121562,0.08535893,-0.0388797,-0.11885799,0.057057895,-0.08338304,0.07874811,0.11542174,0.109301195,-0.041283153,-0.48468214,-0.114748634,0.12023475,0.13491784,-0.2024901,-0.17421766,-0.097789146,0.039823312,0.38771355,0.11805609,-0.32167643,0.13088773,-0.08232653,0.27593374,0.12949295,0.08385057,0.004077725,0.07476309,-0.036340386,0.021400116,-0.08130242,-0.028193532,-0.21148688,0.39708883,-0.24276225,-0.4712522,-0.10366475,-0.20624821,0.25167343,0.2648787,0.008408002,-0.103642866,0.2183469,0.16761608,-0.10272661,-0.047789365,0.3615783,-0.14130323,0.34129107,0.197593,-0.16536085,0.17001708,0.2071758,-0.06906254,0.32100123,-0.48173514,0.090506226,0.12305995,0.013248351,-0.2501282,-0.13756277,0.19459043,0.39239517,-0.057722673,0.024379427,-0.30363256,0.20643951,0.22188993,0.020276502,-0.10848586,0.03083989,-0.23229975,-0.060062647,-0.14408188,0.06758688,-0.13632695,-0.22258385,0.0115263285,-0.5750417,-0.344711,-0.052936994,0.25587592,-0.008501502,0.1492801,0.29972026,-0.19870266,-0.37108707,-0.45544186,-0.13663831,-0.26532945,-0.14788735,-0.57903844,-0.26239443,0.12264373,-0.009326372,-0.013189993,-0.31766513,-0.1250432,-0.17943004,-0.053272408,0.046083055,-0.26725996,-0.012612756,0.11370242,-0.13889965,-0.041422624,0.22127946,0.25660163,-0.03997978,0.3255053,0.063023776,-0.09841613,0.09595631,-0.042418294,-0.06897239,0.1423702,-0.31006452,0.3479489,-0.12553175,-0.112961054,0.15718424,-0.07168708,0.2596198,-0.36300182,0.42517895,-0.10309018
miRNA_7,-0.31161305,-0.23229428,-0.09732523,-0.09358514,-0.2549765,0.19715618,0.33756313,0.226817,0.027360959,-0.053414155,0.37137693,-0.16485773,-0.23302601,-0.069948666,0.15178747,0.1826009,-0.3681158,0.039814048,-0.026000168,0.15724756,0.15918973,-0.078405075,-0.28363323,-0.020807173,-0.205448,-0.0113736065,0.011810002,0.08737714,-0.13358626,-0.19125836,-0.38043508,0.24964724,0.5164145,0.47863245,-0.13891953,-0.010478984,-0.07106809,-0.14185289,-0.13074757,-0.23280951,0.5238532,0.13401912,-0.18519098,-0.2829666,0.2926427,-0.43939266,-0.22986624,0.06670038,0.21934201,-0.11592833,-0.0916479,0.16400854,-0.24447906,-0.012901759,0.20873435,-0.34687966,-0.09449025,-0.53118205,-0.2939013,0.0068458,-0.28087246,-0.0645709,-0.118464015,0.1461529,0.06357005,-0.061298087,0.44897494,-0.38063323,-0.025054682,-0.04695927,0.086699,0.1051944,-0.15018201,-0.29564524,-0.25531334,0.07558554,-0.06685797,0.12013056,-0.035182465,-0.29430354,-0.07308411,0.09910769,0.22656783,0.2886169,0.0034513765,0.026863763,-0.009996097,-0.23749997,-0.39249086,-0.26372084,0.03940135,-0.08466284,0.2241453,-0.21649972,0.3316839,0.093375914,0.08008657,0.08979821,-0.36080667,-0.47475103,-0.011771373,0.2403999,-0.0023773175,-0.014188548,-0.1498479,-0.2038188,0.058271583,-0.12228396,-0.037503682,0.03593885,-0.17013195,-0.31180173,-0.13967666,0.24224581,0.22823335,0.05504392,0.10695865,0.24060754,0.12447674,0.31212154,-0.13967037,-0.27944613,0.18938325,0.060744945,-0.26597157,-0.005050628,0.25712132,0.089647435
miRNA_8,0.3276035,-0.2397011,-0.037740283,0.037176467,-0.05992039,-0.377153,-0.012375222,0.45865333,0.29042694,0.25975206,-0.12366554,-0.32187152,0.00069831806,0.1502341,0.4487179,0.40843785,0.05565941,0.17685701,0.045689046,0.08934923,-0.10689971,-0.10980196,-0.43385205,0.015485325,-0.35641333,0.0923272,0.21670224,-0.053662833,-0.014549686,-0.13882306,-0.41066805,0.026182106,-0.031142185,0.15831594,0.0023308217,-0.14323108,-0.38121742,-0.21411537,0.19479863,-0.047333784,0.03895829,0.13151294,0.1439059,0.19276874,0.42370814,-0.18953623,-0.13491051,0.163077,0.10357238,0.2879047,0.18386789,0.20491324,-0.42455116,-0.17603002,0.26443973,0.016303219,-0.08221522,-0.65683097,0.02108585,-0.30198863,-0.26472196,-0.29149488,-0.13836208,-0.19197111,0.20890303,0.29217628,0.17738193,-0.06285895,0.049782436,0.019604428,-0.21323876,-0.18634571,-0.091177315,-0.36128935,-0.04860166,-0.5190493,-0.09633265,-0.13440345,0.1585833,0.23931797,-0.44589153,0.26259553,0.253047,0.060374975,0.09443833,0.18932611,-0.15490855,-0.035608165,-0.3461751,-0.18556651,-0.45217484,0.16821744,-0.13955735,-0.061218437,0.278192,-0.23696183,0.24680775,-0.05047988,0.16090587,-0.03391786,-0.2553004,0.06760761,-0.0814505,0.16068022,0.13293807,-0.3596892,0.117019035,-0.06516726,-0.032622423,0.37667355,-0.19611952,0.08723984,-0.055129115,0.23116331,0.21361691,-0.089539394,-0.19116542,-0.063533574,-0.01883466,0.16342647,-0.03581941,-0.15122822,0.30864325,-0.43461305,-0.0718358,-0.048896115,-0.017077701,0.083450764
miRNA_9,-0.0047265254,0.121712476,0.1498764,0.23764768,-0.22419909,0.5163173,0.16977906,0.012755848,-0.24320774,0.20264481,0.23859327,-0.42003015,0.21433161,-0.6595225,0.11356223,0.22479722,0.22578198,0.07146685,-0.060963843,0.21296738,0.26504168,0.054723766,-0.27504075,0.010613725,0.067350686,0.13338464,-0.33750236,0.11549111,-0.07528075,-0.32410556,-0.19566959,0.21211769,0.34208718,-0.1430223,-0.17731205,0.102550976,0.3458433,-0.386794,0.2957743,-0.11864337,0.06319018,0.07982191,-0.02561195,0.08436277,0.2935641,-0.5329895,-0.16643721,0.09314759,0.2944178,-0.08132858,-0.14513335,-0.3192832,-0.16330793,-0.1846134,0.30382034,-0.15743421,0.25895426,-0.14311944,-0.19084279,0.023411117,-0.28139398,-0.3741808,0.048295744,-0.15084831,0.04994547,-0.4370327,0.26309812,0.07756294,-0.039309308,-0.1518979,0.05602744,-0.1854583,-0.14149615,-0.31513795,-0.05851159,-0.31998855,-0.21227273,0.05522817,-0.1415615,0.19647892,-0.20547353,0.39265832,0.19759408,0.08747631,0.1524714,0.07083776,0.38880312,-0.34246615,0.0029940563,-0.41482803,0.012475867,-0.13202098,-0.11845819,-0.13492873,0.3589934,0.1119879,-0.23840882,-0.1384149,-0.17507502,-0.47104105,-0.18616949,-0.084507756,-0.14488237,-0.6009244,0.25448516,0.12500235,-0.2825619,0.27862608,0.11003971,0.12250667,-0.343558,0.1895262,-0.086473875,-0.046839055,0.004389949,0.17058736,-0.18353106,0.045911793,0.064674236,-0.042462923,-0.005093952,-0.22292122,0.1512872,0.1021313,0.0050880983,-0.011453258,0.16282204,0.42634377
miRNA_10,0.018688325,-0.23992105,-0.18397874,0.14657661,-0.06459386,0.046159007,0.083931915,0.2767878,0.06407653,0.16846679,0.38827908,-0.35507762,-0.15782525,-0.18559833,0.19966725,0.11079143,0.03565221,0.010975376,-0.08102522,0.034810774,0.08123692,0.1517225,-0.26207504,0.11976141,-0.19061927,0.12557283,0.0780637,0.119330406,-0.15764731,0.14962815,-0.38684142,-0.055902675,0.28529665,0.21417004,0.00025414157,-0.09701483,-0.40138105,-0.18732166,-0.2172938,0.036215216,0.11892574,0.13505635,0.078982815,0.12518975,0.17655511,-0.29353634,-0.16145442,-0.015507398,0.19265744,-0.0057063866,0.09876182,0.1822632,-0.09521216,-0.31231073,0.017006753,-0.30453125,0.058108833,-0.71784663,0.026642183,0.042850528,-0.25671872,-0.11796075,-0.13644,0.040501412,0.22689599,-0.02667887,0.08784274,-0.09354642,0.20568168,-0.09236607,-0.1964133,0.025318284,0.13188669,-0.3988983,0.1288133,0.018808449,-0.24426784,-0.07601926,0.06819925,-0.007621763,-0.18385078,-0.12769572,0.3063686,0.050270095,0.052584812,0.3869716,0.15063159,-0.30388945,-0.081555575,-0.145272,-0.09939486,-0.1174494,0.22176977,-0.40627846,0.19045833,-0.24938177,0.006630082,-0.15508227,-0.2356285,-0.14273341,-0.32161805,0.087077595,-0.10346143,0.19929983,0.14985542,-0.582283,0.36829168,-0.26038796,-0.099678725,0.3651691,-0.1803892,-0.09064904,0.1322253,0.082417764,0.32833907,0.023075737,0.10121847,0.09605081,0.06089362,0.16791777,-0.18407205,0.0970079,0.074080706,0.07984687,-0.18503755,-0.27492824,0.14382896,0.19875361
miRNA_11,-0.0334229,-0.23496048,-0.14598371,0.13100423,0.008505754,0.107113115,0.18875001,0.38044584,0.060934283,0.1661176,0.39596984,-0.34256953,-0.17850573,-0.06406406,0.105047725,0.057904117,0.0962024,0.0023133666,-0.15792468,0.090105526,0.023826504,0.26839435,-0.2948384,0.09450887,-0.19113192,0.1840354,0.058830876,0.14765516,-0.19473308,0.14608984,-0.3800304,-0.08738797,0.32289907,0.35609266,0.08685461,0.043848302,-0.2873176,-0.23188719,-0.20945494,-0.12784472,0.13001946,0.15769564,0.09831912,0.03956258,0.21452917,-0.3576347,-0.26036173,-0.036319025,0.21091193,-0.0066431267,0.158621,0.15558198,-0.16170931,-0.25060177,0.122402705,-0.27838612,0.25730252,-0.6132182,0.08044987,0.16907951,-0.38514018,0.012190455,-0.18526468,-0.00848619,0.19066149,0.003720607,0.054271236,-0.13915986,0.17148417,-0.023948412,-0.24969916,-0.02830488,0.18879636,-0.51940155,0.12392529,0.051177826,-0.22620228,-0.043418,0.03156372,0.10433631,-0.13492464,-0.05369548,0.3825578,-0.007986258,-0.015311825,0.25898162,0.21125777,-0.10348249,0.0009561186,-0.1964281,-0.15744746,-0.17436996,-0.042888254,-0.35472557,0.08756495,-0.26295888,-0.17850187,-0.11540441,-0.12197112,-0.0739773,-0.3445119,0.08574113,-0.14757818,0.2477681,0.061883815,-0.55506617,0.37299934,-0.27879778,-0.020474674,0.3334564,-0.18505721,-0.040066123,0.15300535,0.05178982,0.33355883,0.032256085,0.12811425,0.12894282,0.0075386446,0.16724017,-0.15093799,0.06527677,0.17774945,0.1065897,-0.18970035,-0.25169757,0.1388302,0.14834087
miRNA_12,0.09571233,-0.36699495,-0.023299623,0.087636165,-0.13705869,0.016672732,0.050832067,0.18784168,0.24319032,0.03011544,0.058274053,0.08519447,-0.31122226,-0.20002277,-0.021323131,0.21526396,-0.26215202,-0.14609514,-0.104449004,-0.04241276,0.37772223,-0.32137078,-0.44755659,-0.149418,0.025223562,0.14901885,-0.20274544,0.3262707,-0.3295963,0.26755187,-0.41056225,0.11883388,0.11476539,0.046502057,0.065517925,-0.010521979,0.258203,-0.19877239,0.033297986,-0.07659437,-0.23843746,0.2087232,-0.3010379,0.11009673,0.035636894,-0.13551702,-0.17124514,-0.101623006,0.6919076,0.10025465,-0.039801814,0.27600104,-0.12817857,-0.18794397,0.30185807,-0.37388024,0.16187637,-0.55119014,-0.057007067,-0.09693677,-0.1166051,0.16542888,0.08042466,0.123384446,0.06903832,-0.030634483,0.5005844,-0.08856148,-0.12743546,-0.21639526,-0.23261867,0.019370828,0.2452282,-0.3343209,-0.055656128,-0.2256157,-0.20725799,0.10693137,-0.37803334,0.18582188,-0.39242524,0.041025214,0.01967116,-0.30885804,-0.060109004,0.026723651,0.047062688,-0.1647134,-0.10394017,0.09921524,-0.31554046,-0.018761508,0.03254041,-0.16582091,0.28786606,0.028792249,-0.22245508,0.16457725,0.13477449,-0.38757834,-0.16612081,-0.07298443,0.016883792,-0.008285694,0.052008048,-0.07590817,0.14385776,-0.066216126,0.1964083,0.29967973,0.1600068,-0.30494046,-0.19767284,-0.0958707,0.2018228,0.06398322,0.19934678,0.20688604,0.02553484,-0.093952455,-0.010392479,-0.44641304,0.10742687,-0.12968396,0.09679255,-0.0954382,0.3114629,0.24041392
miRNA_13,0.024597619,0.068474695,-0.23609428,0.3991359,0.017688574,0.23989181,0.08665181,0.3785579,-0.0908598,-0.09132218,0.10139716,-0.26259813,-0.12371978,-0.22775084,-0.1827133,0.069037184,0.24841489,-0.15632305,-0.24361418,0.091435574,0.25547475,0.073782824,-0.30703938,0.2376213,-0.37703636,0.056973998,-0.27446744,0.38327923,0.03422231,0.40779746,-0.076726705,-0.081850015,0.002011448,-0.03837381,0.473362,0.42697674,-0.34009144,-0.40426973,-0.4073539,-0.28918344,0.31317544,-0.016949553,-0.06654384,-0.10460016,0.23283565,-0.28687552,-0.037285373,-0.06920415,0.060574792,-0.077481605,0.04021488,0.398815,-0.5276978,0.086469136,0.65622795,-0.072180994,0.21562387,-0.47109425,-0.2133889,0.11787308,-0.14596763,-0.16540709,-0.37372652,0.04480279,0.12571923,-0.06569492,0.12867087,-0.36726764,0.36533183,-0.06644386,-0.12250809,-0.11595654,-0.10646248,-0.053582452,0.3624676,-0.21016678,0.10192397,-0.01386722,0.05473729,0.38193738,-0.19802088,-0.24386339,-0.16059203,-0.0019779832,0.018258521,0.09714076,0.006945877,-0.3022695,-0.20125727,-0.17530873,-0.2423355,-0.008052534,-0.18171239,-0.27890036,0.14370212,0.109370574,-0.1240437,0.002097073,0.074180625,-0.08089361,-0.4479002,-0.2409766,-0.22463894,-0.3494299,0.10312506,-0.3657203,-0.060636282,-0.03715584,0.110511824,0.3232067,-0.10118153,0.12786716,0.12915403,-0.06131436,0.25385052,-0.23263521,-0.055242512,-0.04084897,-0.1850904,-0.24829186,0.062690146,0.0025657173,0.17082047,-0.0544122,-0.24127418,0.024943065,0.003496345,-0.025017459
miRNA_14,0.076358944,-0.002428227,0.2805314,0.17744948,-0.09423605,-0.19427869,-0.006684174,0.14451976,-0.044933777,0.20871724,0.2701088,0.005785289,0.024437211,-0.38994282,0.28942248,-0.16234255,-0.39552814,0.088290595,0.16990896,-0.045929655,0.17103088,0.09576587,-0.14104742,0.21391076,-0.36491403,-0.27598146,-0.0056612715,-0.27872783,-0.13376667,-0.38087243,-0.010806914,0.14259247,0.05263943,-0.1929092,-0.30468246,0.046257496,-0.07707823,0.35047692,-0.14664862,0.13355623,0.020532,-0.022507688,0.064025834,0.07468575,0.24786307,-0.40511864,-0.2644598,-0.2327538,-0.14727624,-0.074914336,-0.019599713,-0.12668423,-0.124163054,-0.36283302,0.034270346,0.012940868,-0.011895216,-0.115662195,0.09255556,0.20970158,-0.18850604,0.06386365,-0.07520808,-0.311231,0.2912645,0.028707787,-0.17050745,-0.44398126,-0.17036928,0.047461666,-0.33716154,-0.29849958,-0.35152477,-0.59418374,0.07329914,-0.1633321,0.03608429,-0.12450073,-0.23540491,-0.11696991,-0.06295393,0.1599103,-0.10820151,-0.0024151832,0.0914699,0.23399805,0.25420597,0.15140441,0.0035219255,0.36585656,-0.2235091,0.04432589,-0.29964015,0.07322709,0.15371417,0.47904077,-0.23966473,-0.19384247,-0.42301276,0.36069825,-0.13047124,-0.059631266,-0.22447582,0.16377363,-0.41842115,-0.055597644,0.34409672,-0.26531443,0.046779767,-0.031199168,0.30532253,-0.23913994,-0.10283768,-0.00085017027,-0.12505855,0.025727458,-0.25952515,-0.13231046,0.10610674,0.5191835,0.23715006,0.3166355,0.10556437,0.033228964,-0.2371884,-0.15724729,-0.009661235,0.39227146
miRNA_15,-0.1595297,-0.019783948,0.35428217,0.27370644,0.1451167,-0.020585198,-0.10470062,0.07857578,0.01693163,0.25043288,0.07516844,-0.1295148,-0.14047487,-0.14158155,0.19584186,0.14239286,-0.30158654,0.08838947,0.48948255,0.16270767,0.20536076,0.17693868,-0.28440726,-0.27705985,-0.31901482,-0.14864227,0.010751781,-0.08396759,-0.22112578,-0.17379554,-0.21157308,0.11736949,-0.058688432,-0.0606806,-0.107884265,-0.14693418,0.12699348,0.05987627,-0.21315955,-0.062410507,0.4122093,0.1729582,-0.1018717,0.06929755,0.3823994,0.19019239,-0.07208305,-0.16035344,0.023576934,-0.06445735,0.3763683,0.02721343,0.043878995,0.06365102,0.2254028,-0.1164671,0.17492476,-0.4317541,0.070612326,-0.112889595,-0.09006789,-0.2230674,0.042827424,-0.2504405,0.32100472,0.017183099,0.07508985,-0.25666434,-0.41855395,-0.12463045,-0.057044327,-0.06823996,0.13639894,-0.42370185,0.13686207,0.23053949,0.27797315,0.15024734,-0.045806143,0.085747845,-0.2137157,-0.33756894,0.010095412,0.124157906,-0.079251885,0.4363665,0.6068523,0.027431102,-0.08345126,0.030938102,0.017270554,0.11554961,0.07282672,0.31629413,0.13871548,-0.2544801,0.11082402,0.28939313,-0.006568908,-0.10375176,-0.14679591,-0.09388223,-0.20818993,-0.025682664,-0.12911424,-0.39697522,0.093154564,-0.0018924648,0.28236386,0.26318452,-0.09979822,-0.007150652,-0.13611464,0.11648987,0.09795314,0.3148952,-0.06435404,0.3450358,-0.2736678,0.0384628,0.46640044,0.20241936,-0.029610518,-0.192009,-0.4005779,-0.15371227,-0.12019917,0.064421706
miRNA_16,-0.19418779,-0.04261027,0.28916052,0.27111217,0.17279087,0.058030225,0.043933768,0.10433503,-0.14111337,0.2660387,0.08641442,-0.073274925,-0.0861498,-0.1807777,0.23671801,0.051078524,-0.3579572,0.103486,0.58514917,0.115692034,0.28047624,0.09304097,-0.2582542,-0.36855343,-0.27957213,-0.13029158,-0.032757428,-0.31786692,-0.19765688,-0.2579149,-0.2527727,0.06328851,-0.0611668,0.03182774,-0.12543246,-0.14136057,0.023842975,0.100080825,-0.2273525,-0.2039012,0.39493203,0.20893142,-0.08514822,0.015881527,0.4774971,0.28113818,-0.08194932,-0.2894665,0.1401142,-0.121773005,0.22584789,-0.082902454,-0.025147472,0.054118574,0.31261596,-0.06343333,0.11921616,-0.43513384,0.12006886,0.012357181,-0.09404131,-0.23603521,-0.014959523,-0.23894288,0.43431926,-0.039252933,0.04763783,-0.1192853,-0.39575708,-0.20881705,0.009627911,-0.22154751,0.1816454,-0.49450022,0.04125827,0.29681554,0.19017076,0.048939966,-0.055222582,0.12093818,-0.16592349,-0.32922179,-0.07533292,0.03250879,-0.0846729,0.33485693,0.43473628,-0.0056931362,-0.08657447,0.023423,0.06569113,0.1394588,0.07222074,0.34889105,0.17159349,-0.13176438,0.09364549,0.19652127,-0.049743082,-0.037556875,-0.1108081,-0.12593234,-0.29279676,-0.07012971,-0.052129388,-0.26974964,0.16642754,0.08822964,0.29448634,0.20947522,-0.0815105,0.11604858,-0.13019554,0.13883118,-0.009966407,0.34890968,-0.20167671,0.396352,-0.17594849,-0.0018437448,0.46641397,0.17748474,-0.0006444148,-0.17726079,-0.40356568,-0.11924972,-0.20215626,0.13685511
miRNA_17,-0.0916391,-0.07339841,0.17956062,0.2984128,-0.25759295,-0.12308321,-0.061350044,0.16851822,0.5151404,0.17309655,0.046692472,0.02722715,-0.10150349,-0.14053734,-0.065182425,-0.06485714,0.06446384,0.21568137,-0.051186427,-0.14247416,-0.21059865,0.36528152,-0.27714851,-0.1550698,0.515511,0.09143726,-0.16771868,-0.1306575,-0.42030177,-0.32155412,-0.30226067,0.15369354,0.33318877,-0.27055618,-0.083478905,0.16008109,-0.07592638,-0.43187955,-0.034814622,-0.093310595,0.33932158,-0.07584311,-0.12898006,0.2681955,0.18935788,-0.059479725,-0.50274783,-0.29767257,-0.15609351,0.16634268,-0.047029603,0.4981789,-0.209066,0.3693797,0.16140644,-0.5262239,0.0063107572,0.027750162,-0.079654306,0.48695835,-0.25750628,0.00608357,-0.28797856,0.3568043,-0.29858163,-0.094760686,0.18985067,0.22801875,0.28350157,0.13553064,-0.16788916,-0.088526845,0.2116221,-0.39883393,0.4804758,0.35707608,-0.28818578,-0.21363562,0.11404797,-0.3702614,0.01692675,-0.26150593,0.3218227,0.48351392,0.34667575,-0.13906525,-0.16733284,-0.14392357,0.011495754,0.38442186,0.19903426,0.059460275,-0.38966012,-0.08014062,-0.031243214,0.3614186,-0.080617346,-0.30266732,-0.10156335,0.09451895,-0.08672045,-0.50887775,0.22712694,0.2820222,0.41795567,-0.40905106,-0.13972749,-0.2550985,0.078502476,0.17083713,0.21942034,-0.026245581,-0.046246547,0.091403246,-0.041495863,0.5354429,-0.11983826,-0.09401624,-0.0059791934,0.06422231,0.013392633,-0.46566853,0.15680502,0.16953927,0.25218827,0.23852986,-0.2700643,0.08504777
miRNA_18,0.061469577,-0.16207458,0.31397668,0.016913833,-0.06647796,-0.3290748,0.04722097,0.08262269,0.28518942,0.054408845,0.02771595,0.024843525,0.1440737,-0.27051535,0.3598976,0.28999224,-0.20917703,-0.03667093,0.31677607,0.21000104,0.33247647,0.047998894,-0.2901835,0.37502745,-0.22716686,-0.2376241,0.2520576,0.014322074,-0.12871218,-0.11892252,-0.14204632,-0.07353475,-0.217983,-0.12662275,0.10970185,0.2466993,0.14049456,-0.048202723,0.27038467,-0.14337982,-0.1490326,0.5559266,0.03270935,-0.20241673,0.1528425,0.027390553,-0.560432,-0.5335239,0.35928696,-0.008049288,0.11542084,0.32821804,0.034798004,0.58639556,-0.024552535,-0.22325066,0.14952429,-0.10679034,-0.09811023,0.10330714,-0.20359772,-0.034449354,0.1730881,0.027790511,0.14444226,0.31156796,0.040214214,-0.19955549,0.024787104,-0.07879136,0.0535641,-0.12474448,0.29327515,-0.10975232,-0.12106444,0.06695056,-0.041634683,0.0693882,0.0004039615,0.47614962,-0.074671224,0.1743165,-0.21657018,-0.14165273,-0.072549075,0.06470007,0.025366949,-0.13177964,-0.1576116,-0.11346452,0.14211369,0.13122383,-0.21552065,0.03363091,-0.3834214,0.42823866,0.18412267,-0.119097754,0.009460105,-0.28641716,-0.23282805,0.102626756,-0.13526995,-0.08103721,0.17423967,-0.38434514,0.06786542,-0.056509916,-0.14112599,0.557597,0.1654883,-0.006374415,0.2720123,-0.042121764,-0.1198894,0.058418136,-0.12371893,-0.19212191,0.030693155,0.12109467,-0.20392627,0.08467777,0.11344277,-0.10405401,0.11874487,-0.24867684,0.066126175,-0.05673666
miRNA_19,0.4853487,0.18420696,0.19041725,0.24998486,0.25369814,-0.18167052,-0.111446336,-0.17254464,-0.15063319,0.2109196,-0.26576844,0.078446664,-0.30733058,-0.2664589,0.31950876,-0.14193417,-0.0065940567,-0.021383872,0.085475236,-0.08676512,0.5508821,0.09007029,-0.14679788,-0.21119119,-0.14957897,-0.03455314,-0.049315535,0.3936297,-0.02353668,-0.07758611,-0.056392547,-0.22989386,-0.43909112,-0.19946891,0.078208074,-0.19686799,0.5625409,-0.039244633,-0.16596505,0.13578099,0.40047464,0.16217734,-0.3903904,-0.055753853,-0.17959061,0.09268599,0.09464353,-0.25681493,-0.14819175,-0.046966206,0.044269398,-0.042476226,0.08904492,-0.25641292,0.05720309,-0.22638468,-0.18100716,-0.088741586,-0.316806,-0.00955476,0.071795166,-0.3412288,-0.14086111,0.12090534,0.0063044266,0.018452726,-0.049047302,0.061252214,0.05780143,-0.23340218,0.5000186,0.26297456,0.0893118,-0.03876572,0.3645203,-0.021401247,0.1350108,-0.12741593,0.1739261,0.30658156,-0.03995513,-0.22485028,-0.069519386,-0.09147899,0.21785358,0.3312727,0.17333813,-0.13396102,-0.048270363,0.20851006,-0.21001424,-0.0059818835,-0.23574468,-0.16372393,0.17034993,-0.11086896,-0.021788059,-0.5540487,0.042670526,-0.22953747,-0.31521073,0.021900399,0.07873441,0.054448016,0.5495828,-0.08871463,0.36463338,0.29523036,0.16432934,-0.06767794,0.07341142,0.033281934,0.16671288,-0.2488032,0.05293269,-0.040605076,0.055819523,-0.1929354,-0.25022107,-0.023588438,-0.1803684,-0.017036192,-0.12005308,0.08263628,0.0070131347,0.15521836,-0.20658253,0.12671678
miRNA_20,-0.06744027,0.043147072,-0.22506697,0.015312313,0.2864939,-0.01610107,0.11440872,-0.00634441,0.31515062,-0.1833717,-0.50911355,-0.015790887,0.047658484,-0.3327838,0.4727167,0.22801398,-0.051703103,0.13781829,-0.10012469,-0.3103802,0.22879656,0.47025988,0.04288809,0.092381306,-0.25975326,0.13972448,0.16559026,0.36579302,0.029092873,-0.0761724,-0.1258003,0.09215822,-0.33403274,0.12810509,0.007603835,0.08238489,0.12490847,-0.42143968,0.016422061,-0.08638886,0.37420574,0.20006274,0.14330882,-0.08188286,0.15456346,0.30602872,-0.28001335,-0.030588772,0.006756717,0.0020120752,0.2030052,0.03274826,-0.22997563,0.12565313,0.52644056,0.20330924,0.064454995,-0.28218162,-0.23058575,0.2000218,0.16542393,-0.30702284,0.12976004,0.07000349,-0.14398672,0.017436078,0.1686231,0.022071313,0.028001484,-0.19848612,0.10652218,0.021631703,0.06131547,0.127013,0.34959546,0.0463305,-0.18770137,-0.12455039,-0.2685399,-0.2196921,0.34699833,0.3372886,0.31131992,0.29450387,0.011908508,-0.10979123,0.21054006,-0.038382396,-0.26422295,-0.23676352,0.039948195,-0.16513161,-0.3453075,-0.3494281,0.19759612,0.18416724,0.03777315,0.045614842,-0.021805769,-0.3167906,-0.2264193,0.086481325,0.14710653,0.33248892,0.04569471,-0.33038852,0.0047549657,0.009520123,0.08057228,-0.167591,0.04442906,0.042450365,0.32620096,0.15025337,-0.20708396,0.19046594,-0.02618653,0.39788494,-0.004171949,-0.048338003,-0.23260862,-0.052974667,0.05860941,0.022163369,-0.25452274,-0.1681573,0.03342678,0.12296035
miRNA_21,-0.07533705,-0.022037677,-0.19452022,0.108290136,0.30149853,-0.0038973484,0.07361345,0.02462976,0.1751933,-0.08926016,-0.5070451,-0.076170065,0.14172103,-0.31072882,0.48312953,0.2056193,0.05827763,0.07748506,-0.15976559,-0.28233135,0.21109065,0.47722146,-0.055158436,0.10055655,-0.2890961,0.024131015,0.04382551,0.39278698,0.25797948,-0.17623456,-0.18625358,0.06236306,-0.4257485,0.15401763,0.117675975,0.11092715,0.03101534,-0.3906161,-0.06813271,-0.03177126,0.24786922,0.197812,0.093242206,-0.10015008,0.08976544,0.252877,-0.16226253,-0.03537669,0.08016217,-0.12600015,0.1664737,0.11181795,-0.26987883,0.14124551,0.49509847,0.14957052,0.10288297,-0.25349072,-0.10682917,0.15581115,0.281028,-0.3020461,0.004634972,0.11506051,-0.10785623,-0.06918726,0.09933752,-0.092077866,-0.01090614,-0.14779481,0.130963,-0.09702311,0.04268186,0.07769598,0.3643183,0.03555326,-0.12352701,-0.15801968,-0.18298641,-0.23626658,0.3450404,0.2636431,0.21766137,0.34498897,-0.048525132,-0.016420148,0.17235501,0.053072833,-0.27571648,-0.21770014,0.0856303,-0.29660824,-0.29351923,-0.28847384,0.22116576,0.27717432,0.09590485,0.12234813,0.12160087,-0.30413347,-0.2359175,-0.05307252,0.10607794,0.40710795,0.19599088,-0.3093668,0.16932814,0.089306846,0.19312659,-0.13137123,0.041481987,0.0027164365,0.2957343,0.20907609,-0.33440182,0.41347894,-0.038724434,0.29306415,0.049325734,0.020308902,-0.32375598,-0.026651418,-0.03702931,0.035480168,-0.22086954,-0.19589064,0.07869499,0.120888144
miRNA_22,0.08782519,0.31993672,-0.17362744,-0.11806874,0.010049599,-0.14852591,-0.11344305,0.0008660267,0.015101378,0.05153989,-0.032609243,-0.31148565,0.23952901,-0.24195147,0.1551365,-0.16009012,0.10919724,0.34679016,0.14602464,-0.38249144,-0.44606107,0.31670702,-0.042743996,-0.21227577,-0.21467787,-0.10670963,0.075016595,0.4396558,-0.067001484,0.053432293,0.19183028,-0.1786134,-0.25749797,-0.4004066,0.03402779,0.38134968,0.7289079,0.14631023,0.44670987,0.14260794,0.33630514,0.35532266,0.12162765,0.26751703,0.121424325,0.21773197,-0.11162876,-0.0073638833,-0.0060505546,-0.12782216,0.0007295885,0.1562276,0.25198227,0.06884259,0.11233252,-0.19777295,0.047302835,-0.086719766,-0.24091354,0.20572269,-0.17803651,-0.055459257,-0.037306942,0.10959896,0.3607478,0.020897502,0.10711648,0.15248832,-0.27169505,-0.08128865,0.33651868,-0.043236334,0.03794327,-0.3655486,0.10160462,0.09285217,0.32497463,0.079525344,-0.115530826,-0.34135613,-0.2828599,-0.3472309,0.065515496,-0.069630414,0.28443506,0.24045393,-0.047379855,0.12192066,-0.33629295,0.4949849,-0.25791612,-0.18644482,0.08165041,-0.05988039,-0.1275675,0.10916297,-0.3043313,-0.050863124,-0.25126475,-0.00018911231,-0.5930465,0.12975353,0.06485216,0.009769474,0.15308033,-0.08883175,-0.01093842,-0.15026234,0.14304422,0.28683034,0.15731587,0.013234403,-0.18499883,0.12986225,-0.0025304283,-0.25392506,0.30441266,-0.23557408,0.027065542,-0.1777191,0.20718214,-0.09623164,0.07653685,0.06432925,-0.40078995,0.1272754,-0.37543982,0.5453963
miRNA_23,0.053620964,0.070273645,-0.5587111,0.39461416,0.25959653,-0.02168192,0.46291023,-0.015865661,-0.27406374,0.1709678,0.24782139,-0.6055123,0.1500662,-0.15754044,0.006674918,-0.12538297,-0.6024185,0.10730631,0.33051986,-0.50265115,0.19652428,-0.16387354,-0.47425264,-0.07267996,-0.76346236,0.088110544,-0.040408786,0.105058804,-0.0734609,0.11932001,-0.26460204,0.284538,-0.08070388,-0.24090664,-0.06608206,-0.039108608,0.3987894,-0.5065009,0.069129646,-0.30017784,0.1144439,-0.014718024,0.26093307,-0.055766053,-0.095524184,-0.06429867,0.05161112,0.24258904,0.16126631,0.08614378,0.20785108,0.046173774,0.40362138,0.009784273,-0.17300731,-0.09308026,-0.15457025,0.07180765,-0.59883755,0.2971272,0.5742777,0.42185527,0.096946254,0.082462095,0.08163819,-0.0568701,-0.004283547,0.16096003,-0.13601676,-0.047534563,-0.08875667,0.009574628,0.014263319,0.052876223,-0.2932071,-0.16312449,-0.23341842,0.35571888,-0.11422532,-0.031507447,-0.16990031,-0.12823242,0.11981458,0.05021338,-0.47137186,0.13232383,-0.19958648,0.055207692,-0.21533734,0.12720373,0.2770244,-0.2094424,-0.19160776,-0.15490825,0.216867,-0.081779525,0.2507616,-0.64781696,0.41605985,0.18611495,-0.52826416,-0.4363872,0.17928955,-0.15482222,-0.027969016,0.1758464,0.29935786,-0.6607677,0.21571049,-0.1305474,0.18330866,0.35000774,0.07307372,-0.16431017,-0.20167543,0.38365272,-0.24341257,-0.007505428,-0.38929072,0.32601863,0.17211995,0.13259315,0.10205369,-0.82205206,-0.14572926,0.026400074,-0.14288071,-0.5591978
miRNA_24,0.2463729,-0.018647252,0.40877914,0.3277247,0.012683692,0.03330938,0.2723149,-0.38170925,0.057424314,0.25985178,0.20379938,0.21664128,0.22776031,-0.26553652,-0.137687,0.40553975,-0.039143674,0.12227651,-0.08326676,-0.047029443,-0.28134456,-0.13682306,-0.16349132,-0.086489014,-0.16794579,0.19824284,-0.20657055,0.33295956,0.11834583,0.15644391,-0.37866533,-0.33020213,0.19163743,-0.34741923,-0.08144829,0.02835174,0.33562753,-0.15267186,0.25292706,-0.34552678,0.008336214,0.41009134,-0.6176394,-0.2801854,0.76467687,0.11225209,-0.10344428,-0.19154696,0.17207082,0.2112253,-0.15869172,0.08324477,-0.55723304,-0.010199753,0.16966158,-0.26206538,-0.081393406,-0.16104366,0.037029307,-0.08027339,-0.23747087,0.0906535,0.13646702,0.23733085,-0.10903803,0.25925404,0.15301837,-0.115862325,0.20475647,0.3591455,-0.0485704,0.06452888,0.039515283,0.09151571,0.13036296,0.36017478,-0.035992473,-0.100521006,-0.04213126,-0.4240517,0.54343766,0.23773879,-0.2389465,-0.14020933,0.26214844,-0.104976885,-0.4726006,0.29340655,0.24617416,0.13685,0.34765804,0.016520265,-0.03432734,-0.48956844,0.13935384,0.15593953,-0.27403107,-0.54654014,-0.19124028,-0.43802294,-0.5906904,-0.40235546,0.13124384,0.006840962,-0.2034379,-0.041871574,0.106438994,0.09971884,-0.08123409,-0.3434994,0.057430025,-0.4467905,-0.046219975,-0.3226286,-0.33636624,-0.060211726,0.17531942,0.13192946,-0.14237058,-0.19736202,0.0041208807,0.03696207,0.54823977,0.18749212,-0.03889683,0.26354584,0.074037686,-0.0051127374
miRNA_25,0.08620533,0.010959154,0.061616413,0.15496993,0.03208984,-0.13539827,0.2515213,0.018490974,-0.29766548,0.51047313,0.10093139,0.15084681,0.004562496,0.15315868,-0.18205991,0.3447528,-0.13455792,0.32879737,0.61857504,-0.3783964,0.17676689,-0.048673436,-0.104664266,-0.14945701,-0.13228847,0.12068833,0.61017084,0.23479845,-0.29507288,0.06937716,-0.50098246,-0.07606454,-0.1816556,-0.011453121,-0.11843605,0.24980742,0.2796334,-0.24259332,-0.017029794,0.21511218,0.065539576,0.03568747,0.000537563,0.33467108,0.08053267,-0.011623188,-0.25084677,-0.12291128,-0.199027,0.0749098,0.21624617,0.3578666,-0.4054257,-0.101813905,0.15753639,-0.16935594,-0.12488275,0.105529636,0.20492865,0.13567768,-0.087044924,-0.009014832,-0.021159874,-0.22236791,0.23321801,-0.058463734,0.12561402,0.44709826,-0.2736962,0.13618392,-0.13304573,-0.0035175604,-0.012648554,-0.38567245,-0.0008692276,-0.114311256,-0.11210348,0.09624412,0.074968345,-0.47469094,0.11007277,0.07739017,0.06944304,-0.21729392,-0.050547823,0.28684026,-0.026711741,-0.020260965,-0.095824026,0.24523368,0.122968696,-0.17929278,-0.018529108,-0.20925993,0.3088233,0.20100415,-0.30486277,-0.1252637,-0.26211518,-0.14010069,-0.72893864,-0.061529115,0.050297678,0.16149376,0.05978959,0.41424555,-0.13930126,0.002474491,-0.18596832,0.23626499,-0.06582156,-0.15500674,0.036227774,0.1960884,-0.2060813,-0.30699682,0.3430932,-0.05340651,-0.055733997,-0.3306495,0.13022643,0.23891792,0.2153392,-0.47535124,-0.21565668,0.063412175,-0.15040924,-0.1180376
miRNA_26,0.09756305,-0.005258961,0.13740629,0.20653224,0.074735135,-0.12149152,0.16115402,0.006969341,-0.20614034,0.4662251,0.20153043,0.13343215,0.0013487721,0.055418465,-0.19505106,0.4004443,-0.041535497,0.23818783,0.4870514,-0.28850856,0.015195192,0.012341762,-0.07722439,-0.1140436,-0.17175221,0.25299528,0.57928675,0.29785168,-0.37864754,0.0014140637,-0.5674423,-0.0406582,-0.26401058,0.03776728,-0.17836191,0.30587524,0.29251754,-0.22475667,-0.02413358,0.2105902,-0.05803969,-0.030363636,0.08440794,0.2576401,0.018750876,-0.05442362,-0.22173889,0.015395115,-0.1863877,0.025892882,0.3551982,0.34079477,-0.38108408,-0.099516176,0.006148325,-0.1274569,-0.16616845,0.029841643,0.094563164,0.09982255,-0.21618466,0.03386279,-0.06339095,-0.27980658,0.121151924,-0.061811157,0.1572582,0.30997592,-0.20265502,0.16439736,-0.15724166,0.04607542,0.037384707,-0.29367673,0.094153196,-0.08487485,-0.040376768,0.12709263,0.1725563,-0.37486666,0.061953302,0.038885977,0.121991456,-0.061953824,-0.15174657,0.26592836,-0.0052987537,-0.09313445,-0.07059057,0.27132523,0.10772067,-0.08046356,-0.0037116592,-0.27348346,0.2623814,0.15154296,-0.25918216,-0.09145765,-0.25276613,-0.13782603,-0.6891602,-0.06482481,0.056717936,0.12517425,0.03468287,0.3884676,-0.1512378,-0.058356073,-0.19266698,0.26694396,0.0032964337,-0.0716928,0.12279971,0.18457751,-0.028378254,-0.3306785,0.2979701,-0.11447677,-0.026788838,-0.28045687,0.07501194,0.29485792,0.17226523,-0.5035633,-0.23496066,0.057447664,-0.13587746,-0.18929346
miRNA_27,-0.265492,0.077567235,-0.38732708,-0.054725576,0.3960662,0.13595225,0.2305526,0.0063619204,0.2643465,-0.02074332,0.06613212,-0.28502402,0.15768579,-0.36498386,0.15559609,0.045719035,-0.24353549,0.25812292,0.14957184,-0.5556664,-0.18097526,0.080832355,0.108003624,0.01610365,-0.3029108,-0.19873905,-0.09048299,-0.39000848,-0.021154601,0.023877792,-0.09307654,0.3715655,-0.19056347,-0.31649262,0.09890891,0.060539775,0.26202694,-0.2885713,-0.021722894,-0.41296583,0.15698683,-0.08465284,0.24373676,-0.17864054,0.30375645,0.037953235,0.21052314,0.11723868,-0.09813551,0.096877635,0.4159294,0.08068528,0.24372609,0.107858345,0.20409262,-0.016426198,-0.24200663,-0.23059158,-0.41554454,0.24498858,0.17885096,0.6095019,-0.2237546,0.02239583,0.30992553,-0.12999444,-0.040587164,0.003880683,0.17273806,0.013092846,0.23827462,0.27919132,-0.2505175,0.36255032,-0.16721563,0.05200735,-0.18874294,0.15332113,-0.109575324,0.055350315,-0.3848242,-0.2494374,-0.022029236,-0.0070355115,-0.1617467,0.23522824,0.2449158,-0.07424343,-0.24798554,0.10588891,0.23115925,-0.4510895,-0.5303637,0.05820012,-0.060987297,0.075010724,-0.19230825,-0.14611071,0.17280997,0.017750025,-0.5429188,-0.30856183,0.1273219,-0.053428184,-0.03418664,-0.21496949,0.17349169,-0.31256282,0.11627896,-0.2205466,0.28048834,0.10735046,0.2360774,-0.16001849,-0.20609832,0.27705112,-0.1702142,-0.12947874,-0.13428822,0.22628279,0.27081573,0.16223763,0.42764333,-0.22901237,-0.1697633,-0.069170035,0.08848918,-0.3262797
miRNA_28,-0.07480101,0.09544554,-0.16501279,0.64484406,-0.11167938,-0.08174733,0.12505677,0.13952836,0.05850637,0.2790952,0.31131315,0.32437116,-0.26046,-0.034461282,-0.0057344963,0.084325925,-0.08709327,0.18683478,0.21492751,-0.47782698,-0.01945572,-0.04278591,-0.29749656,-0.13064855,-0.044599134,0.1041183,0.15710406,0.28893682,-0.035015102,0.13295975,0.14191197,0.11909608,0.12252361,-0.036368534,-0.19083114,-0.16316642,0.123942755,-0.20633325,0.23217015,0.25766078,0.02611758,0.057125214,-0.23975769,0.35175514,-0.06418727,-0.11426448,-0.22453305,-0.1901944,-0.3816405,-0.13950181,0.14299291,0.40358675,-0.26246512,-0.13925862,0.054940976,-0.3074141,0.037813224,0.17887573,-0.119344175,0.2222275,0.05499919,0.08575258,-0.07075337,-0.12208316,0.030140786,0.040263537,0.13653423,0.34744772,-0.24613887,0.084633484,-0.21257436,0.028827064,0.2767107,-0.49609968,-0.23481266,-0.18218763,-0.29547036,0.17790054,0.0024814347,-0.2768098,0.38109645,-0.06336891,0.19100891,0.08520072,0.07926242,0.23565343,0.21950172,-0.062441386,-0.13089113,0.40916517,-0.09507771,-0.0063770176,0.051751796,-0.24288164,0.1976897,0.21941817,-0.32247776,-0.2077391,0.16881357,-0.13239104,-0.42601115,-0.08486505,0.042047683,0.33750308,0.42798728,0.04081164,0.03449318,-0.613444,-0.07025666,0.21644081,-0.083754346,-0.013121892,-0.16817218,0.25719136,-0.13075279,-0.004596769,0.040018283,-0.07964661,-0.21191765,-0.09461328,0.026546573,0.14414486,0.28037962,-0.5519214,-0.27107057,-0.021100726,0.12093063,-0.39444476
miRNA_29,-0.07726562,0.080906816,-0.1641001,0.67596596,-0.10197006,-0.096936144,0.07173613,0.09698029,0.093145095,0.20510335,0.35492882,0.3388533,-0.24299349,-0.055371944,-0.007901414,0.117974155,-0.07052402,0.197763,0.24336417,-0.47445807,0.004647069,0.023858722,-0.23954642,-0.060399648,-0.009770964,0.071076326,0.19798687,0.3353764,0.013581483,0.14022869,0.034405306,0.086226314,0.16674253,-0.041636392,-0.21048726,-0.2007355,0.057721913,-0.28747174,0.20668717,0.21487667,0.05766572,0.017620591,-0.22836885,0.36298457,-0.09411542,-0.11360413,-0.19612823,-0.23154972,-0.3327182,-0.15498026,0.16768871,0.45430297,-0.21394464,-0.1490356,0.039388783,-0.38965076,0.056835167,0.14707507,-0.18102753,0.27230066,0.12850069,0.097936906,0.014327789,-0.17800961,0.07034271,0.05370755,0.11801259,0.39621237,-0.24183114,0.03597075,-0.16548696,-0.014123792,0.27582157,-0.51886415,-0.2218747,-0.1362041,-0.23978594,0.13719289,-0.009469712,-0.20654659,0.38305217,-0.0031679557,0.18701218,0.025777508,0.09509163,0.23416087,0.20510001,-0.014927482,-0.13014293,0.402207,-0.067922235,0.0056021325,0.057277057,-0.24712119,0.19988218,0.23529522,-0.32165024,-0.19597778,0.10361475,-0.08281075,-0.4105439,-0.122992694,-0.05516405,0.36336657,0.42675132,-0.018987786,0.03765489,-0.5683991,-0.1680932,0.2494753,-0.056690063,0.00554569,-0.153297,0.16856639,-0.10611224,-0.05440235,0.06958091,-0.0697858,-0.18248527,-0.10207185,0.04022883,0.09422259,0.2728003,-0.5664067,-0.23266597,0.008306258,0.081611134,-0.3560775
miRNA_30,0.011041702,0.19014718,-0.045830335,0.16571812,-0.12456983,0.28668973,-0.05333768,0.33037978,-0.40601113,0.13341701,0.1719505,-0.072660424,-0.024946643,-0.2823778,0.28641164,0.2556819,-0.28200245,0.3525113,0.23678777,0.17066158,0.2863942,-0.068487406,-0.1794696,-0.35011968,-0.054999765,0.16487843,0.3427586,0.25960347,0.120919034,-0.1127046,-0.4325967,-0.1698315,0.0127029335,-0.00032605912,-0.1811402,-0.058378763,-0.1980155,-0.100272104,0.31274846,-0.06639006,0.13587475,-0.17122416,-0.4797876,0.34203398,0.07532255,-0.18751238,-0.13365704,0.14583768,-0.02193383,0.09202391,-0.018150223,0.3876443,-0.29442513,0.06034668,0.42926732,-0.13890924,-0.38336554,-0.6648915,0.15271088,-0.2458266,-0.21132049,0.09146996,0.046765435,-0.19908436,0.27853155,0.15376438,-0.39727798,0.13959438,0.05371063,-0.25224975,0.073235996,-0.5205184,0.19518505,-0.27374345,-0.15102765,0.07959709,-0.17634495,0.10038485,0.028656946,-0.03226092,0.014894748,-0.2046561,0.15463534,-0.2067648,0.13336699,-0.10973645,0.17740168,-0.18926442,0.19943722,-0.16758825,0.37271094,-0.10575357,-0.0022749163,-0.0598735,0.13134111,-0.14324734,0.029245047,0.10751333,-0.12920684,0.055994477,-0.61678535,-0.26727432,-0.19149934,-0.41721192,-0.09854037,-0.18800765,0.04255533,-0.30341712,-0.15610649,-0.16098258,-0.033140115,-0.20089455,0.060759015,-0.089829504,-0.13030921,0.056695025,0.061060254,-0.29503718,0.27894512,-0.41436473,0.14268851,-0.121348955,0.17171729,-0.1529271,-0.22793236,0.39981577,0.033212308,-0.0102681955
miRNA_31,0.031088067,0.04131242,-0.3495001,0.034359884,0.016950624,0.17922871,0.62771547,0.5306197,-0.100026414,-0.029809004,0.22207713,0.11660733,-0.20535216,-0.24365896,-0.3161198,0.25648046,0.3458928,0.15656677,-0.07524021,0.0050056553,0.050029777,0.671007,-0.010231535,-0.21268284,-0.28881034,0.21209645,0.12591289,0.14987448,-0.09059502,0.37327316,-0.16930792,-0.23160185,0.15291479,0.4023018,0.22208579,0.18885693,0.5854567,-0.0047219507,-0.18859065,-0.09477635,0.03975918,0.3071223,0.2938011,0.012356532,0.15194973,-0.19179456,-0.40759984,-0.16801395,0.06720275,-0.4012434,0.34544078,-0.084377125,-0.07207653,-0.15499972,0.6180591,0.019493919,-0.1827222,0.21055624,0.30850518,-0.06990055,-0.0803161,0.35837683,-0.030194433,-0.15562226,0.099149145,-0.059801854,-0.49300185,-0.10864844,0.069049,-0.37751165,0.17663991,-0.37812293,-0.15670015,-0.33040082,0.26841846,0.20719269,-0.12848051,0.25272205,-0.35617334,-0.114013284,-0.40270594,0.35167235,0.14639936,-0.3359944,-0.23679204,0.07326455,0.17059533,0.35267448,-0.02277102,-0.14202857,0.07564518,0.082294814,-0.47448596,0.16005419,-0.18628362,-0.24377501,-0.35761127,-0.083395824,-0.061095186,0.104303785,-0.308464,-0.5852353,-0.56083894,0.0002034327,-0.07244815,-0.15192975,0.41495103,0.032391064,-0.15891628,0.06479551,-0.073455624,-0.016183816,0.2075655,-0.35831606,0.39207545,0.21396519,0.1788805,0.29594105,-0.10741894,-0.414275,-0.23816675,0.1251135,0.30463615,-0.05530474,-0.11990878,-0.0365072,0.33603346,0.0805059
miRNA_32,0.050813857,0.028246373,-0.28560865,0.06380829,0.038593903,0.11002667,0.51351905,0.513076,0.006649779,-0.042351227,0.27315325,0.05708954,-0.14669135,-0.2604611,-0.20523268,0.1860398,0.32832888,0.103247195,0.013649631,0.004412376,-0.0034929037,0.68766975,-0.0125066945,-0.24162115,-0.28250992,0.3303014,0.18120475,0.1466672,-0.041615363,0.4374066,-0.17032306,-0.25156158,0.13320702,0.54276973,0.2910208,0.16138582,0.57535374,-0.030272152,-0.16967776,0.00024142042,0.15754734,0.30353907,0.2987863,-0.15464355,0.16944426,-0.15248908,-0.3914318,-0.09963475,-0.0102739865,-0.33272594,0.3657846,-0.049650576,-0.08379528,-0.23806565,0.51145375,-0.035311602,-0.19013985,0.23582941,0.29576117,0.030172072,-0.06923644,0.36543843,-0.11554406,-0.20539345,0.07001391,-0.013761575,-0.44370413,-0.06421083,0.12030948,-0.22983451,0.062643096,-0.3519632,-0.1847932,-0.2788028,0.1968409,0.19051275,-0.21850221,0.19140953,-0.46342173,-0.071761474,-0.3524422,0.35677594,0.06276619,-0.42280695,-0.24835944,0.10268536,0.20632322,0.47802803,-0.003077074,-0.26659155,0.13583638,0.10976212,-0.3982842,0.23393442,-0.22049892,-0.27319533,-0.39376003,-0.19844592,-0.0039518825,0.0136278,-0.35386884,-0.5974186,-0.53563,-0.0237765,-0.059058532,-0.12741746,0.40423623,0.08653917,-0.21039179,0.070266165,-0.071643814,-0.12591498,0.23969151,-0.27737686,0.3547183,0.1433314,0.24385126,0.27529013,-0.21246043,-0.4027683,-0.1775854,0.23190935,0.13610014,-0.102516025,-0.06907279,-0.03256726,0.3758318,-0.0041025
miRNA_33,-0.16668373,-0.021750566,-0.054811805,0.047293816,0.019175606,0.04976095,0.794116,-0.21534824,0.34414762,0.3344974,0.43438423,0.1324721,-0.14734061,-0.24147768,0.14969528,-0.2801216,0.05884909,0.28605837,0.23548196,-0.0009181438,-0.28101182,0.17601898,0.25176048,-0.10829966,-0.3757278,0.40073037,-0.281865,-0.14711858,0.027501011,-0.44010097,0.26114398,0.028107338,-0.034863193,-0.053072345,0.09087,0.23273307,0.10081306,-0.044772413,-0.17362988,-0.114818655,-0.13098252,-0.016197778,-0.2711413,-0.39956293,-0.113803156,0.28004637,0.08798837,0.082871534,0.12097113,-0.23883641,0.44624677,0.11650703,0.02336771,-0.058207974,0.09448982,-0.41474277,-0.24394344,-0.09607921,0.13213915,0.2652035,0.41250768,-0.02044897,-0.15028277,-0.12724361,0.3077187,-0.17404942,-0.12345297,0.17710891,0.1192674,-0.26999864,-0.051784854,0.03165843,-0.060648233,0.55437547,0.029440023,0.17887193,-0.16260442,-0.07886503,-0.090460636,-0.06011005,-0.1189581,-0.20952772,0.1993149,0.09480332,-0.3981801,0.37492344,0.09157588,0.19770868,-0.05620461,0.010605189,-0.088964835,-0.0005483506,-0.51718944,-0.11848016,0.09614326,-0.004264939,-0.15041722,-0.09402134,0.111238115,-0.20116065,-0.20706473,-0.25714186,-0.11799951,-0.35438067,0.32968923,-0.021571584,0.06413734,-0.014666066,0.21443528,0.17722663,0.31706712,-0.093264714,0.22107987,-0.22133675,-0.05123451,0.17989214,0.01072086,0.552246,-0.17138486,-0.6782518,-0.22519745,0.12210581,0.50146323,-0.05283826,-0.2026652,-0.0033002656,0.2596093,-0.021869449
miRNA_34,0.050771248,-0.27674696,-0.24411492,-0.051464118,0.13576731,-0.041978825,-0.24372433,-0.25814608,0.6151197,0.23312466,0.13677177,0.2247137,0.36071283,-0.31379965,0.50263536,0.090492494,-0.27848107,0.3214977,0.079175696,-0.11854164,0.05009423,0.02507218,0.05501322,0.027263282,0.018015945,0.10901497,0.17260538,0.122472,0.34401986,-0.08824892,-0.23107046,0.2760482,0.1767177,0.11835302,-0.1674145,0.09085646,0.25053424,0.11077692,-0.50441605,0.25177497,-0.014633349,0.23526734,-0.14859587,-0.11195726,-0.069297954,0.20568825,0.021638418,-0.007432646,0.12714389,-0.09690494,0.2320334,0.5014235,-0.21306951,-0.36346367,-0.14198725,0.36621037,-0.13489026,0.13805757,-0.18544509,-0.14444983,0.16489063,0.19191036,-0.11489359,-0.10355017,-0.12979123,0.0676288,-0.20662893,-0.3150857,0.053234987,0.43934414,-0.098862015,-0.12710306,-0.3405262,-0.3097824,0.43481857,0.057566527,-0.053044353,0.30010173,-0.25816283,-0.037917376,0.2982811,0.30564338,-0.08539786,0.10262562,-0.15510184,0.07484719,0.38299948,-0.123867005,0.06860002,0.33195373,-0.003949896,-0.01615261,-0.06653933,0.34067872,0.23315944,-0.07512075,0.083118774,0.2737667,0.4045497,-0.015748408,-0.19133765,-0.018329386,-0.05330384,0.1017293,0.22736458,-0.15349503,-0.39191693,0.0420742,-0.08168811,-0.17756945,0.10459834,-0.35303405,0.08666679,0.11384999,0.07740205,0.12309332,-0.08499407,-0.12347055,-0.03441306,-0.1644156,-0.008537788,0.18247552,-0.22859341,-0.20661524,0.054579645,0.22470167,0.048438348,-0.1996105
miRNA_35,0.14852628,-0.13831373,-0.26163474,0.34609112,-0.0027886024,-0.10860548,-0.17755081,-0.23101404,0.35893118,0.5226747,0.30233562,0.011956312,-0.0896709,-0.28621107,0.13254797,-0.06405043,-0.16925678,0.028719377,-0.12058997,0.07247128,0.40507206,0.028857091,-0.03393916,0.01507066,-0.08046205,0.19079134,0.3907594,0.3298856,-0.25816992,-0.22236004,-0.011536673,0.2718055,-0.0074553806,-0.2848498,0.16707325,-0.03368789,0.15905437,0.2535327,-0.009594635,0.016123796,0.18934973,0.07814396,-0.12381423,0.347433,0.02581357,0.264491,0.25761047,-0.20226945,-0.009687065,0.15001753,-0.017471367,0.23114581,0.07055978,-0.12622567,0.25116128,-0.019447582,-0.07491871,0.11952169,-0.5506314,-0.23744278,0.17453219,-0.15201531,0.10477989,0.045254394,-0.0012687223,0.022955937,0.19286145,-0.16473994,0.024918564,-0.33258986,0.1749298,0.18150963,0.13612157,0.05174391,0.24376588,0.12853536,-0.24831927,0.20515859,-0.22249769,0.022288285,0.04004811,0.17871052,0.23547564,0.17387669,0.2311926,0.06112049,0.33308077,-0.7230563,0.0060560596,0.140093,-0.17640048,0.24400586,0.0013054296,-0.19087538,-0.19499023,-0.29074743,0.17574283,0.14690858,0.29483694,0.124151826,-0.2884749,-0.14214665,0.00595127,-0.31617057,-0.24632482,0.27489704,-0.12720634,-0.07005617,-0.54513615,0.08550229,0.1084902,-0.009235585,-0.17519397,0.124516085,-0.26743278,-0.42277965,-0.08222293,-0.05692793,-0.24950676,-0.11534806,-0.08982836,0.31848854,0.41669804,0.06363275,-0.013310638,-0.1002247,-0.0763222,-0.20847672
miRNA_36,-0.40660733,-0.12592666,0.20980182,-0.11406772,-0.1156085,-0.2831858,0.31091025,0.1020472,0.10272167,0.3491959,-0.13390072,-0.29478458,0.38009647,-0.11280493,-0.116666354,-0.05840303,-0.11175289,-0.02237334,0.07490283,0.045978338,-0.2768848,0.13959324,0.12638186,-0.047103137,-0.02285896,0.05985871,0.22955826,0.29179177,0.10880483,-0.22884847,-0.0034790025,0.07902391,0.19309129,0.46153405,0.025091337,0.12074343,0.28917477,0.16830073,0.13027617,0.022774464,0.11562775,0.08549676,0.02731819,-0.23954903,0.20726258,0.004502094,-0.1867288,-0.3627063,0.20534874,-0.05898388,0.23116004,0.05247772,-0.052696135,0.20901363,-0.06396898,-0.3606023,-0.13926299,-0.20096938,-0.08172207,-0.19424148,-0.08695302,0.14469168,-0.035966128,-0.03193667,0.3128969,-0.42116562,0.05947066,0.07466241,-0.1749383,-0.19728363,0.13585699,0.1070403,-0.11948618,-0.057785697,0.19795313,0.19943354,-0.19671436,0.07713274,-0.02296417,0.06355901,-0.35246447,-0.49358967,-0.005020146,0.25316015,0.04426031,0.88376176,-0.07215393,0.37578684,-0.3863638,-0.2559107,0.0792756,-0.20432895,0.15395676,-0.06420045,0.29848674,0.06744913,0.0076166783,-0.21246591,-0.31794673,-0.16576141,-0.6662615,0.033437006,0.13122298,-0.012259407,-0.081229225,0.36006576,-0.016902141,0.07808796,0.071712464,0.22510742,0.1974188,-0.23410404,-0.2411946,-0.099959865,-0.08592498,-0.1092311,0.6659949,-0.134472,-0.08973016,0.2725975,0.12592053,-0.3023152,0.14820942,0.187051,-0.2505231,0.0245253,0.014718734,-0.18390076
miRNA_37,0.19663951,-0.027709868,0.10606605,-0.29392022,0.023038909,0.41459152,0.4929906,-0.12647407,0.5797751,-0.08275012,0.10355774,0.06538917,-0.0786507,-0.17049849,-0.18960063,-0.03187853,-0.24260962,0.25249863,0.00530684,-0.22339505,0.46574762,-0.17397228,-0.08125564,0.21299686,0.13445385,0.36180937,-0.008306464,-0.25245014,0.00884757,-0.03747536,0.08825077,0.1985943,-0.31027707,-0.03476673,-0.33969465,-0.40339455,0.21914671,-0.18806647,-0.3798977,-0.27904904,-0.21279727,0.1590505,0.24852607,0.01788929,0.111760914,-0.28617752,-0.15949193,-0.45564795,-0.13060701,-0.20220278,-0.14209928,0.47407147,0.3162029,-0.08094841,-0.27260122,-0.2333618,-0.17311098,-0.17842223,-0.22126362,-0.076255195,0.19189586,-0.014820259,-0.31026533,0.036215924,-0.016951852,0.032822512,-0.3299626,-0.017790804,0.13481672,0.0016901355,0.10346341,0.034361955,-0.2391548,0.18876846,0.25067252,0.5471925,-0.071448065,0.21300255,0.049582906,-0.19524986,0.22838733,-0.35269102,-0.14836454,-0.04684837,0.3490252,0.21798202,-0.042477697,-0.59666485,-0.0068432502,0.076603055,-0.046725404,0.28747073,-0.15859042,-0.122558884,0.11455088,0.11040551,-0.045291018,-0.09271062,0.08912465,0.027766693,-0.3406973,-0.5496907,-0.49098918,-0.20928483,-0.1222416,-0.023392629,-0.24634181,0.28178602,0.098783225,0.19806634,-0.18338008,-0.1991764,-0.14468163,-0.07111417,-0.2125788,0.14240462,0.17834468,-0.18374935,0.085642904,0.0046183113,-0.04447443,0.00070323085,-0.39101374,-0.10251239,-0.073881865,-0.08592587,-0.11449827,0.2521236
miRNA_38,-0.09775933,0.10062385,0.040705286,-0.3254119,0.12717304,0.17187291,0.0068957913,0.027655842,0.24655145,-0.044751413,0.12645032,-0.23332076,0.049773727,-0.14190762,-0.024392454,0.10092877,-0.109993815,-0.26871714,-0.12849806,-0.19159563,0.44697377,0.19767496,0.11836622,0.019479122,-0.4421566,-0.07831355,-0.11897142,-0.009551763,0.23489453,0.21850781,0.19004783,0.12445123,0.24637334,-0.060432438,-0.101770274,0.021742295,0.19977194,-0.043102212,-0.015910884,-0.08160676,0.06993469,0.29586005,-0.047406692,-0.077017605,-0.03813582,-0.16075109,0.021698134,-0.040809035,0.01372192,-0.17248155,-0.31331882,0.71686715,0.09756007,-0.15399528,0.091869645,-0.27578333,0.10639121,-0.21474287,-0.2410372,-0.27635157,-0.15740958,-0.2879728,-0.10038188,-0.25924855,0.22904241,0.004470733,-0.07325195,-0.1499234,0.17494455,-0.30670312,0.05630641,0.18050861,-0.3142843,-0.081399105,0.34793583,0.39940414,-0.26262555,-0.14652483,-0.105355956,0.19805382,0.0073678936,-0.14383201,0.1640707,0.19915923,0.01901102,0.16385175,0.10150192,-0.2644814,0.33012322,0.22750558,-0.42216033,0.037682522,0.07728128,-0.15771079,0.38945207,0.029526046,-0.105008624,0.10754393,0.2573211,-0.23534516,-0.28034893,-0.22840467,-0.09222524,-0.04493387,0.10244515,0.18634672,0.19561478,-0.1359171,-0.14461593,0.20654476,0.22311094,-0.11562007,-0.09976092,0.25519112,-0.1499065,0.6501069,0.17684922,0.055286095,0.0474954,0.02444212,-0.00701229,0.47235548,-0.06295611,0.029853318,-0.08411253,-0.16527605,0.009539243,0.035466168
miRNA_39,-0.23419434,-0.5363521,-0.07492769,-0.11710418,0.23536442,0.13681479,0.4124679,-0.32988533,0.10346021,-0.19146581,-0.24021758,0.035981078,0.6299911,-0.24787714,-0.23085731,0.17233042,-0.466685,-0.035156917,0.5067319,-0.11248236,-0.07144367,-0.031826705,-0.30852488,0.030777903,-0.41989955,0.3612272,0.0043603084,-0.1725371,0.28860378,-0.16023324,-0.10878763,0.095174946,-0.14514868,-0.39030012,0.12983443,0.0800291,0.66746986,-0.47203484,-0.101317115,0.1721173,0.24090397,0.4363862,-0.3536665,0.17808926,0.12388636,-0.43571708,-0.6168493,-0.14819516,0.24152985,0.097536676,0.33140162,-0.3739678,-0.3352375,-0.4778487,0.07903506,-0.04320433,-0.27478096,0.18085013,-0.1307756,0.40118957,-0.30106598,0.025581166,0.42592967,0.24911599,-0.33179843,-0.07316018,-0.038473282,-0.30353966,-0.23374307,0.047584705,-0.0665794,0.16961175,0.23021024,0.20510681,0.07704478,0.29576942,-0.19040084,0.050365016,0.03394451,-0.053807013,0.3845835,-0.38687176,0.19217016,0.2924749,0.102419496,0.5260032,0.33139196,-0.23578125,-0.24203038,-0.14610861,-0.28295174,0.032101534,0.008100519,-0.103363626,0.5305707,-0.46101928,0.015238516,-0.66121083,-0.4136418,0.012009957,-0.46668777,0.31635603,0.0365414,0.0405795,-0.19012907,-0.40955836,-0.51040715,0.19499017,-0.31275192,0.15778123,0.18566915,-0.013223223,-0.0134076085,-0.41663465,-0.34484246,-0.048600107,0.33411616,-0.43665308,-0.54131645,-0.060324255,-0.01484082,-0.22529177,-0.17960641,0.028095216,0.021000108,0.59150344,-0.15305547,0.25949225
miRNA_40,0.32348374,0.22533129,-0.067764305,0.21590686,0.27902597,0.33661136,-0.30441523,0.450696,0.10971784,0.14558966,0.11698755,0.13661176,-0.27960533,0.15894052,-0.045885608,-0.0127956895,0.15304641,0.31695983,0.058507822,-0.3591583,0.20945439,0.039068658,-0.4392084,-0.15841036,-0.2772365,0.010349175,0.10004906,0.33043575,0.20488128,-0.25783247,0.15139209,-0.31304482,0.24998352,0.0059075677,-0.35876203,0.036701757,-0.13466927,0.14020388,-0.20715094,0.18220747,0.26810363,-0.15254508,-0.15595102,0.11066687,0.11831992,-0.14720874,-0.69863963,-0.27352655,-0.1914458,-0.23968694,0.27840468,0.28872356,-0.3365926,0.4363516,-0.13732165,-0.32438892,-0.59105146,-0.10177029,-0.061129212,0.82816386,0.12845418,-0.21254757,-0.019281777,0.026981767,0.24325438,-0.0044976645,0.44093147,0.20228358,-0.06734674,0.5459652,0.06388463,0.13048764,0.23542076,-0.15140405,0.18750063,0.41802204,-0.2694041,-0.09526132,0.012698304,-0.50886613,0.04896247,-0.38331088,0.45751056,0.22445437,-0.00880415,0.3337786,-0.5516679,-0.19327033,0.1890383,0.41300514,-0.6438623,-0.11194104,-0.19396111,0.19105963,0.19640099,0.24885462,0.198845,-0.56831735,0.22346435,-0.34404668,-0.10533453,-0.2911943,0.11707343,0.23685333,0.59801465,0.15937571,0.17158842,-0.088439815,-0.03119255,-0.18835,-0.19921906,0.06511504,-0.025385886,-0.09182753,-0.41968417,0.05009211,-0.0019844838,-0.16696334,-0.183753,0.20424815,-0.08083629,-0.025417712,0.11070486,0.39530194,0.21552657,-0.2172397,-0.07288131,-0.17037264
miRNA_41,0.31293395,-0.115897775,-0.17385405,0.02739152,0.04869193,-0.03519183,0.17254604,-0.1916496,0.22578968,0.19815321,0.32022107,0.013832236,-0.02553579,-0.42613202,0.03749054,0.035391625,0.08548237,-0.10695837,0.017512456,-0.2388573,-0.10184136,-0.023431154,-0.23277065,-0.13251092,-0.25578427,0.2179121,-0.04195903,-0.46905133,0.102295026,-0.10567311,0.11021481,0.01202542,-0.2771175,0.13717608,0.122059986,-0.21757284,0.38121548,0.22691701,0.16543402,0.069145836,0.039543144,0.17846036,-0.21563625,0.12813093,-0.25806528,-0.0949932,-0.18155879,-0.32734364,-0.53067607,-0.31908715,0.3482265,0.0745489,0.14798331,0.3193281,0.11720475,0.008263696,-0.14508955,-0.3443839,0.33491167,0.27967086,0.1662245,-0.15786786,0.11230596,0.30288365,-0.17292981,0.2581532,0.39476523,-0.11363325,-0.20337063,-0.05805734,0.16760157,-0.28743595,-0.18421467,-0.05354852,0.081208006,-0.013236878,-0.020732295,-0.15020278,-0.34019333,-0.082528986,0.01766706,-0.07997031,-0.1569771,-0.2728489,-0.26852787,0.29508486,-0.01101581,0.25168064,-0.41072604,0.002335426,-0.1419877,0.2776153,-0.051225174,-0.048950113,0.37956297,0.22367103,-0.106843665,0.23086898,-0.0270619,-0.22744413,-0.18530816,-0.07415733,0.25354797,0.018442396,0.22882967,0.022697624,-0.2607778,0.03832027,0.19835195,-0.2597687,-0.29992938,-0.07089076,0.18578498,0.043908034,-0.10919521,0.37679315,-0.034413118,0.037995562,-0.14427085,0.008526671,0.070496365,-0.057123847,0.25686768,-0.45535526,-0.22120616,-0.07374465,0.16634186,0.14900261
miRNA_42,-0.33488482,0.20288841,-0.4023051,-0.12448639,0.33013427,-0.0927106,0.25351003,0.09733157,0.33858016,-0.006882591,0.10135407,-0.0851738,0.15493998,-0.21512446,0.26936737,-0.0025443097,-0.12866265,0.56678706,0.08170833,-0.13328245,-0.25905898,0.5771818,0.11532433,-0.062591374,-0.19925885,-0.123232685,0.3486563,0.11843585,-0.02274641,0.030720107,-0.06013118,-0.0015680008,-0.24605455,-0.060569886,0.14261171,0.047089633,0.44911954,-0.3081722,-0.03786427,-0.36168444,0.09516407,-0.0058745914,0.04912641,-0.08688355,0.35415053,0.20801033,-0.2058875,0.4888507,-0.22756705,-0.14621405,0.26739094,0.045253873,0.09009421,0.07749184,0.39305216,0.11618421,-0.46872064,-0.05334426,-0.09008443,-0.04966434,0.3580144,0.01200511,0.12259149,0.1049262,0.0074920016,-0.10976299,-0.20906536,-0.09879339,0.007982945,-0.267872,0.2831096,0.03592741,-0.3000958,-0.002951185,-0.26630908,0.02602307,-0.020751799,0.23186886,0.15882975,-0.18137252,-0.51431185,-0.11467526,-0.07746916,-0.028225152,-0.18378173,0.1695912,-0.029263206,0.045230698,-0.26543355,-0.012041632,-0.00070190715,-0.44106987,-0.524152,-0.050112102,0.08878281,0.13525796,-0.069558665,-0.15194781,0.06091358,0.0527364,-0.3776919,-0.6002901,0.19103347,0.038942743,0.019373966,-0.36443335,0.5474649,-0.23992746,-0.011175588,0.12652604,0.03767225,-0.005977146,0.014362387,-0.13289563,-0.11554581,0.5647287,-0.26405516,0.07779915,-0.06612347,-0.3009989,-0.022886844,0.049425904,0.42560422,-0.20812458,0.03131184,0.13770665,0.06001404,0.33073685
miRNA_43,0.20512585,0.3227424,0.16574155,0.35638404,0.33518833,0.074946776,0.053125553,0.10578365,0.43798417,0.18550342,0.080303036,0.07366615,-0.23795412,-0.099856466,0.18130606,-0.084942505,0.17456795,-0.02333487,0.3939956,-0.19962843,-0.47882944,0.12541847,0.07061276,-0.21167922,-0.24681398,0.18840852,-0.37754905,0.14110358,0.13316506,-0.25619745,-0.18151622,0.026230475,0.18396677,0.0437147,-0.13956861,0.28843975,0.24243388,-0.049636126,-0.071982056,-0.17866912,0.031802483,-0.128793,-0.24425326,0.108821504,0.08705309,-0.121934965,-0.16472451,0.0037810153,0.10995827,0.18289568,0.5542587,0.0033960792,-0.19520721,0.16402034,-0.14403544,-0.7127594,-0.19525288,-0.2773807,-0.19131538,0.36928174,0.1570804,-0.2312487,-0.17481984,-0.40958276,-0.306053,-0.2419638,0.46582723,-0.079534754,-0.1068017,0.12927514,-0.12445509,0.2465644,-0.12443414,0.08676295,0.1963429,0.56358,-0.40073794,-0.220626,0.04824826,-0.5027667,0.022350192,0.22596641,0.42426476,0.42315233,-0.30447862,0.38442197,-0.23572184,-0.10440057,0.07287959,-0.13256693,-0.05719977,-0.27285334,0.10484527,0.040904175,0.08407239,0.14005288,0.3446972,-0.47432876,0.056837983,-0.16925552,-0.42428768,-0.23926255,-0.16866677,0.025523262,0.32030857,-0.16844533,-0.24930045,-0.16209696,-0.15463282,0.36007303,-0.08308762,0.15257677,-0.20956971,0.0808415,0.22769456,-0.27994078,-0.4122359,0.2160905,-0.0074927267,-0.27137002,-0.2192217,-0.3287741,0.3087368,-0.19522041,-0.15465803,-0.34801823,-0.1274095,-0.061602317
miRNA_44,-0.021432552,-0.03075427,-0.061100565,0.14631668,0.28968313,-0.190065,0.14488633,-0.29848188,0.17007005,0.26971877,-0.012819974,-0.19964267,0.2890029,-0.32978633,0.04312186,-0.1746245,0.021561962,0.30361214,-0.124679185,-0.335877,0.014096581,0.19487745,-0.20105311,0.09815012,-0.3133597,0.06530427,-0.026280085,-0.34591898,-0.20583671,-0.11237626,0.16012344,0.43836904,-0.49866408,-0.12794372,0.17652439,0.2996143,-0.036677677,-0.26183543,0.124324836,-0.45842928,-0.13707493,0.14255364,0.048329722,-0.19688633,0.29149887,0.23177421,0.16460261,0.112300865,0.14540555,-0.14666758,0.2391792,0.18167219,0.25372368,0.03807026,0.083353706,-0.15391491,-0.425953,-0.19151793,-0.24049854,0.18672788,0.2720426,0.38497868,-0.25594878,-0.12939195,-0.036854558,0.11944881,-0.19487612,0.10174117,0.03903831,0.004699908,0.09094939,0.233582,-0.34408626,0.2267913,-0.20343724,0.099157915,-0.19951734,-0.05083845,-0.27519798,-0.11170805,-0.0751299,-0.3370969,-0.17654474,0.03262062,-0.06400112,0.07888125,0.08725554,0.16496632,0.04563443,-0.016149323,0.4760588,-0.27450433,-0.40074033,-0.3788943,-0.0198138,-0.09697889,-0.3406531,-0.13359751,-0.15534629,-0.033142038,-0.6478003,0.08096998,-0.045603998,-0.018959435,-0.036987934,-0.38117558,0.36117172,-0.0473119,0.3777001,0.008648136,0.14414667,0.02377911,0.130289,0.11442019,-0.38301617,-0.05716501,-0.40396574,0.019437544,-0.37927058,-0.12937447,0.34374654,0.44868204,0.2437462,-0.010609754,-0.3210973,-0.052223634,0.056063768,-0.05406312
miRNA_45,0.9760224,-0.0873252,0.19555727,0.12559019,-0.43171272,0.41960064,-0.19997492,-0.4959818,0.43091038,0.16116138,0.108587034,0.042635143,-0.8454435,-0.28510684,0.4329114,0.09408056,-0.65502024,-0.018506538,0.7679819,0.17623061,-0.27947712,0.484916,0.25084597,-0.052542027,0.13767603,0.054380044,0.6156583,0.1173765,0.06181756,0.42434847,-0.72756547,0.25881302,-0.56050825,-0.4504006,0.16292895,0.16894248,0.530275,0.04112515,0.22381152,-0.24742918,0.2780672,0.081854254,-0.08034294,-0.13358715,-0.1525039,-0.048511654,-0.10705489,-0.8881705,0.3477101,-0.23576234,0.4418672,0.0045654294,-0.49010184,-0.6465477,-0.16485167,-0.010747554,-0.42877197,-0.376235,-0.27141857,-0.069308296,0.23703627,-0.2450811,0.10106532,0.32898027,-0.0020356677,0.109418064,-0.23222165,0.04981106,0.18263638,-0.20175874,0.13594376,-0.31761247,0.6471965,0.25591075,0.36386922,0.015066486,-0.38611615,-0.04458409,-0.5333638,-0.1871903,-0.23707828,0.19955958,-0.24278389,-0.26823208,-0.5254015,0.02659017,0.21228121,0.21198495,-0.09191618,0.110460855,-0.446578,-0.35138637,-0.34576848,0.0618142,0.42349592,-0.077096276,0.16841054,-0.25266513,0.03568095,-0.10578731,-0.5460135,0.12026242,0.11283237,0.47879416,1.0640581,0.029810635,1.025281,0.30660006,-0.039644934,0.09460331,0.46201795,0.16507259,0.1584559,-0.15415072,0.3369881,0.093611225,-0.42333496,-0.18938218,0.19316071,0.107202716,0.2750903,-0.049074896,-0.24703087,0.27851608,0.15167427,0.082795314,-0.24427313,-0.1534696
miRNA_46,0.60712993,-0.18633892,-0.040951006,-0.10182264,0.00618765,0.058606476,0.060931973,-0.1634003,-0.07087159,0.06798099,0.008972094,-0.33936146,0.0053592985,-0.11390838,0.06270889,-0.45774546,0.12189757,-0.035095572,-0.10133052,-0.26036713,0.04171036,0.17978808,-0.4394778,0.122067764,0.0464527,0.17062199,0.17866088,-0.13213305,0.11935964,-0.2620512,-0.22827993,0.31310308,-0.35914406,0.1403056,0.045434143,-0.20865713,0.6914305,0.5211505,-0.15924107,-0.267083,0.023973439,0.09154177,0.07800371,-0.017546853,-0.057902075,-0.008917543,0.16300586,-0.14911985,-0.24884179,-0.3117164,0.48719305,0.121888,-0.11296226,0.111433625,0.108932085,0.047270123,-0.53406054,-0.45487484,0.33607444,0.37413442,0.17664818,0.22536619,0.041212562,0.33195317,-0.33587813,-0.040560804,0.31783208,-0.5883929,-0.1648408,-0.21776976,-0.18977666,0.058497254,0.010538037,-0.40120712,-0.13995601,0.2801691,-0.24618912,-0.19458085,-0.40097702,-0.20769821,-0.041432362,0.09748967,0.10995735,0.030583996,0.03039366,0.10443181,0.06516478,-0.04494985,-0.29968265,0.13832779,-0.27967417,0.06466122,-0.038702704,-0.017252907,0.08260415,0.25616166,0.056579776,0.052772455,-0.24972355,0.040511258,-0.15215428,-0.09276971,0.10784934,0.16049558,0.27724293,0.020515187,-0.17802128,-0.0065509262,0.14969753,-0.102935925,-0.1973342,-0.07035049,0.31328678,-0.21144845,-0.1837332,0.34849826,0.08724638,0.12605499,0.11300499,-0.038440265,0.16352722,-0.26589704,0.13496752,-0.028114209,-0.1753773,-0.053355463,0.012279484,0.012447071
miRNA_47,-0.38695145,0.07255808,-0.040906414,0.13794804,-0.14268129,0.11402583,0.32567284,0.3860701,0.62907314,-0.12068207,0.015475521,-0.121272594,0.22081448,-0.0351155,0.21383686,-0.24990325,0.28131396,0.6736406,-0.063405804,-0.1607201,0.2566995,0.57421684,-0.099197865,-0.055217702,0.091897465,-0.3079775,0.26132712,0.2496383,0.38403535,-0.6159246,-0.03620572,-0.31287423,-0.27179065,0.4246491,0.18937352,0.11640582,0.36454615,-0.32956013,0.18859507,-0.43484786,0.20982045,0.5848896,-0.38514033,0.25736,0.3654296,0.4488041,-0.56109065,0.27725774,-0.42311797,0.25887355,-0.016555918,0.44060585,0.07956149,-0.08239081,0.14553887,0.26819038,-0.32231867,-0.18892448,-0.09520259,0.13989174,0.052232176,-0.16557679,0.71517086,0.29468498,-0.5903148,0.19694743,0.13630646,-0.10497362,-0.2029095,-0.21600601,0.2599316,0.21031395,-0.48798501,-0.5005572,-0.28382272,-0.15201299,0.21324523,0.08793803,0.084340736,-0.32483932,-0.32901213,-0.16664015,0.012905647,-0.05998158,-0.34629175,0.08936133,-0.036513142,-0.44499135,-0.5262432,0.053925704,-0.3832695,-0.40180805,-0.6037757,-0.2788475,0.26464528,0.29940033,-0.19047299,-0.028078424,0.30111688,0.24082144,0.033438392,-0.25829324,0.5945696,0.29530406,-0.22065221,-0.3255993,0.64075154,-0.11082513,0.08634264,0.54752105,-0.13668661,-0.089031294,-0.3724788,-0.18879794,0.28540546,0.16535255,-0.17652576,-0.15445791,0.13821311,-0.4017889,-0.3175008,0.114821404,0.15362246,-0.44463715,0.1470544,0.09063149,-0.15746649,0.6449538
miRNA_48,-0.06313724,0.3629292,-0.10421553,0.014675154,-0.020227728,-0.119523376,0.26900044,-0.1704466,0.018786646,0.56904393,0.14287785,-0.16414493,-0.26554805,-0.0033600144,0.13038659,0.21908163,-0.2323687,0.11557413,0.10044631,-0.17719343,-0.19315612,0.060038216,-0.12841602,-0.56238,0.019488657,0.29321876,0.024395509,-0.03961724,0.19681339,0.12816603,0.23568013,-0.3873496,-0.25834092,-0.19581464,-0.28361928,0.048235416,0.1974613,-0.12579869,-0.06720652,-0.17857432,0.02572622,0.121455096,0.07876212,-0.081511214,0.6305488,-0.51072305,-0.042808715,-0.3523159,0.2195525,0.34016287,0.6102635,0.0127908755,0.26319128,0.10529143,-0.038401097,-0.016755246,-0.14858122,-0.27924374,-0.52391154,-0.23527588,-0.49070787,0.028680356,-0.05710693,-0.17454654,-0.030388089,0.027927738,0.0648415,0.15375774,-0.5744446,-0.43589818,-0.036265645,-0.03771965,0.1609703,0.39882857,0.49314073,-0.40404865,-0.04839466,-0.26320848,-0.05230276,-0.046868484,-0.071170144,-0.32197696,-0.24406354,0.076407574,-0.17581487,0.41909987,0.06550619,-0.27530542,0.23504972,0.24109015,-0.7719559,0.025329037,0.10480192,-0.43066856,-0.5313665,0.26450258,0.5423876,0.3595032,0.39659452,0.13903481,-0.41054145,0.12262078,-0.4202419,-0.12458662,0.28962392,0.42766783,0.121271044,0.2112415,-0.027377877,0.61552334,0.12052087,-0.3987634,0.092782214,0.20086856,-0.583672,0.013605129,-0.039117165,-0.56900287,0.14156285,-0.08932298,-0.13503338,-0.4981063,-0.32234815,-0.0097300615,0.18887508,0.022346808,0.14645475,0.20643602
miRNA_49,0.4000202,0.16919565,0.010470038,0.25889644,0.3731141,0.33691898,0.37446737,0.217045,0.28373486,-0.21349575,0.16212124,-0.055688612,-0.016158486,-0.20722681,0.44493178,0.13928044,0.106032155,0.18387894,0.07095067,0.3793027,-0.31985602,0.32216868,0.16592142,-0.4309551,0.08988464,0.49190405,0.19202265,0.14306736,0.2848445,0.50783885,-0.32496774,0.0935304,-0.11140291,0.25347972,0.073649816,0.12128809,0.33357856,-0.28931504,0.07636818,0.3951784,0.08246524,-0.32458588,-0.11848386,0.2744163,-0.09009327,-0.479645,-0.24536353,0.22356217,0.5098862,-0.075813904,0.5529731,-0.0028949575,0.05138703,0.07118356,0.29149583,-0.050916497,-0.56209135,0.10252592,-0.13338454,-0.1853799,-0.18386877,-0.13648808,-0.06488471,-0.41861847,-0.25730407,-0.08115152,-0.25047567,-0.6061586,0.07437642,-0.009215463,0.33732113,0.13641605,0.031118002,-0.22271171,0.054925315,0.2524482,-0.47158843,-0.43214566,-0.009746582,-0.4500633,-0.533253,-0.03025295,0.2413298,-0.12589179,-0.20792158,0.35486683,0.054119207,-0.024809953,0.23237291,-0.12523854,0.3228849,-0.2101157,-0.29178217,-0.19381194,0.4527985,0.020843323,0.38366842,-0.048202768,-0.3235571,0.016863614,-0.3910415,0.0072674653,-0.061231874,-0.33532947,0.07021774,-0.2698787,0.033907097,0.019310657,-0.04118907,-0.4131312,0.27086854,-0.313972,-0.27182215,0.10339296,-0.15545282,-0.13665253,-0.25454617,0.16654563,0.06805914,-0.2590816,0.013326342,-0.18579681,0.17544141,0.011368636,0.376357,-0.090472765,-0.3149098,-0.0033090836
miRNA_50,-0.1908511,-0.7005558,-0.642885,-0.06683629,0.074683435,-0.13951409,0.16367547,0.14655563,-0.039048806,-0.0019169215,0.3193686,-0.5055697,0.116889514,-0.032221217,-0.1287304,0.14160147,-0.19724594,0.6258113,0.16756374,0.047353316,0.15883943,0.34201428,-0.037870668,0.018878074,-0.005845557,-0.14414266,0.35213503,0.72016656,0.08009498,-0.22992197,-0.5196806,-0.4629432,-0.44079205,-0.32013872,0.17140087,0.11370743,0.30969217,-0.32924575,-0.06687509,0.14559035,0.08577468,0.107131,-0.434082,0.34455097,0.6783289,0.30420595,-0.0839893,-0.019172007,-0.13407704,-0.16731386,0.36518642,0.06841871,0.087971695,0.29915962,-0.74780786,-0.43731958,0.10755408,-0.115440205,0.49676767,0.040682957,-0.22183397,0.48199028,0.39465156,0.013353767,0.23883788,-0.35506877,0.025189128,0.47365892,-0.21413144,-0.06430103,-0.22502923,0.4606222,-0.078316554,-0.3393015,0.26394707,0.48016745,-0.025881734,-0.4580146,-0.5801746,-0.28073782,-0.049968876,0.1951674,0.1859818,0.56976897,0.025553916,-0.21894178,-0.40207222,-0.38613677,0.37945518,-0.0019473998,0.23912674,0.38104033,-0.36446244,-0.11123736,0.4425959,-0.0038591719,0.23113254,-0.23448378,-0.064137004,0.16327208,-0.021284034,0.030423015,0.054676343,-0.07569347,-0.2049275,0.41279808,-0.4008377,0.22978023,0.054456692,-0.2131427,-0.03778736,-0.08890016,-0.24907832,-0.07865789,-0.5959513,-0.32510138,-0.23660468,-0.29303068,-0.44582364,-0.025943937,0.1617746,0.27220276,0.041907344,-0.2988012,0.23892462,-0.23409192,0.08478178,0.050748188
miRNA_51,0.17257895,0.013317606,-0.014466061,0.043671466,-0.048564427,0.16984971,-0.20821065,0.07390273,0.22777988,-0.3780068,0.1336534,-0.034934055,0.05364196,-0.07092614,0.10235468,-0.19243108,0.4955911,-0.06588979,-0.07665128,-0.451754,0.10698533,0.44188023,0.030766185,-0.06295329,-0.03217474,0.54524404,0.008296704,0.05550724,0.0030558223,-0.045987986,-0.2275506,0.2714801,-0.27677327,-0.15478975,-0.07408778,0.13354628,-0.025650496,-0.1667428,-0.21635763,0.27894706,-0.04792876,0.59381694,0.16898681,0.043390717,0.06973823,0.1755032,-0.06513511,-0.04896084,0.25837776,-0.27394402,0.18539733,-0.0327551,-0.1182772,0.38554972,0.17497033,-0.2426109,0.013828203,-0.5290789,-0.116298355,-0.15098184,-0.12785889,-0.28342995,0.19717975,0.35044292,-0.12217402,0.020354217,0.22125919,-0.11935879,-0.17718609,-0.15545088,0.032485887,0.029234609,-0.08987501,0.24712363,0.4403986,0.6306434,-0.25421143,-0.25809863,-0.17994134,-0.10613248,-0.1359331,-0.18761624,-0.2115619,-0.12699069,-0.18284926,0.07497469,-0.17382671,0.2912899,-0.09553346,-0.1696458,-0.31584862,0.3187956,-0.23562366,-0.057974685,0.37570488,0.35905626,-0.19872564,-0.006859216,-0.5435395,-0.32063624,-0.5709824,0.06151822,-0.31670237,0.04771925,-0.13545859,-0.35798842,0.06919316,-0.022381442,0.24597852,-0.12264258,0.16169475,-0.055467587,-0.086609155,-0.31396684,0.108801864,0.3124138,-0.1657542,0.11325797,0.03006317,-0.26984277,-0.17462547,0.05544383,0.37494993,-0.070757486,-0.25189903,0.11882378,0.07003092,-0.26996613
miRNA_52,-0.21297681,-0.07661641,-0.35211608,0.19255109,-0.2501458,-0.14301383,0.053826213,0.45735294,0.44885895,0.0034603607,0.12408976,-0.37145543,0.1459805,-0.13590181,0.4746069,-0.13134453,0.060341068,0.18731514,0.06517847,-0.096060716,-0.10481689,0.025246976,0.15757634,-0.18850647,-0.20678394,0.04972775,0.10847662,0.011065467,0.025914507,-0.46565947,0.050130926,-0.05954562,-0.21209323,0.20756526,0.09604917,0.27782825,0.33185926,0.093849815,-0.34692168,0.23468591,0.14840321,-0.21784484,0.27114323,0.1042848,0.07683487,0.021123705,0.043750197,-0.4818859,0.16920103,0.18346266,-0.022074262,-0.064844854,-0.048658103,-0.18691202,-0.24346395,0.08339373,0.32926026,-0.13049802,0.29297635,0.3189139,-0.076004095,-0.030375902,-0.27788427,0.24587809,-0.0531519,-0.009810423,0.31270444,0.07841483,0.10661093,-0.25498074,0.22664157,-0.05562456,-0.22661164,-0.025213504,0.17348535,0.0051190956,0.37533343,0.075800166,-0.36245382,-0.28135023,0.39359796,-0.046416163,0.09336683,-7.0047e-05,-0.10617618,0.22456717,0.21649079,-0.12738831,0.509763,0.08968379,0.052969426,-0.07122253,-0.31405187,-0.07722693,-0.09597151,0.19354565,-0.089158066,-0.12254514,0.035893034,0.21543042,-0.16304319,0.052561577,-0.42642874,-0.46418297,0.31994236,0.2833046,0.61720586,-0.2093127,-0.050145358,0.019781524,0.05992508,-0.002631276,-0.31109047,0.0081451535,-0.18373922,0.026413726,0.083979525,-0.12283047,0.04907246,-0.019987578,0.37598068,-0.2591646,0.075774044,-0.46319357,-0.40361935,0.17256624,-0.16764523,0.022615386
miRNA_53,-0.19710067,-0.38963306,0.14766072,-0.25450322,-0.107015744,0.1169521,0.2954707,0.15242721,0.09648449,0.0729824,0.09658409,-0.094373815,0.26312655,-0.25241736,0.30938622,0.08278499,-0.3653841,0.33555463,0.08549198,0.056470014,0.24385953,0.32880196,0.27565062,0.1844771,-0.3610089,0.08921099,0.11954114,-0.28494123,0.18292399,0.03633773,-0.013037178,0.27893645,-0.18898362,0.112874754,-0.4104343,0.02181872,0.15429339,-0.35842964,-0.150499,-0.25290924,0.14904332,-0.24070734,0.06931667,-0.023039458,0.027852435,-0.26504275,0.09721325,-0.04200054,0.18872346,0.03126265,0.24066283,0.19688404,0.022174176,-0.028984671,-0.19674057,-0.02492825,-0.32078373,-0.08563031,0.24194445,-0.27184004,0.442041,0.14379114,0.03452472,-0.08665885,-0.025136825,0.085735396,-0.45043552,0.30551875,0.1465409,-0.22290044,-0.012687254,-0.45109847,0.3678507,0.07396405,0.1467902,0.15048358,-0.41403463,0.05232378,-0.041269943,0.042125203,-0.24130559,-0.18199168,-0.018087309,-0.29478055,-0.00085410866,0.4744102,0.08051027,0.1916383,0.064118095,-0.012051911,0.20296772,-0.37607506,-0.7937481,-0.051019214,0.34593028,0.32594034,-0.18798319,-0.0066574863,-0.35214826,0.21308732,-0.40996692,-0.123239234,-0.29723844,-0.23515992,0.82248986,0.32705542,0.32227492,-0.49541065,-0.13724841,-0.13579105,0.4458813,0.16085348,0.12951596,-0.29978317,-0.107736066,0.100960046,0.13243335,-0.068339266,0.09995388,-0.10755436,0.13003804,-0.38096055,-0.06659968,-0.1227137,0.34640065,-0.08341729,0.24387442,0.25138223
miRNA_54,-0.122756295,0.034639273,0.16294815,-0.078349374,0.23856151,0.22217476,0.15213953,0.0551073,0.26747218,0.16185644,0.16969116,0.24448201,0.027386231,-0.35018083,-0.20315379,0.766891,0.09938607,-0.10892068,-0.11632953,0.1410967,0.13328816,0.6083993,-0.1420461,-0.3167827,-0.09000206,0.5213064,0.27363813,0.1527244,-0.024803782,0.09219286,0.0052575967,0.09907405,-0.061666172,-0.23888172,-0.22853157,-0.35662338,0.12421367,0.13499665,0.09472103,-0.4585129,0.015585368,0.60184515,-0.28677788,-0.29274333,0.084933385,0.111551166,0.03974942,-0.005143959,0.0378506,-0.14455004,0.28459105,0.19654204,-0.07134908,-0.3063877,-0.101981714,-0.093214035,0.25624037,-0.48696503,-0.28761816,0.28990343,-0.12797934,-0.06593267,-0.30435935,0.011560045,-0.25712729,-0.27378017,-0.42948735,-0.061369177,-0.23143545,0.10821212,0.11985311,0.38507175,0.23790331,-0.24684787,0.5843679,0.35006505,0.16985533,0.40530783,-0.030527566,0.13598968,0.0005089785,-0.2120711,-0.33491933,0.48337185,0.23410738,-0.27961287,-0.16733119,-0.13412794,0.098501526,0.5041152,-0.25956553,0.19052412,0.18842438,-0.51896966,-0.18136486,0.41419324,-0.07302948,-0.3174306,0.12589882,0.16827936,0.14966485,-0.37907016,0.20638105,-0.018479913,0.16484186,0.18082155,0.31905589,-0.2537956,0.31839797,-0.37981328,0.17570646,-0.03488151,-0.025788886,0.041040603,0.25925142,0.0062276754,0.18641877,-0.019892037,0.090489835,0.037055794,0.17342567,0.13244191,-0.06547319,-0.23103392,0.26136717,-0.10695426,-0.17080219,0.047657195
miRNA_55,-0.15585692,0.1802513,0.038734872,0.6841744,-0.03143341,0.18896946,-0.05161818,0.024474153,-0.24584785,0.09720687,0.19061458,-0.265911,0.053668752,-0.38935456,0.17982239,0.33379465,0.07828029,0.05612427,-0.17680234,-0.025804995,0.11121151,0.41890594,-0.053753883,0.116061516,0.2852162,0.14130913,0.1780533,-0.034320958,0.13123523,0.039318323,-0.16167064,0.2834094,-0.17832454,-0.0060937465,-0.037786283,0.06414061,0.27857128,-0.28875995,0.14086424,0.062042292,-0.2921283,0.085570686,-0.1211104,0.38144416,0.29853287,0.0027833462,-0.03629051,-0.13786794,-0.123471595,-0.37181208,0.05229841,0.105714805,0.013476487,0.13055728,0.28792015,-0.17667843,-0.0064403596,-0.34068647,-0.44077447,0.09459941,-0.32599348,0.12382805,0.013237241,-0.031766005,0.10004473,0.18077888,-0.5026658,0.3988157,-0.34718093,-0.037136164,-0.32756302,-0.3159925,0.5213981,-0.36938703,0.15743741,0.36302158,0.097991444,0.13257803,-0.11641421,-0.39174542,0.27440947,-0.38928312,0.29685858,0.016292624,0.59105283,0.08657727,0.08334965,0.2845889,-0.17603011,0.13413674,-0.21961148,-0.07555392,-0.2176142,-0.070365705,0.12133271,0.38801554,0.008564521,-0.14108899,0.025096275,0.3502464,-0.36482978,0.11274966,0.2875271,0.2259187,0.46258423,-0.22960377,-0.10453655,-0.07059997,-0.16086005,-0.1961352,-0.097694024,0.48665097,-0.35392693,0.39898685,-0.029625768,-0.0688559,0.22299224,-0.47753048,0.102793865,-0.14210162,-0.029813686,0.1176207,0.017276244,-0.2534215,-0.08044323,-0.36363837,0.26047394,0.33003926
miRNA_56,0.35361135,0.17162025,0.061638355,-0.021869373,0.16428035,0.38371038,0.021646226,0.03223052,0.18399146,-0.3923785,0.20741919,-0.32297477,0.19262531,-0.3280813,0.04769365,-0.2560756,-0.004405616,0.028028063,-0.082705125,-0.36303023,-0.112819985,-0.10209944,-0.19792429,-0.16132036,-0.011971539,0.508849,0.34742397,-0.18719116,0.3015914,-0.21579015,0.020830082,0.57746804,-0.4142064,-0.17811973,-0.1501204,-0.17166452,0.281638,0.014798631,-0.118133694,-0.3931841,0.40129167,0.0050481474,0.04079945,-0.048124414,-0.10676953,-0.16613516,0.15271154,0.23704691,-0.36169723,0.097624876,0.3301427,0.03238147,0.32517526,0.3114592,0.25031713,0.070254624,-0.21555984,-0.35079682,-0.12130703,-0.12699136,0.25030896,0.58061016,0.033737637,0.08899941,-0.14233753,-0.33138257,0.067923665,-0.17787246,-0.016733026,-0.15193729,0.1505016,0.0870184,-0.04478228,0.06327275,-0.13399515,0.22777095,-0.5954575,0.23351364,-0.36715207,0.084103175,-0.45058587,-0.37219688,-0.15265137,-0.12446658,0.021633971,0.20520563,0.0378141,0.060592867,-0.21128725,-0.060181804,0.1572731,-0.073738486,-0.564782,-0.0016480411,0.25858837,0.4163494,-0.15424992,-0.12503807,0.088857815,0.0076389657,-0.38172156,-0.002357505,-0.0939034,-0.062335912,0.15030843,-0.15124424,-0.2550296,-0.18560818,-0.09260781,-0.22107193,0.09195548,-0.1071348,-0.09401075,-0.27346793,-0.25028452,0.37537643,-0.26804045,-0.05002172,-0.011095404,0.030070288,0.38013157,-0.17195377,-0.19543438,0.1188947,-0.12843235,0.055256814,-0.2856703,-0.26373354
miRNA_57,-0.13743745,-0.06546724,-0.08887695,0.028258597,0.0076000816,0.038950514,0.014271745,0.20569731,-0.104154885,0.18688859,0.03448023,0.26345575,0.047979884,-0.24410109,0.4358163,-0.21174264,0.15517545,0.19992653,-0.19392444,-0.023941416,0.110847004,0.26628083,-0.2681519,-0.43833923,0.014382266,0.23499012,0.0462134,-0.06546792,-0.25548345,-0.044012707,0.016345354,0.0100165205,-0.18907675,0.0052760732,0.18724655,-0.26482108,0.2568547,-0.007389345,0.090288445,-0.16025905,-0.11379449,0.25044695,-0.0052992813,0.06752067,0.19923146,0.061190218,-0.32142946,-0.39806592,0.17373675,-0.35757646,0.058544096,0.3907067,-0.13784567,-0.23827022,0.18564172,-0.016130418,-0.25788328,-0.25271475,-0.19586301,-0.30995193,0.03990514,-0.15234466,-0.18735784,0.1306812,-0.059000663,0.26128462,-0.42578486,0.32987267,0.10363444,0.10296053,0.15729886,-0.09172076,0.07600124,-0.3238252,-0.015333206,-0.13815105,0.020804947,-0.069419496,0.014719043,0.26316068,-0.18010058,-0.09713231,-0.19310826,0.11478915,0.100054555,0.36500645,-0.14407669,0.350957,0.06951423,0.06548467,0.2700479,0.25181422,-0.28102642,-0.05741003,0.53029585,0.07232718,0.109204866,-0.15316118,-0.2821242,-0.00625231,-0.29532087,-0.115052864,-0.06623179,-0.093746416,0.14107053,0.078535914,0.11891284,-0.0070179077,0.07158677,-0.07740503,-0.22815916,-0.0031356916,0.060954835,0.23218478,-0.097547345,-0.039411783,-0.046494864,0.12953164,0.19141233,-0.22623539,0.123538956,-0.009129937,0.06089964,-0.090453036,0.06409894,-0.14699386,0.06852046,0.17061675
miRNA_58,-0.06754531,0.10124221,-0.23929091,-0.012577401,0.17113645,-0.12989621,0.46887872,-0.2046829,0.35858056,0.29620653,0.454947,-0.12059834,-0.01614407,-0.58569854,-0.10024512,0.10456007,-0.025041483,0.25495368,0.40920156,-0.29632115,-0.39270377,0.03437201,0.009182374,0.019436702,-0.4344807,-0.1025878,-0.15690966,-0.37624475,0.04276389,-0.009451948,0.24455187,0.108102076,-0.20905712,0.058457904,-0.05128069,0.021980485,-0.016141318,-0.13566504,0.18880516,-0.23703703,-0.024613295,-0.051248714,-0.13878451,-0.20920189,-0.18186887,0.0021803011,-0.015671032,-0.09519673,-0.4848318,-0.00838703,0.32422575,-0.023161082,0.26152095,0.21622403,0.2295957,-0.15140213,-0.109955706,-0.0096130995,-0.2860985,0.2571752,0.23169038,0.16592604,0.097148605,0.029520676,0.2495728,-0.020120129,0.02111528,-0.09737063,0.099741556,0.21774001,0.36679056,-0.028341508,-0.080461994,0.12224638,-0.0039991243,-0.18341914,-0.22720148,0.09696893,0.08783379,0.1407118,-0.16250472,-0.33760577,-0.07107795,-0.056375902,-0.39582044,0.21847092,0.20936532,-0.0496341,-0.3984524,0.272209,0.15815708,-0.25297698,-0.38456857,-0.12247691,0.08019202,0.1483967,-0.1394159,0.109087974,0.19965571,-0.01538447,-0.41614342,-0.1753044,0.004196216,0.09041097,0.28727263,-0.1648462,0.011519654,-0.22674073,0.25669014,-0.16510364,0.10001466,0.018980544,0.15266238,-0.13471125,-0.1430567,0.15454015,-0.050791737,0.007907067,-0.47372353,0.059685044,0.32832208,0.31697622,0.55493003,-0.4687352,-0.05363096,-0.0634928,-0.0056838295,-0.14395249
miRNA_59,0.10806489,-0.107449144,-0.28878814,-0.12590457,0.13057591,-0.18328175,0.16379428,0.0918737,0.2391572,0.17654382,0.19162774,0.469962,-0.003965677,0.022798428,0.25028628,0.053496774,-0.1900036,0.3092242,-0.17460564,0.10220251,-0.1550346,0.3750019,-0.10556567,0.05634119,0.04612687,0.2727633,0.40059224,-0.21117298,-0.10499484,0.5143306,0.007712053,-0.3722094,0.32079062,0.44178268,-0.4781929,0.28589645,0.5836027,-0.16031745,-0.13430743,-0.023289386,0.107473046,0.227351,0.103589095,-0.10588894,0.5269617,0.015071374,-0.14792055,0.0749696,-0.22230712,-0.003434852,0.38581055,-0.03813189,0.1249795,-0.37145406,0.5493597,-0.29114324,-0.6176507,-0.13750373,-0.21043766,-0.0020265426,0.25680587,-0.5596339,-0.25743085,0.03536575,0.3061547,0.19801098,-0.033050846,0.014771794,0.22646044,0.032235052,-0.070941456,-0.30175924,-0.097986914,-0.12946543,-0.11512803,0.17290834,0.0061323484,-0.30930287,-0.26571208,-0.23306265,-0.2792551,-0.017887296,0.0061304565,0.07122938,-0.21060129,-0.047164652,0.5785358,0.016237302,-0.13542542,-0.17782846,-0.12187784,0.19281155,-0.4178025,0.33297905,0.17991516,0.4276281,-0.013259625,-0.3824757,-0.51406455,-0.26335195,-0.34084627,-0.37725973,-0.24860194,-0.010328598,-0.0010400396,-0.23862793,0.39920503,0.059592918,0.038212195,0.18022513,0.045937736,0.070241734,-0.037495345,-0.32824096,-0.17342415,0.2280173,0.27056935,0.1635259,0.031385884,-0.69815123,0.3996228,0.031898554,0.23954317,0.12094666,0.3924363,0.709858,0.23526557,0.44224024
miRNA_60,0.119121164,0.12897548,-0.028335541,0.1236637,0.4430575,0.11959737,-0.04669175,0.16656767,-0.08296635,0.24311644,-0.16416565,-0.09846117,-0.39334267,-0.3418627,0.5518553,0.44372144,0.011914495,0.13514885,-0.15596141,0.43044102,0.010736786,0.33887064,0.44784775,-0.08205727,-0.10745447,0.42086256,0.33272022,0.3187608,0.26579908,0.11611529,0.030699743,-0.0865873,0.0015064637,0.10501324,0.0063614124,-0.27938572,0.14070228,0.019604828,-0.40201822,-0.2080814,0.49152312,0.0070224125,-0.38576865,0.2690284,0.27881083,0.10983249,-0.19818798,-0.04931468,-0.22778481,0.18122754,0.18460912,-0.022869019,0.09408153,-0.077516295,0.33500677,0.08728471,-0.20166157,-0.041064356,-0.1482337,-0.11571123,0.40236226,0.123756416,-0.056463618,-0.011666459,0.2869378,-0.15853205,-0.32221836,-0.033577297,0.02991809,-0.06456945,0.17467523,-0.2034006,-0.33140716,-0.25494584,0.060563263,-0.00035949037,-0.6690758,-0.025853962,-0.25618926,0.015329965,-0.15727721,0.01442084,-0.013072609,0.028981877,0.16273779,-0.058718655,0.5842655,0.20872216,-0.07360391,-0.25802147,0.15328142,-0.20847611,-0.40595427,0.038203426,0.6293494,0.013637901,-0.029972093,-0.22196142,-0.066532806,-0.33657387,-0.24474888,-0.09541142,0.048574015,-0.2481592,-0.056007486,-0.15860331,0.07062406,0.038117588,-0.40325156,-0.12580618,-0.15604198,-0.24605654,-0.24051452,-0.059346046,0.14669122,0.405157,0.06457057,0.18709563,-0.28014702,-0.24727157,0.24103981,-0.2529212,-0.23390137,0.048738766,0.44497916,0.2577344,0.013199621,-0.08494435
miRNA_61,-0.21455018,0.34807742,-0.45524704,-0.17627029,0.07629282,0.16222899,-0.107528046,0.08991618,0.30134884,0.30482137,0.11294452,-0.29063815,0.34574977,-0.37764564,0.4089404,0.12725712,-0.2952946,0.17940667,-0.04976385,-0.29673806,0.059258856,0.08811711,0.16894324,0.27247933,-0.37207392,0.06643487,-0.12073363,-0.44934225,0.19413026,0.02047615,-0.104656436,0.38272297,-0.14936498,-0.29463926,0.3044253,0.49979556,0.18856457,-0.34270304,0.05229992,-0.19329247,-0.21686403,-0.189273,0.020930167,-0.083596595,0.26192456,-0.032721538,-0.06837811,0.14696473,-0.25320077,-0.12018194,0.37957168,-0.020823438,0.26983657,-0.305747,0.05624327,-0.054762598,-0.03044109,-0.11409305,-0.48859075,0.38185632,0.18946232,0.41488552,-0.27586827,0.16636771,0.043502197,-0.110465035,0.20911531,-0.27234524,0.11911264,-0.13869505,0.0703651,0.28716448,0.009491588,0.07662301,-0.09554359,0.062471237,-0.19108818,0.11069704,0.01786304,0.23525175,-0.34660417,-0.047552276,-0.016705483,0.22855753,0.0484668,0.2493219,0.06707772,-0.1436153,-0.38257948,0.20531021,0.30147725,-0.24489944,-0.37017828,-0.07796331,-0.17470679,0.03018314,-0.23784657,-0.25576577,0.27512783,-0.052088484,-0.16696592,-0.07719965,-0.054638114,-0.04092101,0.074901655,-0.31968972,0.2710364,-0.09615584,0.30678055,-0.276619,0.09646598,-0.03610752,0.15579787,-0.009019943,-0.18625593,0.45067158,-0.13177481,0.076022856,-0.03201944,0.16477461,0.051789135,0.371783,0.33105952,-0.21928081,-0.10649284,-0.13354659,0.08529897,-0.16719478
miRNA_62,-0.17071326,0.38077354,-0.3610667,-0.076737925,-0.10312663,0.29779658,-0.3537583,0.34069553,0.13566779,0.54484296,0.21257359,-0.28512463,0.26293063,-0.12031784,0.45977667,0.36689422,-0.16399527,0.061303653,-0.24910386,-0.089557946,0.36542854,-0.1968063,0.15220758,0.36572054,-0.26626208,0.41039693,-0.073698044,-0.4938889,0.25269762,-0.087699294,-0.24415706,0.03707925,-0.14256757,-0.038329385,0.30245,0.5972048,0.21188693,-0.32801434,0.23328012,0.03824175,-0.32509127,0.16822508,-0.31455228,0.14169624,-0.039805617,-0.08286864,-0.22650164,-0.27850744,-0.22182907,-0.29925925,0.38193697,-0.0354944,0.12020206,-0.47377235,-0.006406523,-0.028913686,0.16233394,-0.098878495,-0.4626737,0.2960968,0.0017099106,0.10815763,-0.05288592,0.27706668,0.043449186,0.10911386,0.4508623,-0.42453355,0.14834304,-0.2968043,-0.10572697,0.24057484,0.25557476,-0.27959517,0.07188926,0.053272557,-0.351975,0.19548106,-0.010007888,0.04558394,-0.20890714,0.22008368,0.19564189,0.30335873,0.196745,0.08088351,0.07099534,-0.077833034,-0.5064573,-0.037135534,0.33464622,0.04901246,-0.19915777,-0.16012259,-0.14645489,-0.045511823,-0.21806383,-0.09717152,0.17585628,-0.0033105672,0.22575131,0.100070484,-0.08545894,-0.1553563,-0.0041850978,-0.08070804,0.30055216,0.11153568,0.24479857,-0.28624463,0.074046426,-0.2120404,-0.040753655,0.3108152,-0.019717015,0.33957535,-0.10766131,0.24803862,0.308995,0.053127866,-0.1619247,0.26810145,0.2766489,-0.15991199,0.08496495,-0.19046701,0.14706299,-0.07674427
miRNA_63,-0.09814291,0.45117533,-0.40754384,-0.044332292,-0.12286805,0.36244386,-0.41976923,0.31996915,0.16409062,0.6138428,0.13063455,-0.39647818,0.19277991,-0.16391677,0.36162922,0.2965151,-0.13941596,0.17041595,-0.15104619,-0.11836291,0.34327954,0.02146248,0.058658123,0.37065536,-0.22313969,0.3504142,-0.22746702,-0.47712016,0.29963621,0.019222286,-0.2660316,0.13555136,-0.15481201,-0.13814136,0.2681821,0.6477506,0.23969172,-0.25774017,0.24286047,0.017855454,-0.32820088,0.07474409,-0.2579036,0.16783129,-0.02327258,-0.15209363,-0.1873601,-0.09176495,-0.257563,-0.13169731,0.36226052,-0.050105967,0.013909311,-0.5608068,-0.06397022,-0.097755365,0.14929792,-0.08857645,-0.35425234,0.26370662,0.12553668,-0.009736363,-0.17795786,0.24326347,0.03669625,0.049602482,0.3671802,-0.46418285,0.11627026,-0.35791016,-0.08347083,0.29063457,0.2136389,-0.22797757,0.14501189,0.021575388,-0.33086348,0.1832276,-0.06540583,0.040590335,-0.31886214,0.13666154,0.19011855,0.28867817,0.2590321,0.13640836,-0.02514619,0.014627304,-0.5962396,0.03640026,0.36294934,-0.050776318,-0.20411618,-0.08471967,-0.19166404,-0.045982026,-0.23793988,-0.13213553,0.12688483,0.08259389,0.12955841,0.17397453,-0.075809106,-0.13654731,-0.059946183,-0.17205396,0.27345562,0.05938773,0.2266702,-0.37516087,-0.009165155,-0.21070997,-0.10520592,0.32564947,0.044851687,0.25742763,0.111910164,0.19273382,0.32883665,0.06579559,-0.16543879,0.29384834,0.21790259,-0.15070821,0.059077684,-0.13998385,0.13639176,-0.07838764
miRNA_64,0.3395987,-0.12230004,-0.07013724,0.13904537,0.2606915,-0.08774541,0.5297086,0.06527922,0.039553165,0.054975484,0.22930473,0.059772942,0.12514728,-0.009789803,-0.33029935,0.11016151,0.40581563,0.44708169,-0.338551,-0.0403844,-0.13060446,0.3438561,-0.20843674,-0.22863302,0.01932825,0.8015933,0.24941222,0.10077022,0.02537924,0.15579219,-0.1275487,0.047115833,-0.5014765,0.032995876,0.07451835,0.18213223,-0.11154192,-0.3435646,-0.6399863,-0.35066965,-0.32308805,0.3128635,0.26390082,0.20490678,0.22870451,-0.18278866,-0.029065736,-0.2712552,0.029659314,-0.085362405,0.061224304,-0.017198425,0.17358078,-2.162682e-06,0.2223063,-0.42115724,-0.33118454,-0.23985012,-0.26255295,-0.17213237,0.36057618,-0.15762188,0.0055041085,0.0906976,-0.019200157,-0.02046713,-0.04302883,0.113433115,0.03573019,-0.21169178,0.18123254,-0.12950155,-0.2505432,0.021323785,-0.032543544,0.1797869,-0.26374686,-0.13115725,-0.42043403,-0.18243341,-0.23094088,-0.17752421,-0.34627828,-0.23494646,0.122500755,-0.22766893,0.06715108,0.29928505,-0.08561681,-0.22271438,0.1413479,0.2670779,-0.30708328,-0.008533366,0.02158543,0.29628477,-0.36084133,-0.015007958,-0.31629926,0.21793078,-0.07268239,-0.049530458,-0.36926433,-0.16290712,-0.3423591,-0.31763917,-0.3286127,-0.09810317,0.077467605,-0.030393394,0.27828887,-0.37939808,-0.29265326,-0.2793997,0.016786199,0.22224206,-0.21368945,-0.0752475,-0.11567521,-0.4117391,0.15109806,0.12680675,-0.24190935,0.15670842,-0.272338,0.043903757,-0.030645274,0.1878652
miRNA_65,0.22463837,-0.20046546,-0.3021451,0.5841079,0.26891366,0.08030188,0.52919286,0.24927224,-0.15173143,0.3198974,0.19110017,-0.16283372,-0.1470252,-0.0014639475,0.5103496,0.25289214,-0.32807133,0.7144929,-0.09768064,0.20973134,0.12288427,0.23008211,-0.34061936,0.09021772,-0.21542697,0.2543582,0.20737414,0.6476473,0.36316583,-0.1489661,-0.49110365,-0.013787877,-0.22615184,0.3287509,0.26615,0.3885796,0.2361035,-0.6403124,-0.5513349,0.07554455,-0.09590018,-0.10576327,0.28837073,-0.04195139,0.0068685007,0.034239426,-0.014283789,-0.19247924,-0.25784364,-0.47117198,0.058639813,-0.018401256,-0.088329814,0.21351066,0.27861008,-0.20665991,-0.12491683,-0.18290466,-0.18336074,-0.07359426,0.16407242,-0.37427047,0.33833766,-0.18448773,0.24318892,0.42144027,-0.5306752,-0.014948591,0.20617075,-0.18696338,0.043471687,-0.079925865,-0.039503187,0.10838227,-0.14082123,-0.03346287,-0.17073397,0.20085374,-0.2834728,0.20222539,0.087499805,-0.23659831,-0.14107355,-0.18663557,0.28892365,-0.034557223,0.12118674,0.30722407,-0.0076945084,-0.3173164,-0.18447646,-0.14702728,0.00818529,-0.23442072,-0.42237127,0.034240022,-0.4694974,0.09732639,-0.28297338,0.010192758,-0.15986219,-0.27670205,-0.27957267,-0.1490991,0.14841792,-0.117364846,-0.0881561,-0.05669135,-0.39689556,-0.45130846,0.42512652,-0.05895147,0.07798252,-0.38304523,-0.14777835,0.12685208,0.020256452,-0.1451412,0.35654247,-0.20092227,-0.11736824,0.2614017,-0.18191993,-0.041871745,-0.14434543,-0.041332446,0.17456405,0.5813073
