,Dimension_0,Dimension_1,Dimension_2,Dimension_3,Dimension_4,Dimension_5,Dimension_6,Dimension_7,Dimension_8,Dimension_9,Dimension_10,Dimension_11,Dimension_12,Dimension_13,Dimension_14,Dimension_15,Dimension_16,Dimension_17,Dimension_18,Dimension_19,Dimension_20,Dimension_21,Dimension_22,Dimension_23,Dimension_24,Dimension_25,Dimension_26,Dimension_27,Dimension_28,Dimension_29,Dimension_30,Dimension_31,Dimension_32,Dimension_33,Dimension_34,Dimension_35,Dimension_36,Dimension_37,Dimension_38,Dimension_39,Dimension_40,Dimension_41,Dimension_42,Dimension_43,Dimension_44,Dimension_45,Dimension_46,Dimension_47,Dimension_48,Dimension_49,Dimension_50,Dimension_51,Dimension_52,Dimension_53,Dimension_54,Dimension_55,Dimension_56,Dimension_57,Dimension_58,Dimension_59,Dimension_60,Dimension_61,Dimension_62,Dimension_63,Dimension_64,Dimension_65,Dimension_66,Dimension_67,Dimension_68,Dimension_69,Dimension_70,Dimension_71,Dimension_72,Dimension_73,Dimension_74,Dimension_75,Dimension_76,Dimension_77,Dimension_78,Dimension_79,Dimension_80,Dimension_81,Dimension_82,Dimension_83,Dimension_84,Dimension_85,Dimension_86,Dimension_87,Dimension_88,Dimension_89,Dimension_90,Dimension_91,Dimension_92,Dimension_93,Dimension_94,Dimension_95,Dimension_96,Dimension_97,Dimension_98,Dimension_99,Dimension_100,Dimension_101,Dimension_102,Dimension_103,Dimension_104,Dimension_105,Dimension_106,Dimension_107,Dimension_108,Dimension_109,Dimension_110,Dimension_111,Dimension_112,Dimension_113,Dimension_114,Dimension_115,Dimension_116,Dimension_117,Dimension_118,Dimension_119,Dimension_120,Dimension_121,Dimension_122,Dimension_123,Dimension_124,Dimension_125,Dimension_126,Dimension_127
miRNA_0,-0.0032586958,-0.0066848136,-0.0022735316,-0.0022800695,0.0058093853,-1.3282523e-05,0.0065333582,0.0072878115,0.0067139063,-0.0064920634,-0.006805787,0.0055475216,0.0074729454,0.0075237695,-0.005162064,-0.0074256156,-0.0015954897,0.0051717963,-0.0022930838,0.0054341424,0.0021476932,0.005201569,-0.005807832,-0.0058195684,-0.0039367415,-0.006379418,0.0044492837,0.0041023605,-0.007094059,0.005727768,0.0012534875,0.0064444784,-0.0014616903,0.0041901916,-0.0035849214,-0.0029395092,0.0077488367,0.0020996109,0.0053176843,0.004727153,0.0052983183,-0.007087078,0.0026774984,0.000795288,6.8316236e-05,-0.0023111608,-0.002021134,0.006479807,0.0036023017,0.0069128424,0.007502027,0.0023739655,-0.00456216,0.0072169825,-0.0070125684,-0.002394218,-0.0016640611,-0.00044976734,-0.0022247024,0.0073651653,0.005883932,0.006097924,0.0012194682,0.0048218127,0.0014434755,-0.002506096,0.00154428,0.007264305,0.0028216317,-0.002491936,-0.0027898792,0.006425293,-0.0022397637,-0.006159777,0.006828947,-0.004027903,0.0038241409,0.006421067,0.001631923,0.002360994,0.0019678771,-0.005611783,-0.0074273776,0.004969774,-0.0027616527,0.006343361,0.00166554,0.005057946,0.0078104064,0.0024268404,0.0052434057,-0.0072153583,-0.004361678,0.005852433,-0.003596915,-0.0015675873,-0.0038014147,0.0007879995,0.002226336,0.004683487,0.0041174702,-0.0028553084,-0.005728081,0.0018911455,0.0049779583,-0.002302194,-0.004832035,-0.004239071,-0.004844118,-0.0017762035,0.0074101277,0.0023162346,0.0049049444,-0.0031206235,0.00096957013,0.00053149834,-0.0073177572,-0.007617578,-0.0032449774,0.007776439,-0.006413849,0.0014811996,0.0032667574,0.0057296623,0.0075570047,0.000520993,-0.00038906746,-0.0027920622
miRNA_1,-0.001841977,-0.025217554,-0.19405773,-0.31134078,0.08958246,-0.2787834,0.84011346,-0.013553545,0.13368882,-0.14648598,0.08098032,-0.1481437,0.14399175,-0.20085314,-0.17870703,0.035717815,0.06352527,0.01309723,-0.5501183,0.002577687,-0.2513316,-0.03407822,0.014345137,0.22044161,-0.12743403,-0.32034045,-0.17294788,0.3960216,0.33314303,-0.37327713,0.114425555,-0.014393001,-0.028600644,0.062564164,-0.24563943,-0.024290362,0.048768725,0.5804295,-0.38132176,0.083923,0.13478662,0.44410357,0.5536198,-0.18041542,0.51090926,-0.38915172,0.21830852,-0.09745816,0.42132702,-0.13792884,-0.38235,0.14585902,-0.51157534,0.13842048,-0.06504157,0.3684589,-0.42871714,-0.44844976,0.03524047,0.046513703,0.5360955,0.3216123,-0.16448656,-0.40174922,0.17917022,-0.2138698,-0.117912486,0.044601567,0.17723617,-0.16325766,0.28839448,-0.34189886,0.059040926,-0.46835974,-0.10695604,0.0753643,-0.07723483,0.0532313,-0.0939158,-0.041983712,-0.17056178,-0.2570003,-0.071228296,0.2128718,-0.37068647,-0.034008242,0.20272703,-0.038721744,-0.25381967,0.035176132,0.06852788,0.046411745,-0.24736814,-0.3547572,0.18637986,0.09485721,0.11928117,0.05399917,-0.006954721,-0.13919267,-0.11842793,-0.0552466,-0.060302652,0.17664212,0.59831536,0.40681276,0.07705989,0.11919812,-0.19007215,0.11297345,-0.17669982,0.2921795,0.03660319,-0.20467894,-0.01695663,-0.25391927,0.73097587,-0.14681353,-0.106908135,0.19312437,0.060576893,-0.041133363,-0.21988304,-0.34156054,-0.13480674,0.01306293,-0.009266565,0.33416697
miRNA_2,0.0032820012,0.006110085,0.003981782,-0.00310334,0.006440403,0.0009626113,0.0049260445,-0.0048743133,0.00024447963,0.004986437,0.005770756,0.0063720103,0.0014457759,0.000534907,-0.0045674257,0.00020063482,-0.0046857838,0.00078912824,0.00660366,-0.00032054074,-0.007140469,0.0058687907,0.006447306,0.007283848,-0.0014437847,-0.0022720993,-0.0042924657,-0.0072833505,-0.004310541,0.004907448,-0.0076553933,-0.006347047,0.00674545,-0.0010056999,0.00239373,-0.0044557415,-0.0006916467,-0.0027377568,0.004107043,0.007096002,-0.005204467,0.0072831623,-0.004840784,-0.0038454868,-0.0060567856,-0.0030355398,0.0043052286,0.0068013202,-0.0036420375,0.0024720877,-0.0065203737,0.0024212357,0.0029375441,0.0012103599,-0.005763015,-0.0031621642,-0.0019889418,-0.0025950503,0.0074919406,-0.00060083345,-0.0066880174,-0.0015051719,-0.0009903703,0.0009470228,-0.0005943775,0.006484501,-0.0009972509,0.002258269,-0.0071912985,0.002897244,-0.0050277505,0.0060857665,0.0023608822,-0.005418215,-0.0058817957,-0.0038487762,0.0073789638,0.0041071903,0.0063656494,-0.0033715665,-0.0004255101,0.00210662,0.001275098,-0.0048802085,0.0075223967,0.0019313302,0.0045841187,0.0037226193,0.00038645603,-0.0060438327,0.005161157,0.0070937052,0.0042226445,0.0031456463,-0.0061155017,0.005497949,0.0008368213,0.0005202014,0.006739242,0.001191847,-0.00029378943,0.0017460249,-0.004750965,0.0067621917,-0.0021825526,0.0041387994,-0.0070301276,0.00012521073,0.0066168774,-0.0030723326,0.006662054,0.0075219646,-0.006495284,-0.0046296846,-0.0074927732,-0.004661858,-0.0013767034,-0.0065350365,0.0021163523,-0.0010538716,-0.003095068,-0.0020465534,-0.0019045174,0.007233184,-0.002068067,-0.0045197774,0.006239174,0.0016348567
miRNA_3,0.00073252246,0.0012212228,0.005069662,0.0068812706,-0.0028226413,0.005662171,0.0018268395,0.004249951,0.005376516,0.0025776345,0.00358757,0.0064553823,0.0040005334,0.00381816,0.0037673078,0.0010320172,-0.004720269,0.0066877063,0.0023174677,0.002291372,-0.0019303709,-0.0070730764,0.0071936324,0.0033768676,-0.005523687,-0.0045401305,-0.00014067441,-0.00519388,0.006420376,0.003567934,-0.0047937576,0.003440136,-0.0031517092,-0.0075159557,-0.0006555859,-0.0028789006,0.0072670784,-0.0037546474,0.0019112974,-0.0026420392,-0.0016062222,-0.0075486284,-0.0068647712,0.0005711634,-0.00026285462,-0.0039765667,-0.003948929,-0.0054203346,-0.004418811,0.005757889,-0.00585684,-0.005428899,-0.0068095364,-0.004862182,-0.006348001,-0.0026518423,0.005354576,-0.0050182343,-0.00060058385,0.0015777629,-0.006388273,-0.0015787017,0.0020644888,-0.0045562573,0.00395355,0.0032408405,0.000103918836,0.0070323274,-0.005064955,-0.004946884,0.005913563,0.007681139,-0.007087525,0.00015007332,0.0058439597,0.006752258,-0.006577458,-0.0013533086,0.0025819317,0.0055962317,0.0051590484,-0.005865004,-0.0016290415,-0.0006871708,-0.0040820744,-0.004430754,0.0028968994,-0.0049145333,0.002086388,-0.002542954,0.006667966,0.00780195,-0.00034469366,0.006932333,-0.0015479475,-0.0051337853,0.001417974,0.004272394,0.0068349782,-0.0005888082,0.003345415,-0.0032362174,-0.003775211,0.0071841124,-0.004131427,0.0066781677,0.0019574333,0.0015621372,0.003718743,-0.0016695671,-0.0005103145,-0.004104983,-0.0074482094,-0.007134484,0.0023892783,-0.0043291897,-0.0022786092,-0.005799884,-0.0056993924,0.0038946401,0.0027933903,0.0069069955,0.0068200715,-0.00542547,-0.0035784543,0.0029262938,-0.004765054,-0.0055233743
miRNA_4,-0.00037236698,0.006075587,0.0012633111,-0.002676608,0.005869871,0.000668915,0.00026043877,0.0057048555,0.0013107639,-0.0030414332,0.006536249,-0.003301883,-0.0053045247,-0.0069186743,0.004231207,-0.0028393976,-0.007791158,-0.005350517,0.0051568337,0.0027610213,0.0051710233,5.6879595e-05,0.005317716,0.0023087785,0.003968941,-0.0039690137,0.0042686276,0.0045633446,-0.0016662311,-0.0076377187,-0.007214956,0.0036719795,-0.006065542,-0.0038708374,0.006106848,-0.0007696897,0.0065454654,0.0008191336,-0.005212011,0.0048257783,-0.003150301,0.0071156044,-0.0053751245,-0.0007795617,0.004869351,0.0077276994,0.0064110067,-0.007523272,-0.003968274,-0.004672589,-0.0065994225,0.004143646,-0.006921446,0.0021686926,0.0031091068,0.007163387,-0.003485078,0.006917687,0.0014146622,-0.004204683,-0.0038052723,-0.0005859565,0.002531251,0.0018201489,0.0042033102,0.0009438731,-0.0041276924,-0.0051764753,2.7203932e-05,-0.0048170555,0.0020309947,-0.00053740665,0.004003942,-0.0022822376,0.0064310078,-0.0034345463,0.0011211764,-0.004546907,-0.0034488179,-0.005793562,-0.004774848,0.0025661904,0.0018846337,0.0040254816,0.0019744225,-0.0026138797,0.0015262142,0.002282016,0.0035342574,0.0004061889,-0.00047026202,0.006794004,-0.0035176612,0.0071420167,0.001690885,-0.00027042627,-0.006526148,-0.002837658,0.0025954824,0.003977146,-0.0027218629,0.006427331,0.006015502,0.0062768105,0.006895868,-0.0053170323,-0.004012946,0.004768269,-0.0061720777,-0.0046577603,-0.00065437704,-0.000146579,-0.005857775,0.0039336756,0.0061466433,0.002632318,0.0055719987,-0.0045403447,0.0026494358,0.0058086403,-0.0068118162,-0.007314777,0.0039294604,0.006883001,0.0072251596,-0.005106196,-0.00044773333,0.004052017
miRNA_5,0.3386013,0.06638001,-0.51976544,-0.570556,0.45908394,-0.41112733,0.33610466,0.0767064,-0.12860794,-0.38082963,0.15443332,-0.08997544,0.20503542,-0.37739173,-0.093483284,0.11710607,0.20964693,-0.048874803,0.18144192,-0.32151878,-0.2762661,0.07817608,0.014519071,0.034176763,0.13027556,-0.4429919,-0.3103775,0.64699966,0.077004515,-0.07941318,-0.24983741,-0.17234091,0.2596518,-0.04228892,0.04752485,0.032550283,-0.0026210353,0.12897928,-0.42650387,-0.19082615,0.17071088,0.059751928,-0.20519437,-0.051505487,0.20768292,-0.25161296,0.30764225,-0.061420545,0.3833525,-0.3515557,0.121605136,0.19600493,-0.5499017,0.041429754,-0.48747975,-0.36558223,-0.018774815,0.34175587,-0.1105547,-0.2649783,0.05001475,0.28591174,0.15238124,-0.4502246,-0.053688623,0.0068860617,0.36891946,-0.25172856,0.15971524,-0.05575243,0.093122564,-0.26062036,0.3120121,-0.262631,-0.057723314,0.34596694,0.5267266,0.004505149,-0.12386978,0.017555218,-0.4099573,-0.5471056,0.071082786,0.28038675,-0.084942855,-0.30203328,0.18655016,-0.18204328,-0.53080493,0.25262818,-0.030891608,-0.33793756,-0.23329593,-0.15401186,0.21584935,0.3505652,0.45573092,0.017401958,0.039495453,-0.103028946,-0.3947221,0.06770653,-0.05053594,0.16260052,0.052506365,0.12669925,-0.3018625,0.32762954,-0.19852015,0.09771888,-0.4494822,-0.4222852,0.37768438,-0.05890657,0.44086343,-0.4841211,0.7700188,-0.15845126,-0.3642627,0.10939603,0.10019423,0.011561941,0.24892274,0.044394564,-0.046253633,0.34853566,0.17885303,0.053948425
miRNA_6,0.17169619,-0.27824745,-0.46717075,-0.25496802,0.17965138,-0.31062698,0.044919334,-0.072424464,-0.22225204,0.23893721,0.1571906,0.08685193,-0.016397173,0.12621133,0.010637226,0.32522774,0.3025847,0.3355171,-0.21985956,0.2881519,-0.22696781,0.03433963,-0.037297748,0.36094093,0.043200374,-0.20763175,-0.2220007,0.3448182,0.59931463,-0.7848486,-0.18187855,-0.050888333,-0.016218081,-0.39743814,-0.44401336,0.14805694,0.17772637,0.32144374,-0.24141096,-0.06426393,0.02275066,0.0827904,0.2615651,-0.3238917,0.2740176,-0.018192988,-0.022598764,-0.45258266,0.42365035,-0.33267322,-0.35728055,0.059999716,0.025918603,-0.029198376,-0.19943634,0.043242007,-0.2174649,-0.18862584,0.36287725,0.089504935,0.19285323,0.22115676,0.2564537,-0.5088953,0.19915944,-0.2765166,0.16247304,0.22450711,0.08758222,-0.13115638,0.7243882,-0.1676816,0.7820105,-0.73129684,0.57571733,0.41261446,0.19562033,-0.0026559366,0.18764101,0.052716915,-0.10978978,0.15886168,-0.05953256,-0.3739159,-0.05223686,0.015757594,-0.16449822,-0.34515285,-0.37044322,-0.30078724,0.42817613,-0.03248035,-0.3375602,-0.1247351,-0.40505493,-0.15377752,-0.037877403,0.14760765,-0.03453651,0.28993902,-0.09181612,0.14576,-0.076227546,0.24820253,0.40910947,-0.08451039,0.27037972,-0.0104204565,-0.30159128,0.00917808,0.05052331,-0.47935292,0.07519824,-0.07348567,0.3413485,-0.43241775,0.7006045,-0.13832092,-0.4018869,-0.2811916,0.042038288,0.08240363,-0.1258856,-0.313238,-0.10071381,-0.30651367,0.31568453,0.15539822
miRNA_7,0.15072148,-0.07520866,-0.45898026,-0.35163563,0.11846389,-0.5284123,0.31944495,-0.3887335,-0.017182173,-0.0014954442,0.4283252,0.39966935,0.114629485,-0.24509883,-0.12055143,0.30024764,-0.026954634,0.017088072,-0.13153386,0.08011638,-0.25723717,-0.0044369544,-0.021686224,0.13804722,-0.11913579,-0.10693108,-0.53414273,-0.15894857,0.66324997,0.35297567,0.17279974,0.5177275,0.23060346,-0.38373765,-0.3183838,0.19816051,0.1671121,0.56973934,0.31255773,-0.20389572,0.3706131,0.43471637,0.28842667,-0.44572335,0.84347594,-0.0921387,-0.051189918,-0.8602687,0.4023832,-0.74175686,-0.24831489,-0.4178553,-0.14719257,-0.45992535,0.18099621,0.3663345,0.0073761903,0.5056238,-0.45616868,0.43043965,0.030177807,-0.10635714,0.20491612,-0.33038676,-0.047885645,-0.20403098,0.3567379,-0.022204882,-0.08410179,0.00776347,0.45271713,-0.3527035,0.17313786,-0.7404826,-0.11891754,0.5238589,0.41897154,0.030982925,-0.19198418,0.31037816,-0.1270771,0.22150788,-0.12852676,-0.34572443,-0.32071632,-0.12051704,-0.3571884,-0.21130961,-0.13882218,-0.5504897,0.5771061,0.0015237993,-0.13912454,-0.40516347,0.2675756,0.2437306,0.3541765,0.30034596,-0.18916643,0.01849901,-0.19118473,0.1567681,0.13986924,0.12872516,0.5516798,-0.0034210389,-0.36634025,0.15213646,-0.6898277,0.33851337,-0.49792355,-0.21636233,-0.24429016,-0.19268176,0.3091801,-0.25710893,0.73367643,0.03115087,-0.60940206,0.23211446,0.14438392,0.3325738,0.3784941,-0.17882675,-0.14621074,0.29108858,0.119462796,0.15271242
miRNA_8,0.07044133,-0.1656701,-0.3266787,-0.49388626,0.3683644,-0.43699777,0.59018093,-0.24254215,-0.3616458,-0.21245593,0.23851019,-0.19764553,-0.045816112,-0.39166573,0.38473698,0.5313421,0.13884695,0.23947947,-0.1817824,-0.010672982,-0.14890602,0.1678578,-0.42440736,0.27979138,-0.104271114,-0.29408047,-0.43038684,-0.1749585,0.5140215,0.17834364,0.24414304,-0.022983542,0.14423472,-0.014288448,0.24200076,0.29648647,0.58246875,0.09353793,-0.23651722,-0.09304278,0.2322834,0.09390672,0.32922456,-0.37408128,-0.06579375,-0.2617334,-0.30432793,0.18516135,0.69875604,-0.05933291,0.16736943,-0.3604594,-0.31119713,-0.15698788,-0.041587025,-0.003255536,-0.44803756,-0.016535576,-0.5819717,0.024361178,0.30757427,-0.17120437,-0.11842441,0.00370514,0.0039127325,-0.1304592,0.24667613,-0.19292119,0.17751268,-0.13981226,0.78328395,-0.22522257,0.6161971,-0.59418494,-0.0074562207,0.28513545,-0.06880102,0.1416677,0.009604479,-0.352004,-0.069116876,0.017651968,0.13616009,-0.1298555,0.09156643,-0.16518152,0.39390165,-0.054485038,-0.30170497,-0.39036414,0.23325475,0.28060812,-0.121390544,-0.092214264,-0.2073031,0.6287796,0.17185825,0.090632275,-0.42072734,0.1166757,-0.3489757,-0.27081,0.026462128,-0.16349748,0.49370226,-0.20535278,-0.0030901683,0.010513657,-0.12140943,0.2830416,0.22047763,-0.07823501,0.2807035,-0.06581054,-0.12687974,-0.49810815,0.51855236,0.16700679,-0.59073895,0.27275577,-0.2018435,0.18139711,0.23944618,0.15162805,-0.18872859,-0.082515836,0.03984109,-0.113581546
miRNA_9,-0.039050113,-0.2503062,-0.81146926,-0.42124707,0.58557886,-0.35542786,0.1099144,-0.35047954,-0.21423103,0.28721812,0.21788593,0.082527615,-0.03451478,-0.25852072,-0.42527643,0.08366686,0.31078365,0.31280386,0.19005767,0.37842852,-0.6028761,0.3497925,-0.81927705,0.3062665,-0.11102192,-0.6149593,-0.35461545,-0.021474838,0.2745833,0.039895684,-0.22456783,0.29332396,0.15502957,-0.5242266,0.015590761,0.3622199,0.44602498,0.48100758,0.08621401,-0.7780158,-0.3458016,0.6424604,0.18074335,-0.2050316,0.1676855,-0.71594286,0.107064895,-0.14300008,0.495227,-0.36369655,-0.10330907,-0.5690461,-0.22601078,0.047078352,-0.17723949,0.14890279,-0.2169033,-0.11556766,-0.2430396,0.30058852,0.24958944,0.59478235,-0.30361634,-0.47378057,0.32389623,-0.15628627,0.07940215,-0.14214726,0.12103048,0.11627006,1.0249326,-0.3166771,0.72381705,-0.17918718,0.5466581,-0.2083618,0.008547932,0.095139034,0.24857526,-0.034504585,-0.59738326,0.015161347,0.09593687,0.322253,0.1054296,-0.39373404,-0.52353805,-0.4963335,0.063150086,-0.5557549,0.23823352,-0.07732581,-0.13970572,-0.29578745,-0.20733741,0.31491077,0.015488357,0.020722894,-0.4996536,0.21310599,-0.32940415,0.011948118,0.10239815,-0.22113779,-0.1388831,0.2624542,-0.16162685,-0.24844603,-0.21916372,0.3390049,0.3200498,-0.12353617,-0.15418532,0.22647925,0.1332502,-0.3065224,0.5150321,-0.08876589,-0.06516053,0.25827676,-0.26938692,0.22671765,0.10448598,-0.029121887,0.47611442,0.20225611,0.14017312,-0.5432435
miRNA_10,0.0027175099,-0.0004106257,-0.0046047885,-0.004753858,-0.0055378284,-0.0036721397,0.0015906245,0.006195711,-0.006458737,-0.004746314,0.0006163325,0.00025226735,0.0020620413,0.007434413,-0.0067575667,0.0061837956,-0.0032578297,-0.003703842,-0.0046635736,-0.0067915693,0.0066709425,0.0018461272,0.003760945,-0.0071577616,-0.005557541,-0.0071734414,-0.0047878604,-0.0009020567,-0.004691774,0.004440207,-0.006749196,0.0057328064,-0.00070264377,0.0018533412,-0.0077433214,-0.002701763,-0.0008177124,-0.0033287276,0.00018957444,-0.0017826688,-0.006554175,-0.0010730363,0.004486786,0.0012562498,-0.007348718,0.002927998,-0.005591767,0.0036594532,-0.00057193637,-0.0029063355,-0.007723253,0.0047832336,-0.0046085548,0.0072645955,0.0012656637,-0.0053061955,0.0038466342,-0.0029594824,-0.0037971102,0.004384149,0.0037841238,-0.0009612236,0.0026281215,0.005603371,0.00022923388,-0.0033163019,-0.0034470148,0.00030841492,0.0018675532,0.003662508,-0.005396599,-0.005372064,-0.0040402655,-0.0023961253,0.0062754806,0.0035698693,-0.007669203,0.001086181,0.00078888796,-0.0015919972,0.0008727927,0.0057069305,0.0032507423,0.0047787335,-0.0010229275,0.0057318695,-0.0059294607,0.0040947143,0.0005218629,-0.0046537276,-0.002207037,-0.004014533,0.0026370846,-0.0011321045,0.0020361245,-0.003474867,0.0049313456,0.0012040902,0.0077763945,0.0015021749,0.006699834,-0.002784323,0.00046425313,0.0028077047,-0.002331555,0.0045066457,0.004874477,-0.0045963246,-0.0044070613,0.004218273,-0.0027120337,-0.0077584106,-0.006700456,0.0032039322,0.00047467835,0.0059732273,0.005551446,-0.0012643989,-1.6715378e-05,0.003077887,-0.00026689284,0.00035720877,-0.0031099897,0.0020392705,0.00048232637,0.005834779,0.0008048713,0.007487312
miRNA_11,-0.00067610294,0.0034719873,0.0004669521,-0.005734982,-0.0052322224,0.005577201,-0.0029092785,-0.0070035756,-0.0068163015,-0.0028009359,0.004222462,-0.003539905,-0.0057203043,-0.007364709,-0.0032422803,0.0075487643,0.00046753697,-0.002869226,-0.003825603,-0.0044514537,-0.00048102625,0.0027510375,-0.0014537964,-0.0041193906,-0.005833214,0.004517358,-0.007093828,-0.0072626583,-0.0025108717,0.0069991164,-0.00046139397,0.0073727425,-0.0024666227,-0.006762279,-0.0010803062,-0.0035992078,0.0010643322,-0.0026274268,0.004738709,-0.0040849615,-0.006699953,-5.3485855e-05,0.0046520997,0.0028955247,-0.0076377895,0.0028251968,-0.0066004656,0.005989518,-0.0019516032,0.007584363,-0.0050819702,0.006703932,-0.0022509545,0.0032023545,0.003974326,-0.00010018982,0.0020667873,-0.001086384,-0.006868094,0.0063275397,-0.005314812,-0.006211888,-0.006875936,-0.0007245913,0.0031626206,-0.0064363144,-0.005973203,-0.00054675154,0.0025989562,0.0041377936,0.0025508255,-0.0005701333,0.0022378303,0.0069672093,0.0010630302,-0.0066902656,0.0035447143,0.0021575838,-0.0075966306,-0.0076442435,-0.006059829,-0.0065711923,-0.0036736503,-0.007552892,-0.002601549,0.0031347796,-0.0019261483,-0.005462583,-5.7576224e-05,-0.005111443,-0.0044661555,0.0044074506,-0.007289663,-0.0034186002,0.0023534782,-0.007787794,-0.0069336984,0.0038762167,-0.0075480603,0.0062488113,0.0069841146,-0.007043248,-0.0045777857,1.4923513e-05,0.0057680886,0.002663983,-0.0015209392,-0.006547531,-0.0027409308,-0.0029577054,-0.00028511696,0.005730776,-0.0065749194,0.0048204884,-0.0033142585,0.0033877585,-0.004761776,-0.0057020728,-0.0016377717,-0.007597193,-0.0046461225,0.0063876826,-0.005150115,-0.0075109582,0.0024929252,0.0031282213,0.0045044385,-0.005632341
miRNA_12,-0.043284956,0.12919946,-0.4319298,-0.19603004,0.17849989,-0.15246052,0.45225394,0.41794607,-0.14777467,-0.17138277,-0.19224776,0.18044293,0.1680581,-0.73229426,0.20408477,0.07610617,0.18644741,0.22592738,-0.13632652,0.028292276,-0.41895697,0.053845815,0.23053563,-0.011693964,-0.16083968,-0.045571286,-0.8881627,0.088402234,0.18623115,0.3356642,-0.24671888,0.36507973,0.091469504,-0.1719899,-0.25659993,-0.28300577,0.056677975,0.24488164,-0.50222343,-0.017465089,-0.18642657,0.41714993,-0.1184555,-0.4398992,-0.059462134,0.14373723,-0.25030878,-0.7223566,0.2616554,-0.25434902,-0.10677038,0.3014522,-0.004537689,0.25957948,-0.15849026,0.015741661,-0.14715508,-0.114274055,-0.112189315,0.17786437,0.37170327,0.08447766,-0.16822308,-0.13498764,0.025682751,0.2151681,0.50300384,0.033286758,0.26621157,0.4035487,0.058242273,-0.3091984,0.3929746,-0.24109033,-0.075889505,0.7056673,0.5376553,0.107529126,0.2224508,0.1095871,-0.25422674,0.023049112,-0.048996888,-0.36217514,0.26639968,-0.32907176,-0.30202278,-0.5896072,-0.22986878,-0.37805796,0.27182576,-0.13322812,-0.019099116,0.22794268,0.10630131,-0.10101215,-0.069177784,0.2125235,-0.0058048125,0.18277785,-0.32135433,0.03786008,-0.23849536,0.3314986,0.6314447,0.28312036,-0.12177752,0.04302803,0.09840373,0.26507044,-0.06666043,-0.30956283,0.3243284,-0.18581006,-0.11302044,0.1065577,-0.037307903,0.11846381,-0.3868888,0.3043291,-0.74604553,-0.38508764,-0.24687253,-0.18980971,0.22813441,0.35687044,0.0101641845,0.062136065
miRNA_13,-0.16080454,0.0777642,-0.694638,-0.20225804,0.7616601,-0.27663285,0.0121914735,0.08009382,-0.21880823,0.18892857,0.38774398,-0.1011261,-0.17541969,-0.39289966,-0.2647294,-0.03050564,-0.011042972,0.012309406,-0.22887264,0.18010779,-0.49807316,0.75657797,-0.24416365,0.5098776,-0.055736322,-0.33016795,-0.52618,-0.22152345,0.52973664,-0.07102862,-0.08557323,-0.066026255,0.19931501,-0.12519288,-0.1678573,0.07944517,0.43902215,0.5168995,-0.044601366,-0.35315156,0.34273207,-0.100637734,0.3345361,-0.4592766,0.09058262,0.070949964,-0.18598896,0.30224591,0.30383974,-0.38538906,-0.09947547,-0.028793212,-0.41948667,-0.010732883,0.19862701,-0.2994684,0.0014992765,-0.004570281,-0.3110851,0.27764326,0.54087245,-0.042164054,-0.50582373,-0.64430714,0.16978408,-0.5040936,0.22059977,-0.116082035,0.09917591,0.38054818,1.257957,-0.1759049,0.510233,0.10504735,0.32565066,0.46210837,-0.2761989,0.16332975,0.08294376,0.07172659,-0.7108592,0.019746065,0.044179846,-0.25801784,0.091256365,-0.6058385,-0.052828208,-0.6789039,0.100008346,-0.27529025,0.16909237,0.23047426,0.04360187,0.17082343,0.26332626,0.38602382,0.047037754,0.08550372,-0.41525578,0.0035656136,-0.71633786,0.26128826,-0.20805441,-0.29139832,0.5107099,0.12968391,-0.028368851,-0.3169176,-0.11729032,0.05601986,0.10964476,-0.31623325,-0.11954545,-0.49002713,-0.031298358,-0.3723645,0.58320695,0.31576455,-0.8085214,0.18600573,-0.20732032,-0.010307937,0.018763067,-0.030049538,0.26448798,0.3622931,-0.252881,0.16250461
miRNA_14,-0.025741095,-0.07132694,0.07218567,0.16043364,0.38140547,0.0057819774,0.3814886,0.53684306,-0.04926799,-0.04404656,-0.17236067,0.16697067,-0.0014688302,-0.30049568,0.26682296,0.3012752,-0.16025397,-0.20775928,0.10975381,-0.33105436,0.046499807,0.12894085,-0.27444422,-0.31454882,-0.20103468,-0.39524278,-0.3770277,0.4308164,0.40387177,-0.11342858,-0.51261455,0.6765895,-0.22861497,-0.26373813,-0.2706253,0.21100497,0.2645719,0.30934978,0.064592704,-0.5668556,0.18638594,-0.18418819,0.12239276,-0.10547873,-0.20292643,0.042260446,-0.08826568,-0.48591438,0.519103,-0.12861888,0.26583895,0.23749605,0.08237115,-0.036860373,0.17843145,-0.1570088,-0.063469306,-0.13596712,-0.07273775,0.05397892,0.041592717,-0.13587563,-0.375573,-0.19340761,0.17126381,-0.30256468,0.01082077,0.30303004,-0.1335713,-0.021749143,0.7309677,-0.0064265425,-0.12054562,0.29525736,-0.1767273,-0.24714926,0.7142368,-0.13391389,0.26880416,0.20788825,-0.4945757,-0.25746778,0.021039346,0.10189951,-0.071523,-0.08765386,0.22721575,0.008250005,-0.20076177,-0.23969136,0.12925468,0.096468024,0.108216815,-0.0435385,0.09923755,0.043571703,0.32909694,-0.27266088,-0.19758753,0.08411676,0.19062339,0.4163765,0.105038844,-0.039353304,0.35459128,-0.03185255,0.2155688,-0.43860504,0.101678714,0.32812506,0.28363106,-0.012958612,-0.081730835,0.16049674,0.26523012,0.23245317,0.25554168,0.53818125,0.19773842,-0.21877505,0.33090478,0.3022553,0.1860612,-0.078299,0.27422464,0.27574083,0.48537564,-0.41141373
miRNA_15,-0.0018338934,-0.0022262298,0.0075523853,-0.003344277,-0.0072662085,0.004521651,0.0059076957,-0.0022332855,0.007446239,0.004185524,0.003975246,-0.007649455,0.0059693474,0.0004899539,-0.0062589888,0.00039278157,-0.0047634393,0.0046864524,-0.0029572453,0.0056638718,-0.0013224613,-0.0010497142,-0.0070225354,0.0077257175,0.0070756804,0.005889198,0.004411448,0.006717775,0.0041737296,0.0033475757,0.00039248914,0.0032845903,0.0033733696,-0.0028991196,0.005522337,-0.00031017698,-0.00043133087,-0.0053504035,0.0015351363,-0.007334592,0.0048561916,0.0015088227,0.0015389919,0.004741026,-0.007498756,-0.0041377973,-0.0020566192,0.006321553,-0.003588684,0.0064741205,0.0063895434,-0.0043892823,-0.0029372033,0.007027613,-0.003932908,-0.005327791,0.0007748194,0.00332213,0.0036910512,0.0015932303,0.004287308,-0.0044685937,0.00338508,0.0010855962,-0.0028785355,0.005800307,-0.007315485,-0.0033071823,-0.006007852,0.006748045,-0.0013707634,0.0044553764,0.002112966,0.00719871,0.0024122093,0.0062263515,-0.0066836644,0.0066956654,-0.0064986944,0.0012854245,0.0023928788,0.006654557,0.006701432,0.0057229064,0.005497804,0.006782597,0.0022558533,0.002564948,-0.0074070673,-0.0019189529,-0.007800594,-0.0031681396,0.004716387,-0.0074818656,-0.0057738647,0.0017900523,0.0062750187,-0.00044332258,0.005982058,0.0033827163,-0.0034982897,0.005460128,-0.0064220484,-0.0050444845,-0.0038866457,-0.001511639,0.0055744406,-0.0075219683,0.0033805612,-0.002423739,0.0060737114,0.0039991997,-0.0033046063,-0.0056854263,0.0055915117,0.0077599753,0.0022755042,-0.0030307956,0.0023038276,0.0035516284,-0.0051540956,-0.006317226,0.0074220467,-0.002858458,-0.0047315825,-0.0016723834,0.0018584076,-0.003197344
miRNA_16,0.0015610121,0.0011411514,-0.0018090643,-0.0076614413,-0.0001507122,-0.0065918826,-0.0006160792,-0.0018007141,0.0018606596,0.001254445,-0.00070561655,-0.00683935,0.004859362,-0.004436752,-0.0051761623,0.0057434067,0.003563173,0.0058450084,0.005243361,-0.002585929,-0.0019291639,-0.005128052,0.0046036635,-0.0053022206,0.004529806,0.005030472,-0.002848575,-0.0023384076,0.0062896777,0.0022197831,0.00085857883,0.0017182902,-0.0011345018,-0.0071562342,-0.006522337,-0.006119741,-0.0034302864,0.0038754065,0.004062595,0.0063263085,0.0012270156,0.0046461206,0.006603649,-0.004001081,0.0025636908,-0.002007408,0.0073674824,0.005847389,0.0040149223,-0.0072690286,-0.0023823045,0.0007103905,0.0016180463,0.0032635108,-0.0046134964,-0.0048088133,-0.003094785,0.00077555515,0.0061110705,0.0021402594,0.0031553302,0.0026676022,0.0027414598,0.002427537,0.004186092,0.006177012,0.00019989721,-0.0030876212,-0.0024870038,0.0068226233,0.00040846877,-0.0043964013,0.002513634,0.0052274205,0.005817903,0.0066616535,0.004693255,-0.004312923,0.003709916,-0.005727675,0.007745808,-5.638227e-05,-0.0023649018,-0.0020608865,-0.0022765826,-0.00068467483,0.0062496383,-0.0066347234,-0.0070192963,-0.0044111833,-0.001709709,-0.0009934455,-0.004228264,0.0068279263,-0.000118015334,0.003159726,0.0058335066,-0.003349254,0.00060604885,0.004111586,0.0025452003,-0.003955839,-0.0038056374,-0.007361548,0.0042659547,-0.0008636508,0.005047828,-0.007480249,-0.003393842,0.005682366,1.2785196e-05,-0.007804882,-0.0013333168,-0.0012190249,0.00038889423,0.004640432,-0.0005820859,0.005385861,0.0015199389,-0.0006629862,0.007070463,-0.0048646796,0.007227244,0.004272299,-0.0014249403,0.007151235,-0.0042431653,-0.0017212257
miRNA_17,0.0016528517,0.001085965,-0.0012518223,0.003421234,0.0014322661,-0.0007972773,0.0049281865,-0.002458794,-0.006873768,-0.0050762724,0.0076355413,-0.00015725195,-0.005425943,0.0050945114,0.006176999,-0.006196128,-0.006741509,0.002954727,-0.0020864923,-0.0012032576,-0.0038344823,0.0009000711,0.00029159337,-0.0012629982,0.00049003214,-0.0030856226,0.004122542,0.0017966367,-0.003074335,-0.0062752683,0.006757943,0.001053635,-0.005913101,-0.005936673,-0.005072389,0.00021351129,0.0012330879,-0.0073983185,-0.0029899757,-0.0077402536,0.0009605102,0.0013419744,0.0072886497,-0.0049613584,-0.0006186981,-9.342097e-05,-0.003590135,0.005847523,0.005201783,0.0047292337,-0.0013635643,0.0007899944,0.003764687,0.006206449,0.0021955706,-0.0027879253,-0.0066798422,0.0074338485,0.0033629555,0.0004521627,-0.0038382262,0.0012097582,-0.004976256,-0.0023658145,0.006913595,-0.007670488,-0.0038388763,0.0030525848,-0.0058578625,-0.00046862662,-9.308942e-05,0.0041309074,-0.0065899156,-0.0030584168,-0.000545023,0.0064645354,0.0040223114,0.0072870906,-0.007310204,0.000322083,-0.005887419,-0.00044525415,0.006768128,-0.006488437,-0.0055363663,0.0017056875,0.0076726247,0.007679267,-0.0024468526,0.0038647149,-0.0057518966,-0.00032864697,0.006769536,-0.001303779,0.0034546386,0.00053957663,-0.0065945163,-0.0055445507,-0.005089218,-0.003752552,-0.006907014,0.0013533514,0.005217824,0.0061525498,-0.004544083,0.0024321768,-0.0009861235,0.0028946456,0.0014505032,-0.0013137441,0.0077320486,0.0013433825,-0.00085665844,0.0054038875,0.0069629326,0.00029811263,0.0030175261,-0.0018606726,0.005915029,-0.00771055,0.000880789,0.0070196,0.0037092082,0.005377248,-0.0060912054,0.0068661757,0.0056394264,-0.0019240025
miRNA_18,0.80646706,-0.05797828,-0.38019985,0.49095207,-0.58550286,-0.5585689,0.17350292,0.14540657,0.3934438,0.25709215,-0.20645341,-0.059452683,-0.40959346,-0.26048586,0.22087254,0.36990166,-0.014090344,0.08438482,0.29091793,-0.15522873,0.13477011,-0.30113485,-0.6997706,0.06806217,0.31861055,0.02776139,-0.3513862,-0.15124671,0.045336638,-0.37204596,-0.13646957,-0.20470749,0.16369626,-0.6610817,-0.25633946,-0.004336942,-0.5375872,-0.0027789953,0.0720646,-0.28961387,0.43450767,-0.23097041,-0.09705416,-0.488061,0.32244354,-0.4079962,0.66753244,-0.08677735,0.5475465,0.1051701,-0.15719207,0.22828622,0.25594652,-0.18359786,-0.12866448,-0.3555408,-0.3391636,-0.21941963,-0.23446086,0.116759665,0.42257217,0.25113633,-0.09028825,0.08693516,-0.52108693,0.16814274,-0.28383648,0.050294075,0.00046604004,-0.13560876,0.49530077,-0.11670513,0.14569356,-0.49240083,-0.11753087,-0.118391015,-0.12763414,0.1562885,0.10341271,-0.3007045,0.18429911,-0.25891533,-0.25026438,0.5269223,-0.26920342,-0.33671004,-0.120371684,-0.30064845,0.06837904,0.10950026,-0.60231835,0.5126734,-0.23393968,-0.3819313,0.05920131,0.43156132,0.023276689,-0.087162696,-0.7422796,-0.18107241,-0.45217863,-0.035234753,-0.35854414,-0.010045965,0.18464102,0.318784,0.25015444,-0.17811717,0.29043663,0.05590089,0.24341148,0.13463879,-0.21876712,-0.09457276,0.4421845,-0.38884908,0.27569115,-0.19770326,-0.3907778,0.15085164,-0.29842415,-0.1125634,-0.10920141,0.17712031,0.19666249,0.17165479,0.012133407,-0.55348444
miRNA_19,-0.1158267,-0.108650245,-0.03317293,-0.021902964,-0.051324844,0.28507525,0.45387745,0.1491809,-0.09091296,-0.07583793,-0.08456323,0.0302201,-0.2470023,-0.018507915,-0.059055127,0.5187176,0.46529737,0.053210557,0.099567376,-0.13166277,0.0120792175,0.07453885,-0.31625283,-0.41675,0.18663761,-0.07024622,-0.21612611,-0.23918967,-0.047298674,-0.29698077,-0.05967824,0.1104657,-0.27327815,-0.12401589,-0.038609225,0.10100208,-0.19863254,0.21635059,0.26478997,-0.15095553,0.046402447,0.14548734,-0.41903302,-0.59691286,-0.14252834,-0.03898549,0.22947353,-0.037670005,0.114139795,0.140035,-0.11317468,0.15478157,0.0126759745,-0.38300472,0.081189856,0.5879289,-0.009485704,0.22706302,-0.13174447,0.0989032,0.69052637,0.10834781,0.015652198,-0.2504521,-0.12767975,0.15275519,0.26287434,-0.324179,0.2945551,0.11933811,0.14818239,-0.60676396,-0.16558224,-0.41510347,0.03614509,0.37627295,0.083658524,0.33315536,0.08732197,-0.5611976,-0.5329906,0.1206113,-0.23282877,-0.009523889,-0.2859837,0.20081359,0.18241538,0.020868905,-0.12124373,0.21021128,-0.114121914,0.310209,-0.371298,-0.06677918,0.55224496,-0.054607294,0.17297289,-0.12647952,-0.20409098,-0.19931991,-0.50362897,-0.29656023,0.19562764,-0.06645267,0.0696146,-0.40709183,-0.29206163,-0.15756136,0.018888282,0.35235554,-0.16001911,-0.10837479,-0.22334702,0.30619022,-0.031971898,0.18088938,0.21317093,0.24730667,-0.281394,-0.13330545,0.35896277,0.29954654,0.38270983,0.19565259,-0.06187203,-0.6612086,0.25352696,-0.5341727
miRNA_20,-0.00076399744,0.0025741737,0.0049364585,0.0010073055,-0.0062712375,-0.005789941,-0.0022093654,0.005846923,0.0053267255,-0.0007797256,-0.006923085,0.0021189488,0.0064827967,0.003127588,0.0061944816,0.007012848,0.0008900687,0.0056921598,-0.0071501527,7.3723495e-05,0.0066531133,0.0031623747,-0.0058510806,-0.004218852,0.0067250486,-0.0012413599,0.0035490766,-0.0004122518,-8.062273e-05,-0.0011439975,-0.0023084655,0.0068822578,-6.632693e-05,-0.0010944754,-0.0022386704,0.0070004314,0.0035831872,0.005155511,0.00221101,0.0018687267,-0.004516462,0.002624942,0.006258419,-0.0006588306,-0.004199004,-0.005255593,0.006675184,0.0018617641,0.001548944,0.0032178517,0.0074201263,0.00037304498,0.0039712004,-0.0075446535,-0.0056899097,0.0067885797,-0.005577715,-0.007259859,0.0009957626,0.0055865683,0.0023389552,0.007573694,-0.005241893,-0.005412163,0.006208973,-0.007182762,0.0049697366,0.001658164,-0.0029474366,0.0017233696,-0.0044381283,-0.00086180493,-0.0014770534,0.0037974846,0.0015725419,-0.0069555473,0.0023228582,0.007555116,-0.004553631,-0.0039150957,-0.00013132766,0.0037838928,-0.006260585,-0.0060067177,0.005655125,-0.0017245151,0.0020085424,0.0029952042,-0.0023456458,0.007397115,0.007375706,0.003139928,-0.007287247,0.005381165,-0.001245698,0.0076122917,-0.0065649487,0.00089732,-0.0010760576,0.007744029,0.0026055668,-0.002289027,-0.0075432193,0.002722375,0.005028829,0.0046180915,0.00090813264,-0.0040453486,0.0032875296,0.0061711576,4.7542155e-05,-0.00012858957,-0.004936455,0.0068574566,0.00089937635,0.0021877307,-0.0067324713,0.001467606,-0.0013862792,-0.0019713081,-0.006498622,-0.0073297992,0.0042588096,-0.0020833686,0.00036131032,0.003348343,-0.005734008,-0.0054107234
miRNA_21,-0.0019942056,0.00418042,0.0057238154,0.0051666424,0.0018976554,0.0009934288,-0.0024153888,0.0018015448,-0.005354928,-0.00019116141,0.004547268,0.0019808542,0.00024838932,-0.00664497,-0.0038028285,0.007225875,-0.0048751403,0.0066046305,-0.0035678316,-0.0058820453,-0.0015905369,-0.0069301445,-0.004487781,-0.0039617997,-0.0073302034,0.0063473266,-0.003581144,0.006114291,-0.0049011074,-0.0065009333,-1.273863e-05,0.005326906,0.0028329045,0.0042017587,0.0020998307,-0.0012881998,-0.0068055093,-0.007089488,-0.001347933,-0.0039654616,0.0036232192,-0.0050722472,-0.0060311593,-0.0015728418,-0.0061235707,0.002623329,-0.004823748,-0.006068006,-0.004520178,0.0059055947,0.0039860234,0.00038653426,0.0002178736,-0.0045383796,0.0036281869,-0.0047121607,-0.00052203983,-0.005284736,-0.00120873,-0.0040959995,0.004672412,-0.007119801,-0.0029459465,-0.0059846155,-0.0076042246,-0.0076378174,0.002837576,-0.00011810474,0.003775008,0.00015996583,0.0015727747,-0.0044062845,0.004223112,-0.005576918,-0.0058126114,-0.0031897668,-0.00533475,0.00034542568,0.00538012,0.0060548205,0.0060692765,-0.004567411,0.004487857,-0.00443282,-0.00020942837,-0.00022175163,-0.0038640369,-0.0032144748,-0.00286402,-0.00543298,-0.0053738263,0.0075370707,0.0048219245,0.0039515924,0.0025610775,-0.0043799113,0.0036990754,-0.0061273724,0.0030359197,-0.0056759175,0.00473167,-0.004666509,0.0063943993,0.0071739666,0.0075999293,-0.0056703724,0.0021281503,-0.0074176453,0.0065060146,-0.0017188601,0.006460458,-0.004921928,0.003805479,-0.0037111472,0.00045167282,4.9473718e-05,-0.0036888309,0.004635036,-0.007766925,-0.0020602979,-0.007377483,-0.0070387404,0.0044173934,-0.00056653284,0.0068768803,-0.005624922,0.003320856,0.006503271
miRNA_22,-0.0036026575,-0.006941637,-0.0020808894,-0.0054443516,-0.0014246441,-0.0024234802,-0.0009477921,0.0051868297,-0.0075014774,-0.0049176663,0.0020792875,-0.0076187924,-0.0022038855,0.0051249713,-0.0074070375,-0.007303914,0.005070992,-0.00561074,0.003569292,-0.0030803308,0.003438862,-0.0045679267,-0.0002409704,-0.004660841,-0.0058454983,0.003761936,0.0076749455,0.0014346018,0.0063341074,0.0052395314,-0.001833586,0.003990652,-0.005782202,-0.004262451,0.0013270807,0.0035109967,-0.004087774,0.004822349,-0.0061806887,-0.0043631345,-0.0051023215,0.0040855594,0.000616977,-0.0015638974,0.0014918819,-0.005862832,-0.0049352925,-0.003726188,-0.0058232024,0.007092688,0.0038453005,0.003867492,0.00216317,0.005973527,-0.0059600584,-0.0060857963,0.0047269166,-0.0068339612,-0.0037986487,0.0024151132,0.0018063057,0.0021211002,0.0078025796,0.0018371474,-0.004222637,0.001962563,0.0024516154,0.0070390925,-0.0009894781,-0.0040217116,-0.0069694463,0.004018765,-0.0065470543,-0.0009952374,0.0026955474,-0.0008241739,0.003788447,0.0013367087,-0.0077100415,-0.003526874,0.0011991207,-0.0013804063,0.0049740374,-0.005080724,-0.004355997,-0.0056923423,0.0006451979,0.0031269249,-0.0041801035,0.006748978,-0.0055867136,-0.0064662937,0.0024942271,-0.00034101307,0.003663214,-0.0044122897,-0.0006552376,0.0023192689,0.005959565,-0.00232587,-0.0001272466,0.0044383723,-0.007684227,-0.0037335567,-0.00030375458,-0.0047129504,0.0015850924,-0.006052805,-0.00096035935,0.0045853388,-0.0016342569,0.006354006,-0.001446275,0.0033933707,-0.001003705,-0.0024271552,-0.005019456,0.0052656345,0.0062835943,-0.001905553,-0.00613725,-0.0026839636,-0.0038660448,0.0057141986,0.00012997538,0.002572855,0.0021164455,0.00507595
miRNA_23,0.0037370156,-0.0052151624,-0.0044616237,-0.0049546473,-0.006164087,0.007383138,0.00027215108,-0.0016835816,0.0006622318,-0.0014445409,0.0072468705,-0.00013933517,0.0052146446,-0.005888451,0.000921689,0.0013097469,0.005338058,-0.0065971464,0.0009816382,0.0016507059,0.0070972443,-0.007751273,0.0040784683,-0.0022042878,0.006277172,0.00039504096,0.0070710946,0.004767293,0.005253598,0.007490007,-0.006373573,0.0022036228,0.0033890922,0.0001007244,-0.007751208,0.001427168,8.353032e-05,0.002689056,-0.003902845,0.0075113345,-0.0024544373,-0.00061984174,-0.006695645,-0.0071803685,0.00052429177,0.0005235132,-0.0008358974,0.0066012572,0.0013959277,0.0020966846,-0.0035102293,0.0057718847,-0.0062145274,0.007568404,0.0006775819,0.00023016706,0.0015363395,0.0017553922,-0.005699994,0.002262609,-0.006543549,0.00082982704,-0.0006372575,-0.0063846987,-0.004832644,-0.005309703,0.007104134,0.0056417584,0.005759187,-0.0012328997,-0.0035519712,-0.0020255316,-0.0034293141,-0.0036241896,0.0055286493,0.0019351412,0.0067616403,0.0012094788,0.0029153768,-0.0016508047,0.003948923,0.0044763815,0.0038071852,0.007422205,-0.003867004,-0.0015949123,0.007618768,-0.0019957237,-0.004036773,0.0033493415,-0.002113428,-0.0026850458,0.005995337,0.0038956907,-0.0022793934,5.1546842e-05,-0.007130567,-0.00049262494,-0.0014030132,-0.0019710977,0.0028098077,0.005718138,-0.0040491372,-0.0064418223,-0.007651774,-0.0074311737,0.005862288,-0.002844574,0.0029576588,0.0021650568,-0.006277848,0.0047199,0.007251341,-0.0062001124,0.0012799948,0.0063870065,-0.006932903,0.0020908695,-0.0075067654,-0.003621092,0.007675169,0.0038938522,-0.0011204295,0.0029492322,0.005466515,-0.0047324616,0.0061609037,0.0024899933
miRNA_24,-0.26409876,0.41706207,-0.29573298,-0.23932876,0.18491456,-0.30262926,0.26595008,-0.22138159,0.261153,-0.3411594,0.002540144,0.24489067,-0.22105029,0.13420078,-0.17946649,0.12545428,-0.6325265,0.0768946,0.20052375,0.47162122,0.5587855,0.25912383,-0.23312463,0.14074579,-0.300678,-0.1682694,-0.46539736,0.07726513,0.020473437,-0.04711412,0.3141432,0.30884206,0.13913812,0.07127865,0.07221168,-0.2414853,0.08370662,0.40791968,0.37337348,0.15394707,-0.20977247,-0.1366528,-0.03744449,-0.046762303,0.14019063,-0.29560834,-0.3011097,-0.07399336,0.012038833,-0.07996326,0.4902365,0.54477715,-0.20903103,0.20080699,0.04918643,0.47657746,0.13417831,-0.2395142,0.10031412,0.21937151,0.026332423,-0.034848318,0.5285217,0.21903446,0.19693981,0.009744539,-0.07866205,-0.18710138,0.4961542,-0.04490744,0.5173097,-0.14229138,-0.054369166,-0.3036138,-0.28720644,0.43102074,-0.2455611,-0.20941746,-0.011656102,-0.27955836,-0.36208683,0.20129028,-0.32528725,0.1835218,-0.2510952,0.31063077,0.31574285,-0.4088839,0.073368005,-0.0817592,0.4965491,0.11367136,-0.119260766,0.1083321,-0.33694184,0.3113926,-0.0055883033,0.52062833,-0.8448052,-0.15513593,0.040347032,0.7221458,-0.06315646,-0.002117502,0.12348258,-0.30219495,0.22939907,-0.21124993,-0.058146868,0.07180442,-0.13966015,-0.14323218,-0.33917996,-0.06324869,0.28723696,-0.04007377,0.5072062,0.5178479,-0.36901745,-0.15434794,-0.40531036,0.55388695,0.29738787,-0.06457007,-0.056397654,0.631353,0.3269798,-0.11938262
miRNA_25,0.0056631044,0.0033514015,0.003408797,-0.0075732134,-0.00050040893,0.005197948,-0.00364553,0.0010532457,-0.002068581,0.006980207,-0.002780281,0.007275114,0.0020124074,-0.006726779,-0.0035808384,0.0031927545,0.006789632,-0.0039635096,-0.0021405816,0.007736992,0.0030188132,0.006364407,0.0043591186,0.00764033,0.0013311896,0.0032210872,-0.00393291,0.004556222,0.0062816795,0.0019163955,-0.0012273174,0.006408613,0.007700395,0.0060894378,0.000120269135,0.007239055,0.0048499648,0.0056932643,0.00075715967,-0.0058778003,0.0028081834,0.0010613222,0.0013729017,0.0074927304,-0.0021885298,0.00023454987,-0.0016971193,0.005537091,0.005550271,-0.0008505024,-0.00490305,-0.0053188987,-0.0014428757,0.00060034916,-0.0016401038,-0.004362464,-0.0032668654,-0.0017208979,-0.0059764422,-0.0054775905,0.0057211835,-0.0006281566,0.0020818543,-0.0026682075,0.0035544205,0.0015577655,-0.0052972827,0.0023194272,-0.004718926,-0.001700189,0.0033324603,-0.002909597,-0.0033497605,0.0031310413,0.0026230756,-0.0061930493,0.0024450328,0.005792087,0.0033238288,0.007422656,-0.0019951686,-0.0009656977,0.0039719827,0.0037785005,-0.0078043733,0.0068892036,-0.006765308,0.0073424,0.0031993333,-0.0022075698,-8.6510554e-05,-0.0022748802,0.006624924,-0.0009778347,-0.0016263891,-0.0034543872,-0.0016421117,-0.006601561,0.007323891,0.0026843399,0.0066118296,0.006763339,0.005140001,0.0029409248,-0.0042761303,-0.0008422788,-0.0076648314,0.0027879607,0.007082343,0.00755864,-0.0010571573,-0.0010557547,0.006564129,0.0015281439,-0.0067743957,0.0048840437,-0.0015699193,-0.0010827258,-0.0055212285,0.004432602,-0.001440471,-0.0077325236,0.006396426,0.0032737274,0.0021889415,-0.0075473487,-0.0048678797,0.0039041173
miRNA_26,-0.25609916,-0.4404077,0.10484451,-0.15160385,-0.21005243,-0.22477505,0.46680766,0.5160437,0.4436088,-0.3114765,0.20702143,0.047569584,-0.036579967,0.23356248,-0.34689975,-0.071229935,0.5347534,-0.15928863,-0.48142445,0.4834577,0.25072074,-0.019012872,-0.5013203,0.040542223,-0.21182545,0.5259475,-0.40849724,-0.48788503,0.1785422,-0.018793993,-0.05164903,-0.2109381,0.14018917,-0.31649932,-0.81483847,-0.649154,0.002590271,-0.27719507,-0.08432302,-0.7260945,-0.4099669,-0.0384088,0.05486583,-0.21863775,-0.30117837,-0.23142853,0.36588416,-0.22866946,1.0026575,0.8220942,0.4083985,0.4579402,0.12181564,-0.16562702,0.24769169,0.288656,0.42067617,0.20636317,-0.20694068,0.35290158,0.44585043,0.36615175,-0.023292607,0.12895471,-0.083895095,0.6305076,0.2905744,0.03415745,-0.17243426,0.16914518,0.6298705,-0.1222271,-0.02739399,-0.8105266,0.8870386,-0.26528868,0.17316301,0.27649885,0.24638551,-0.3037476,-0.460013,0.06717648,0.08865689,0.3635124,-0.16548122,-0.26438004,0.09021758,-0.09099273,0.005520473,0.47785282,-0.67074215,0.21596149,-0.25264385,0.12615882,-0.4300581,0.6455448,-0.64980423,-0.5841394,-0.26435074,0.081373386,-0.027037477,0.36358362,-0.41738096,-0.030768396,0.0674527,0.05969838,-0.21797112,-0.09032006,0.3978258,0.6911923,-0.35103896,-0.29582557,-0.23634242,-0.068568036,-0.55675364,-0.19799529,-0.39390898,0.43605286,-0.51364714,1.1123267,-0.17811728,0.46917683,0.76988167,-0.43447343,-0.030194521,0.19656269,0.19361822,-0.10845592
miRNA_27,0.0038131457,0.0067238417,0.0024879668,-0.0013895594,-0.004280146,-0.0034265928,-0.0026818402,-0.005829951,0.0063558836,-0.007006455,-0.0052682906,-0.00046614744,0.0034898464,-0.003785221,-0.0055811685,-0.0044053495,-0.0028759092,-0.006231632,-0.0039951596,0.005701104,0.0011673812,0.0015664529,-0.0038743336,-0.001858132,-0.0070590097,-0.0012375042,-0.0022653062,0.0058081113,-0.00033707917,-0.0015443768,-0.0056760553,0.0021226257,-0.0017448198,0.0057338253,-0.0048960187,-0.0057098046,0.0014907476,-0.004241841,0.0058086123,-0.002032578,0.004158823,0.005737612,0.004548222,0.0060607456,0.0035088118,-0.0016381554,0.0032634884,0.005011866,-0.0039632972,0.006689122,0.0019156709,-0.0030751787,-0.0051936544,0.005799802,0.002287019,0.0043607205,-0.0034403913,0.0077384263,-0.004723711,-0.0002502557,-0.007698383,-0.0019896775,-0.0062168445,-0.00029254705,0.007612478,0.0064316057,-0.004721202,0.0058703274,-0.0037964042,-0.0021770652,0.006507775,-0.0054062773,0.001599241,-0.0036759619,0.00013337098,0.0053544547,-0.006113654,0.0069565494,-0.0072998777,0.0028079282,-0.0077064093,0.004240025,0.001434451,0.0071305484,0.004647063,0.0060157403,-0.0027884971,-0.0077186227,-0.0018553939,0.0075413473,-0.004518952,-0.0018073488,0.0037856642,0.0031972304,0.0018143114,-0.004475184,0.004390113,0.007753849,0.007586308,-0.0054521468,0.005574215,-0.0064895675,-0.00426447,-0.004709512,-0.0022399426,-0.003081575,0.002098048,-0.0062254686,0.005212724,0.0006375015,0.006829474,-0.005471058,-0.00438568,-0.00034428574,0.00483034,0.003067417,-0.0035312064,0.0036479663,0.00334052,0.0020427834,-0.0012412835,0.0041249897,0.0021585487,0.0024148282,-0.0061456095,0.002917271,0.0072298422,0.00050191395
miRNA_28,0.0021991357,0.0019871015,-0.0040905643,0.0050197635,-0.0012855995,0.0042671915,-0.00023389049,0.007459266,-0.0058995914,0.0012033246,-0.005604498,-0.0036471803,0.0015599728,0.0012834743,0.007775789,-0.0052520335,-0.0020739827,0.005878737,-0.0061225537,0.002714401,-0.0047479197,-0.002718011,0.00549371,0.0065740347,-0.002928095,0.006639408,0.0036718342,-0.0055044945,0.0066425223,-0.003137976,-0.0011597108,0.007332407,-0.0076997094,-0.003561847,0.0054272786,-0.0007688664,2.7809292e-06,0.0009291675,0.007039482,0.001058165,-0.0072607696,0.0037779994,0.0041258354,-0.0033612829,0.0057098754,-0.0043039713,0.0014018249,0.0005252138,-0.003560651,0.0077604465,0.0048062745,0.004283365,-0.0029881205,-0.0073428713,-0.006063793,0.0060588624,-0.0015356578,0.0013841633,-0.0016268007,-0.0012320299,-0.0056365132,-0.005453497,0.0048257634,0.0062673595,0.0042145625,-0.0014080405,0.0050271787,-0.004735794,0.0077091455,-0.0076022074,0.0031445231,0.0019775964,-0.0014266036,0.0015899613,0.0016732402,0.0009963233,0.001438519,0.0028976053,-0.0035499614,0.0075738057,-0.00255345,-0.0029943585,0.0038714726,0.0016730297,0.0043273605,0.0073145684,-0.0011708532,0.0040036608,-0.0064341277,-0.0013771299,-0.0023321453,0.00018260814,-0.0072635133,-0.006776586,-0.003326077,-0.005808113,0.0073201787,0.000665538,0.0075480416,-0.0013381392,-0.006450167,0.004246976,0.0044295937,-0.000101523474,0.0038057882,-0.003928747,0.0015494116,0.0042868853,0.001719011,0.005731771,0.003611751,-0.0017992426,0.00046482682,-0.006370431,0.0054148715,-0.0059616547,-0.0004460793,-0.006898377,-0.0034441724,0.0024894103,0.0055968147,0.001771979,0.0049847774,-0.0030596647,6.953813e-05,0.0017919373,0.0042663626,-0.007722527
miRNA_29,0.006201191,-0.004362423,0.007458519,-0.0006444063,-0.0059467405,-0.004873289,0.0060956385,0.0029167105,-0.0016708877,-0.0028697774,-0.007378187,-0.006021805,-0.0040642284,-0.0066601858,-0.006756587,-0.0030382592,0.003802197,-0.0010223556,0.006611608,-0.0051130895,0.003500294,-0.003591787,0.0056169946,-0.0011721812,-0.0055954494,-0.0070186667,0.0038125794,0.0077457447,0.0027803518,-4.58546e-05,0.0019254517,0.007470755,-0.0035841651,0.0039880928,0.0074606743,0.0051047094,-0.0010679532,-0.004296059,0.006774787,-0.0063064527,0.0068756323,-0.0005008783,-0.0045357887,-0.0035222843,-0.0014423598,0.0032711737,0.0013263542,-0.001914734,0.0070600733,0.0020918418,-9.327941e-05,0.004875118,-0.0018594395,0.00035701692,0.0013798848,0.005824268,-0.0054569487,0.0038229898,-0.0061661527,0.004026346,-0.0046490524,-0.001130037,-0.0016457271,-0.0048702825,-0.0023578182,0.0037037209,0.0053762365,0.0052726157,0.002124533,-0.0018320009,0.003457915,-0.005839294,-0.0076253284,0.0010250937,-0.005311029,-0.0003982298,0.004926473,-0.0037845615,0.005021641,0.001204852,0.003140362,-0.0018299706,-0.0055465996,-0.007722771,0.0050330907,-0.0072287917,0.0058394372,-0.00515463,0.004044015,-0.0070236158,0.0025028922,0.0054848753,0.006576337,0.0016326159,0.0037570521,0.0018817745,0.0040124394,0.00266633,-0.0060368553,0.006669892,0.0013832506,-0.006904263,-0.0013007205,0.001952786,-0.0011740681,-0.0009447858,-0.0014562402,0.007575907,0.0051470026,-0.0046698507,-0.0061523337,0.002374312,0.0074456856,-0.0057475213,0.0041317698,-0.0032880493,0.0017782971,0.0042659324,-0.005949488,-0.0058424883,-0.005678747,0.00043039024,0.0076795034,-0.0048229042,0.0022988562,-0.0074042194,-0.0033066142,-0.0043148175
miRNA_30,0.17684978,-0.051075425,0.32104507,0.014457844,-0.0014654039,-0.6335442,0.54038733,0.032159545,0.5529265,-0.31533182,-0.34539077,0.43789205,-0.48331177,-0.06168126,0.31780916,0.44840527,0.34131643,0.48873478,0.07259655,-0.009912388,0.06921241,0.04018682,-0.27951247,0.050377827,0.31097895,-0.22841382,-0.24160057,-0.03024536,-0.38676584,-0.4894185,0.15522753,0.66228294,0.25736967,-0.4842079,0.40389866,-0.22734416,0.09111317,-0.032318726,0.093517244,-0.1961199,0.23753996,-0.38262263,-0.18254085,-0.31253573,-0.20802598,-0.27257463,-0.060964398,-0.1256496,0.18212882,-0.8089633,0.028945232,0.25492987,-0.36422458,-0.2278302,-0.3147303,-0.005806061,-0.72205114,-0.22579965,0.22237052,0.046735726,0.14202534,-0.7504359,0.2701163,-0.33635327,-0.1706557,-0.18185736,-0.2685931,0.3846741,0.2931268,0.48963678,0.12590356,0.28340527,0.010622165,0.24480994,-0.31275526,0.104160696,-0.07117509,-0.563419,0.28460795,-0.470199,-0.092572026,0.023135105,-0.50126594,0.3590899,0.09566986,-0.17043504,0.3796309,-0.65232277,0.021311946,0.12950265,0.16270684,0.49798155,0.101512685,-0.3962248,0.0722221,-0.0839103,0.29511753,0.028434595,0.28556016,-0.15126209,-0.34578317,0.29108217,0.23931882,-0.100470684,-0.3226405,-0.055791352,0.07861153,0.84963334,0.41564566,0.70734656,-0.26861474,-0.021741336,-0.21877211,0.58312374,0.5611548,0.004089407,0.35870042,0.43929842,-0.096500024,0.08754469,-0.34601113,0.09234578,0.45220563,0.047084507,-0.5014097,-0.035939142,0.47652206,0.12400814
miRNA_31,-0.0004551746,0.00042704865,0.0075758416,0.0015214384,-0.0044251215,-0.0030903723,0.007682901,-0.005673362,-0.0024397,-0.0049646217,0.0053660553,0.0016340725,0.0015687086,0.007386625,-0.007596491,0.005421968,0.0021612383,-0.002484277,0.0058930553,-0.0032675788,-0.0044186153,0.0016226266,-0.0009837076,0.0008569006,-0.0074347313,-0.0044458117,-0.002726391,0.0011422355,0.0007275827,0.0036341492,0.0060108323,0.0035073888,0.00022472627,0.00091082975,0.0038509928,-0.0056891926,0.004905371,0.0016619861,-0.00030183792,0.006197853,-0.003870014,-0.0034236945,-0.0067491047,-0.0002305638,-0.0022108834,-0.0016314276,-0.0058673155,-0.004939651,-0.00079765916,-0.006696949,-0.004891269,-0.00036681257,0.0052052718,-0.0077660903,0.00733158,0.007063836,-0.0059511364,0.0067252405,-0.0073372778,-0.0039683618,0.00014850684,0.002966188,-0.00061199814,0.0059145316,-0.0021522418,-0.0074651465,0.0027661864,-0.0059385765,-0.0040182564,-0.005707821,-0.0060428493,0.002325898,-0.007526757,0.002704801,0.0060892235,0.0046249647,0.006967321,-5.4504722e-05,-0.0061433055,-0.0012735911,0.0058181975,0.00017817877,-0.0045170467,-0.00025259517,0.0055527426,0.002774708,0.0042281933,0.005932439,-0.0027792882,-0.001271965,-0.006290881,-0.0075485073,-0.0010196399,-0.0076795984,0.0064874664,-0.003133744,-0.006929068,-0.007280862,-0.00552566,0.0011760965,-0.0020841435,-0.0061283633,-0.0075590853,0.0014315508,-0.0013602469,0.006284924,0.0019380562,0.0010104515,-0.0016163494,-0.0034876857,0.0014098193,-0.0003116373,0.0055745263,0.00666184,-0.0011594761,0.0045276154,-0.0057609193,-0.0011151507,0.0063993447,0.006721614,0.0037531592,-0.0013246909,-0.006252041,0.0011478253,0.0020696018,0.005390685,0.0052167214,-0.0019861758
miRNA_32,-0.0011807494,-0.004806686,-0.0026333462,-8.827448e-05,-0.005795529,0.006703006,-0.003776241,0.003818849,-0.0074797273,0.000837354,0.001315901,-0.006464308,0.00482253,0.00088136457,-0.0045474693,-0.002403533,0.0005291011,-0.007232053,0.0071387514,-0.0028654635,-0.0063499566,0.003600454,-0.0019935817,-0.0058082137,9.377487e-05,0.0009894781,-0.0053390414,0.000874104,0.0019013602,-0.0046545174,0.0052935183,0.0023236014,-0.0035464056,0.001291953,-0.0008770749,0.00036912598,-0.0019741803,-0.0012649149,-0.0046185013,-0.005938323,-0.0033556316,0.001575321,0.00025287643,-0.007107755,-0.002967611,0.0031629093,-0.0061720014,0.003931511,-0.0011670496,0.0069004837,0.0066111833,0.00094697066,-0.0003416743,-0.0038778018,0.0034804605,-0.0051819496,0.0022448804,-0.0076431353,-0.0062754173,0.0008173268,-0.0045146253,0.0012588408,-0.0012655389,0.007141972,-0.0041200817,-1.7285347e-05,0.0059201233,0.002881946,-0.0006268956,-0.004495932,0.0053118914,0.0019206218,-0.0054939147,-0.0012573954,-0.004274329,-0.004959196,-0.0045135673,-0.0055861883,-0.006598916,-0.0013519749,0.005730236,0.0043853745,0.0053166393,2.6989728e-05,0.004237799,-0.0069916584,-0.0018778741,-0.0032313503,-0.0011077635,-0.004584709,0.007174382,0.0017207135,0.0042623933,-0.0026631113,0.004620768,0.0030583106,-0.0025861543,-0.003667755,0.0073548444,-0.0041461587,-0.0073313024,-0.0074349754,-0.007746784,0.0041168705,-0.005640829,0.005470477,0.00078324974,-0.0029365085,-0.0009144172,-0.002597982,0.0065431893,0.0045815483,0.0007574875,-0.006183991,-0.0033833291,0.0014599431,0.004945889,-0.0006737597,-0.001989998,0.0012973715,-0.0029437263,-0.006363079,-0.00038434565,-0.002942197,0.0018685777,0.0044402312,0.0075723287,-0.0024722833
miRNA_33,-0.004936384,0.005308466,0.000763217,-0.0074978042,-0.007358251,0.0043954626,0.0030772332,0.0013234522,0.006225407,-0.00045531988,0.007693894,-0.0071785394,0.0027756207,0.004563637,0.006546978,-0.005452862,0.0023261197,-0.0023976415,-0.00044123828,0.0041456223,0.004698258,0.0071292277,-0.005319657,-0.004587358,0.0010117386,0.0018311758,0.0004033465,-0.0020473897,0.0026043802,0.000951143,0.0058112536,0.004609961,-0.0066800807,-0.0047474205,0.0047981143,-0.00631018,-0.003333021,0.0050547197,-0.003603315,0.0008638259,-0.005558636,-0.0077029094,0.0031090416,-0.0033975337,0.0045291595,0.0062950924,-0.0011711549,-0.0018748399,0.007311836,0.0026173666,0.0048122443,-0.0074083824,0.007162489,0.001893172,-0.0077292807,0.0071065277,-0.0030038022,-0.004421329,-0.004381161,0.0016137753,0.0071478896,0.004180394,0.005904669,0.003588166,-0.0039056484,-0.0038860068,-0.006903846,-0.0024685469,0.0032225866,0.0020151641,-0.0027485304,-0.0016401913,-0.0039989445,-0.004670836,0.0020576362,-0.00506003,0.0007055905,-0.006452786,0.00023643114,-0.005379904,-0.0056490507,-0.0026063882,0.0010799132,0.0074693672,-0.0038421266,0.0043383613,-0.0021780208,-0.006383607,0.00092383847,0.0051015113,0.0077497307,0.0015246607,0.0009893607,0.0004825052,-0.0035330243,0.0024341643,-0.002193762,0.0035784245,-0.0011450462,-0.003895009,-0.0015410706,-0.0005124714,-0.0058863703,-0.0053229723,-0.0022918917,0.0021294188,-0.002474144,0.0022031665,0.005790256,0.0020510014,-0.0061421096,0.0075462274,-0.00011365302,-0.0067609325,0.0005259663,0.005080253,-0.0008582007,-0.0064917337,0.00492388,-0.0020024385,-0.002582522,0.0026332159,-0.0034466907,0.006088728,0.005353799,-0.0068526566,-0.001867542,0.0049852636
miRNA_34,0.2451435,-0.10575465,-0.30836365,0.21728098,-0.082323305,0.008663498,0.28707728,-0.30239233,-0.11749596,-0.2164057,0.14765708,0.5796766,-0.09734726,0.11820465,-0.25602987,0.43605745,0.13649023,0.08240032,0.07847914,0.12624532,-0.16190608,0.21954021,-0.42194942,-0.12005261,-0.035305522,-0.7153105,-0.36395854,-0.36372828,0.15905836,-0.31881487,0.05989647,0.11676147,0.02210829,0.10595006,-0.52607834,-0.21398613,0.3895983,0.43530238,0.38436887,0.28847283,0.57031953,0.3167203,0.14609295,0.19871536,0.15728232,-0.054849606,0.14051887,-0.21585532,0.050018493,0.04884312,0.13386416,-0.063517496,0.12691134,-0.3873974,-0.23787375,0.02775705,-0.39810678,0.09712547,0.14316982,0.29382643,-0.05814483,0.2745408,-0.14395806,-0.18102294,-0.17673345,-0.09932592,0.07132799,0.18580335,-0.16697055,0.06343547,0.7120901,-0.38307202,-0.10275854,-0.3993053,0.23302639,0.22469185,0.16331987,-0.17331406,-0.1547128,-0.47872308,-0.12470448,0.02826467,-0.20107351,0.39767757,0.038762916,-0.19416744,-0.19933054,-0.27490637,0.34435344,-0.29702458,-0.28335267,0.2019294,-0.2627747,-0.07563205,0.043681026,-0.14066096,-0.24521196,-0.2865357,0.18824027,-0.06521405,-0.39410695,0.63272196,-0.09807737,-0.047586203,-0.35866123,0.37006626,0.13906759,0.028698478,-0.5086031,0.47223425,-0.06282184,-0.09011394,0.21417494,0.3031936,0.29690582,-0.07548008,-0.4505461,0.32608134,-0.072252624,0.37345225,-0.15735795,0.35258588,-0.27127814,-0.068710335,-0.19863987,-0.09792288,-0.08260447,0.008876392
miRNA_35,0.2775496,-0.2453862,-0.30354196,-0.15603146,-0.6593585,0.07450934,0.32165214,-0.27008033,0.16695216,0.06616046,0.32991078,0.2698623,0.32544178,-0.20436545,-0.0028470005,0.20546915,0.13991398,-0.13310823,0.053496636,0.15682526,0.032710392,0.17780288,-0.39748663,-0.5104445,0.13333641,-0.3360917,0.3238971,0.09627406,0.10064943,0.4152923,0.007142382,-0.07038451,-0.2647888,0.062318403,-0.04603347,-0.44620118,0.37815988,0.1450784,0.42148972,0.069452114,0.39523298,-0.034738015,0.21327908,0.3289546,-0.50440663,0.07418259,0.32458487,-0.49786285,0.1548686,0.18287559,0.026471272,0.23601982,0.084968604,0.051218815,0.079816714,0.26084188,-0.18590079,-0.15581775,-0.054913618,0.2929059,0.13052583,0.664206,-0.26349744,-0.2384303,-0.38363642,-0.27429444,-0.060893737,-0.23226087,0.37125608,-0.35887772,0.31517223,-0.16462128,0.22533406,-0.18294528,-0.035178125,0.27306357,0.10174984,0.022842567,-0.2576509,-0.061694846,-0.1624605,0.051551487,-0.115707815,0.6218119,-0.12500535,-0.17014438,0.25124842,-0.47499213,0.05132758,-0.29521292,0.14579634,-0.20520675,-0.15368427,-0.07504971,0.23707691,0.035640255,-0.24857843,-0.2539622,0.45907167,-0.21784693,-0.17684336,0.11047602,-0.21825792,-0.15639213,-0.1900112,0.31592062,0.012603749,0.119815014,-0.580822,0.3892609,-0.010316554,-0.07454852,-0.07078851,0.43223432,-0.24303079,-0.3472131,0.1955014,0.32307953,0.078058176,0.1477137,-0.046718393,0.47799298,-0.020022277,-0.06933003,-0.009265419,0.23615117,0.050625157,0.23910795
miRNA_36,-0.11931173,-0.08486714,-0.14632009,-0.18459775,0.101700135,0.0023513315,-0.0041526575,-0.35439003,0.014241135,-0.22997892,0.3395224,0.28828597,-0.31706452,-0.07668249,-0.03274342,-0.051843535,0.16242063,0.03720809,-0.14586523,0.15609026,-0.24606152,0.27895907,0.09566918,0.20952246,-0.006055868,-0.21265121,-0.4019289,0.50057346,-0.11730734,-0.15021421,0.47659594,0.6216806,0.41285276,-0.20097803,-0.2590191,-0.072502285,0.63886774,-0.13198584,0.04370668,0.17567198,0.012899508,-0.059740853,-0.311811,-0.041419443,0.038979206,-0.21764016,-0.4615816,-0.09932536,0.022586426,-0.229424,0.12041199,0.62259746,-0.12998116,0.034926597,-0.06553047,0.22765242,0.23548758,0.34981653,0.031029059,0.105669424,-0.034457095,0.22813681,0.31709298,-0.30053923,0.36774668,0.32434246,-0.10570258,-0.32465518,0.2940588,-0.054178365,0.33646658,0.04690422,-0.4866606,0.11538595,-0.04196987,-0.018806739,-0.055394173,0.13660537,0.26301026,-0.16549268,-0.28945965,0.004376659,-0.05074479,0.39554024,-0.41047478,0.23422773,0.019247092,-0.38002977,0.015228814,-0.14532617,0.5580152,0.17053413,-0.42405054,-0.27115592,0.11919157,0.14528282,0.0052112946,0.38021392,-0.23681264,-0.12017615,-0.32794887,0.5535243,-0.28917676,-0.066460855,0.14341712,0.14309524,0.282694,-0.24552996,-0.3761296,0.6771798,0.13724601,-0.27061376,-0.31048524,0.1290591,0.059830777,-0.27789447,0.31951606,0.018742323,-0.4409289,-0.13938324,-0.26933837,0.59178936,-0.12287988,-0.34866366,-0.28694254,0.28003657,0.360856,-0.12533547
miRNA_37,-0.009862734,-0.6170801,-0.4379194,0.18556704,0.3168501,0.19795157,0.15496199,-0.06970515,0.18369864,-0.3465498,0.14134574,-0.33000937,0.11249792,0.3265418,0.50016886,0.1667206,-0.1806725,-0.20218988,0.5450043,0.1575657,0.4546567,0.22219557,-0.6002847,0.6379487,0.1202755,-0.045136493,-0.40620083,-0.14399426,0.038566567,-0.39731073,-0.13040693,0.26451245,0.16076216,0.06558675,-0.27892718,-0.45943502,-0.19190921,0.22851579,-0.47032055,0.15752494,0.34183866,0.039493784,0.035817806,0.027172469,0.22050346,-0.3239096,-0.32997814,-0.24370287,-0.4141816,0.4865827,0.17145991,0.25533113,-0.13424245,-0.2775176,-0.1440369,-0.25854903,-0.09002132,-0.35071415,-0.27197984,-0.2274796,-0.034819648,-0.27418154,0.077948906,-0.193963,-0.53051805,-0.22902288,0.24552609,0.24929874,-0.6679045,-0.077193014,0.40069053,-0.0140882535,-0.25662345,-0.1975545,0.08110079,0.3363762,0.5635864,-0.254753,0.36596048,0.15890881,-0.93162936,0.19260341,-0.124525525,0.30024537,-0.44022182,-0.41089475,0.21341452,-0.72065634,0.50701237,0.07587186,-0.72702336,-0.39303097,-0.4341854,-0.2454227,0.004164817,-0.15457638,0.019892521,-0.20470445,0.24865106,-0.3688521,-0.3058196,-0.29458857,-0.40144116,0.21402888,0.079298325,0.21939793,0.022296583,-0.007981164,-0.035441376,-0.059777044,-0.04923423,-0.08993173,-0.5362987,0.45394406,-0.25311813,-0.030445846,0.4014243,0.02163647,-0.3114322,-0.16069719,-0.4343544,0.013048247,0.16158451,-0.16101031,0.029747684,0.8396035,0.1263472,0.112879395
miRNA_38,0.08053482,-0.19177145,-0.21432136,-0.12802428,0.27945998,-0.345315,-0.107536905,-0.6425579,0.3300234,0.048821382,-0.10340912,0.16037059,0.06611795,-0.49533007,0.09732098,0.3126856,0.056652322,0.001465335,0.1082052,-0.29685745,0.4004467,0.5524571,-0.32540733,0.3773994,-0.35529348,0.07266953,-0.27452517,0.02347002,-0.46159664,-0.069722146,0.12837552,-0.16613251,0.40396887,0.009854282,0.16051412,-0.13710451,-0.12526205,-0.09060648,0.24983442,-0.08908237,0.0047077793,0.023000028,-0.10693467,-0.21879865,0.48770723,-0.12940599,-0.19442771,-0.42367625,0.004899465,0.4458269,0.066741094,0.73961455,-0.0033030869,-0.0529582,0.024984004,-0.326902,-0.10079731,0.09635379,-0.075547345,0.12058765,0.4576004,-0.073472925,-0.16523734,0.55852604,-0.20437516,-0.13017343,-0.10620685,-0.09169763,0.014314716,-0.7169081,-0.41166896,-0.14563863,0.057783443,-0.4367945,0.09960944,0.1393656,0.25002298,-0.6059775,0.2701913,-0.31370804,-0.30331728,-0.2591326,-0.22171856,0.16887939,0.098339245,0.0011806145,0.06456834,-0.5497549,0.083312795,-0.42235455,0.0008408725,0.24001049,-0.19873326,0.025376426,0.13711217,-0.0013503459,-0.02996769,-0.57879955,0.014335098,-0.28762376,-0.3674459,0.38788968,-0.057206735,0.06858958,-0.070177935,0.2175129,-0.036572974,0.010869716,0.11701266,-0.341091,-0.10544503,0.16851662,0.21225353,-0.23991959,-0.043268334,-0.21656948,0.53377056,-0.06836611,-0.5018684,-0.45408174,-0.2101013,0.053720113,0.33680287,-0.35407805,0.21150915,0.7518889,0.35320485,-0.5653144
miRNA_39,0.0035691243,0.005446106,0.0056284796,-0.0054652058,-0.005528204,-0.0049399566,0.0045951307,-0.0038238037,-0.004667744,-0.0038991775,-0.0057843067,-0.007096505,-0.003559759,-0.0031138156,0.0047536306,-0.0038645063,-0.0062056985,0.005699346,-0.005956499,-0.0014045443,0.002558848,-0.0061991718,-0.0032524914,-0.0012275986,0.00066513196,0.0016669389,-0.00059363805,-0.0024985988,0.006514175,-0.0010556001,0.0037771892,-0.0055218507,0.0026610866,0.0057307724,0.0067270175,-0.0069029555,0.0032744762,0.0063994825,-0.007554209,0.002341697,-0.0061939266,0.0057945177,0.0019465201,0.00037021935,0.0032333452,0.0038652364,0.0061817747,1.4683232e-05,-0.0032818671,0.0042334124,-0.0070363116,0.0057319384,0.0048930105,-0.0032105744,0.006524464,-0.0065071937,-0.0043330174,0.006408507,-0.004430065,-0.0038910527,0.0036672577,0.0073096678,0.0025297273,-0.0035271533,0.004073115,0.0057981387,0.0022471398,0.0023565888,-0.0043813977,-0.00035536475,0.0025157835,-0.0020320471,-0.0026902277,-0.00046852604,-0.0041953214,0.0047326647,-0.00054892525,0.0071849525,-0.005674269,0.002204802,0.007282775,-0.00394509,0.003854556,-0.00044340082,-0.007106105,0.00022061355,0.006435573,0.0034993235,-0.00088712387,-0.0029579755,-0.0011315607,0.005116502,0.0037067737,-0.00040167756,-0.003903184,0.0007827189,0.007599028,-0.005588915,-0.0068196934,0.0058792196,0.006634077,-0.0062029604,0.0039409045,0.0063137803,0.005709106,-0.0024984963,0.0012630969,0.004266221,-0.0008319095,-0.002470646,-0.0069611575,9.1630965e-05,-0.005084688,0.0054186992,-0.0016712751,-0.007244721,-0.0046007726,0.007528413,-0.001139367,0.006889319,0.0019285772,0.00042525493,0.0033838842,0.005050266,3.775768e-05,-0.0021463092,0.0034469347,-0.0055807773
miRNA_40,-0.79354715,-0.032735463,-0.28761178,-0.64407545,-0.7223546,-0.20682143,0.6931695,-0.08215745,-0.3650169,0.007975034,0.23722932,-0.1146914,-0.2616022,-0.032523893,0.3056667,0.03595208,-0.04401802,-0.104984194,0.22967102,-0.22323893,0.87584555,0.23642746,-0.25770026,0.5197956,0.72728115,-0.85923076,-0.7251916,-0.80127704,0.58898014,-0.018764049,-0.017485246,-0.21158567,0.88850015,0.34123448,0.05896813,-0.3723671,0.49020424,0.16267145,0.1842756,-0.15622725,1.0997466,0.14554663,-0.15881307,-0.7575714,-0.10892759,0.19195065,-0.04444279,-0.07506925,0.95542675,0.10115698,-0.13281992,0.22079895,0.5028273,-0.53986484,-0.07788816,0.4334416,-0.19619064,-0.3737912,-0.45161927,0.16294193,0.2961122,0.29702032,0.12920938,-0.49236578,0.053828336,-0.38400814,0.21056455,0.37213767,-0.29289332,0.2722046,0.27305225,0.03590378,-0.26156226,-0.24251632,0.58953816,0.081425905,0.001149802,0.02482793,0.018886557,-0.36168742,-0.3327389,-0.0008105295,0.15631174,0.3984835,0.14258946,0.05671281,0.21019663,-0.053655077,-0.0058551813,0.19566153,0.60700166,-1.069271,-0.47493583,0.09568983,0.6568576,0.5005253,-0.6149996,-0.09433095,0.14218886,-0.29823273,0.06437914,0.63646567,0.14785227,-0.03506823,-0.07746554,0.15824431,0.013841767,-0.11494722,-0.060515318,-0.027564835,-0.1698097,0.032093007,-0.3686936,-0.99692005,0.6167975,-0.65277743,-0.10421545,0.097368784,-0.036407623,-0.5220036,-0.8710702,0.2888998,-0.47044346,-0.18505609,0.19453587,0.37926507,0.5628863,-0.22244747
miRNA_41,0.0010568425,-0.0011148807,0.007001832,-0.002626665,-0.00559121,0.0044193603,-0.005466191,0.003949646,0.0006266311,-0.0020895004,0.0042455364,0.0063983425,-0.005231967,0.007645875,0.0029637031,-0.0076565426,0.000843063,-0.0075435042,0.0019512717,-0.006191913,-0.004949415,-0.003597645,0.0074891727,0.00085479766,-0.000774974,-0.0040953103,-0.0007378049,-0.00630296,-0.0076122433,-0.00022256002,-0.004474951,-0.0076892823,-0.0061542876,-0.0056260657,0.0040475447,0.003914267,-0.00025511533,-0.006116977,0.005465742,0.006528968,0.003374556,-0.001175493,0.005946934,-0.0053986274,0.006962599,-0.0061686486,0.007046789,-0.0053384565,0.0060212836,0.007624913,0.0034438632,-0.002667699,0.0041465834,-0.004057642,0.00016149133,0.00050209835,0.007498499,0.0036310814,0.006658014,-0.0026982091,-0.00065799616,-0.0004599858,-0.003977677,-0.0075384434,-0.0003382396,0.0041817706,0.0059395935,-0.003079798,0.0016569942,0.007689828,-0.0059315544,0.005048888,-0.0011578687,-0.006336758,0.0047746897,-0.0060754493,-0.0014480092,-0.0070801936,-0.003980793,-0.0054551847,0.006370837,-0.0028372537,-0.007151397,-0.0059231427,0.0043332893,0.0026494842,0.0064680576,0.0032487027,-0.0028136838,0.006131923,0.0047740657,-0.0021878574,-0.0023528412,-0.0065290816,0.003172148,0.0021130256,0.0016413704,0.007548906,-0.005037291,-0.005416911,0.00059708394,-0.004845949,-0.003964329,0.003590595,-0.0019184742,0.0027811062,0.004763555,-0.0019163918,0.0073773805,0.0078066904,-0.0064269025,-0.0035990775,0.0001264289,0.0049951207,0.0017002933,0.0006780103,-0.0068822633,0.0060078334,-0.003118977,-0.0032679886,0.0064742696,-0.006009834,0.0068430547,-0.0017995518,-0.006721804,0.00017036498,-0.003711192,-0.0033739768
miRNA_42,-0.5128618,-0.14861591,-0.5781615,0.50929785,-0.71182853,-0.3054543,0.6166763,-1.1677375,0.3957661,0.16904515,0.586783,-0.29160038,0.4398873,-0.061764102,0.051617645,-0.45474643,0.5927176,0.16263582,-0.4824399,0.4457041,-0.044494744,0.40222734,-0.87008744,0.066035315,0.3944489,-0.2869277,-0.23961806,0.53452396,0.051596023,-0.13880895,-0.45748216,0.4727445,-0.69805795,-0.7395262,0.17165354,-0.45610857,-0.18507664,0.12021955,0.36332515,-0.14223987,0.40944082,0.38880417,-0.3507108,-0.49233207,-0.01887217,0.0915887,0.10272456,-0.68512315,0.5146963,0.40620223,0.3874033,0.13805729,0.07313891,0.13135304,-0.24883933,0.42304957,0.02094595,0.21952789,-0.17633305,0.5244455,-0.2269188,0.327277,0.5724243,-0.08905393,-0.43505195,-0.9014535,-0.39360148,-0.058189027,0.43527353,-0.342058,0.23865645,-0.27636698,0.07609846,-0.12355496,-0.2865923,-0.41542852,0.48162228,-0.24297377,-0.2857026,-0.31812084,-0.34493303,-0.32726213,-0.04877388,0.29323918,0.043245837,0.0012849764,1.1130615,-0.19647016,-0.0027210168,-0.6111436,0.29564485,-0.40216494,-0.67064637,-0.12638156,0.46113798,0.06748129,0.11757331,-0.10582921,-0.078917995,-0.5795915,-0.5987108,0.23372053,0.6915413,-0.07506826,-0.6017367,0.43585902,-0.20969434,-0.118086785,-0.50630903,0.16328697,0.20357852,-0.25630546,0.59504735,-0.17288168,-0.57351136,-0.381445,0.30546626,-0.10392865,-0.14481607,0.31449166,0.09187367,0.38464567,0.2510528,-0.101684175,0.16195904,0.12714016,0.053255998,-0.115724325
miRNA_43,0.2401782,-0.18732275,-0.002334938,-0.23137411,0.19198005,-0.011160022,-0.1078624,0.010014453,0.34924456,-0.1719536,0.080100246,0.3437464,0.15039837,0.31905276,0.17790256,0.3776356,0.10536248,0.3042872,-0.45027202,-0.21472068,0.2395077,-0.0124949375,-0.04418825,-0.24629456,0.35451427,0.014278342,-0.24634087,-0.18415348,0.66785395,-0.61425245,-0.23980135,-0.0027306818,0.13067575,1.2173359,0.12591226,0.08546071,0.45351923,0.4450131,0.54934055,-0.40774179,0.31228986,-0.22259252,0.12989156,-0.47848767,0.027467906,0.03541794,0.097330995,-0.21159714,0.25999674,-0.5631387,0.02016185,0.31835893,0.45852774,0.5232771,-0.52720505,-0.031405542,-0.082882226,-0.1498285,0.30970252,0.021598648,0.30370545,-0.28196368,0.115280636,-0.09327057,0.0038930785,-0.4815644,0.32755396,0.2562894,0.26719067,-0.26656562,0.2432126,-0.03499692,0.25861797,-0.5276996,0.10058177,0.08618441,0.009883042,-0.07041087,-0.50907826,0.031533126,0.49820474,0.17515749,0.5577849,0.35218406,-0.012467558,-0.4817097,-0.15381254,0.4785491,-0.32699397,0.1578676,0.22914316,0.062441647,-0.55275047,-0.058103494,-0.18980062,0.06662757,0.3121993,-0.90044177,0.600506,-0.090584,-0.5394429,0.23027687,0.037500653,0.2975941,0.35635063,0.51334786,-0.30410597,0.03417856,0.21294715,0.23420078,-0.3121054,-0.3936496,-0.053884488,0.16604778,0.026486482,-0.20147672,0.044527233,0.15176034,-0.08125337,0.11787535,-0.6699271,1.1359799,-0.41829988,-0.47550794,-0.54585934,-0.3334345,0.13294138,0.0628597
miRNA_44,-0.42289338,-0.51890975,0.5298863,0.07656147,-0.0016568559,-1.016037,0.14632578,0.40448567,1.0415772,0.04479177,0.42396092,0.13390486,0.22751763,0.7682636,0.25951907,0.1899407,0.525702,0.29096726,-0.34611958,0.26872477,-0.24674809,0.19056214,-0.7668247,0.2905603,0.17639463,-0.24855238,0.23023835,0.3534093,-0.39385167,-0.067142084,-0.120302275,0.0094651,-0.48016283,0.045255005,-0.2524249,0.5002831,0.05858456,-0.16701044,0.30284554,-0.08019169,-0.08842789,0.107171535,0.12759699,-0.21674229,-0.6633681,-0.3046591,0.17555071,-0.42310065,0.10810151,0.22250201,-0.31733912,0.14617753,0.29496777,-0.10759819,-0.26501852,0.28174716,-0.40751857,-0.5048166,-0.2543592,0.35965937,0.6915159,0.19405682,0.16336697,0.17828473,-0.49197042,0.27458924,0.62684894,-0.24705346,-0.17050986,0.10759866,0.25932932,0.52304584,0.10437418,-0.6571068,0.67574507,0.7140869,0.036982898,-0.18087849,0.062049802,0.0609642,0.38449073,0.14451763,-0.30236033,0.20256145,-0.4012192,-1.233702,0.58318055,0.09270574,0.19024913,0.35041013,-0.63524187,-0.03014757,-0.23953961,0.5899967,0.013282403,0.18523067,0.8041976,-0.041137826,-0.6039825,-0.10040697,-0.6150146,0.037516978,0.30392554,-0.012277139,-0.4041544,0.6997913,-0.06790507,-0.29477894,-0.68137807,0.95693505,-0.6809181,-0.6011855,0.4391757,-0.25921193,0.5362087,-0.44487512,-0.40561864,0.2954612,-0.6649746,-0.64054817,0.48035973,0.42267606,-0.15867531,-0.4664163,0.49580538,0.27588886,0.12427115,-1.0887488
miRNA_45,0.005025184,-0.0056170076,0.0076656174,-0.0044452026,-0.002685964,-0.0014952291,0.006383488,0.0048831347,0.0034264158,0.003623344,-0.007480208,0.004431434,-0.0037406348,0.0057876967,0.00077644736,-0.0035543423,0.007316487,-0.005943518,0.00079070963,-0.0014845636,-0.0031014923,0.0045421086,0.00049581006,0.0074629914,0.0068464447,0.0044731777,-0.00084461644,-0.0010052193,-0.0015761089,0.0041280724,-0.006637167,0.007332893,-0.0049034953,2.3739412e-05,0.00075846165,0.0046825353,0.00050589256,0.005399877,0.005939845,0.0069956984,0.001427494,0.007723909,0.004448604,0.0064203925,0.002711732,0.0022566877,0.0070182253,-0.0019680485,-0.0059504937,-0.000336878,0.0076767653,-0.005392516,0.0048660003,-0.0026760753,0.006838899,-0.007284032,-0.0028152093,-0.0039504804,0.0050056875,-0.0059250537,-0.0062890425,0.00465443,0.006847527,0.0045034885,0.004497925,0.002127871,0.00035550445,-0.0015868787,-0.005192848,-0.006991558,-0.0026284363,0.005007889,0.0002509039,0.0008372441,-0.0017334316,0.0027672946,0.002296066,-0.00077627786,0.0067899264,0.006019607,0.001962049,0.005033072,-0.002413245,0.0016223397,-0.006535031,0.0077057835,0.0005309228,-0.001719119,0.0010179766,0.0003509,0.0018292181,-0.0036564358,-0.004267335,-0.0049834885,-0.007045001,0.0072561037,-0.004547231,0.0051814467,0.0036878195,0.0005985573,0.0030313618,0.0055860896,0.0037974361,0.0028104465,-0.00037106127,-0.0069911834,0.0065024663,0.007116718,0.0048415605,0.002380658,0.0002957955,-0.006965002,-0.0020052213,-0.0035340562,0.006275542,0.00022500195,-0.0010976363,-0.0021201763,-0.0021973625,-6.8673864e-05,-0.00019389577,0.0017334912,0.0033737551,-0.0054321624,0.003091704,0.0026262887,-0.0036548972,0.007315671
miRNA_46,0.0066257846,-0.0029918868,-0.0008935109,-0.004255252,-0.0012752805,-0.002623964,-0.0034665726,-0.00324147,-0.004410209,0.0033919998,0.0057142433,-0.0031274352,0.004906036,0.0022936352,-0.0013498403,0.0057428237,0.0021207817,0.0042633507,-0.004105039,-0.003610013,0.0060981084,0.0005120728,0.0011244956,-0.0049227476,0.0014194101,0.002949994,0.0073910933,-0.0032025613,0.0018749926,-0.0004397165,-0.0051082056,0.004629761,-0.0076377653,-0.00342248,0.007096043,-0.0008542128,0.000637833,-0.00081339665,-0.0066622235,-0.0059581026,-0.00062681735,-0.0012452547,0.0005561281,-0.0024054404,-0.0045806635,-2.8753653e-05,0.0032637492,0.0024524704,-0.0035779476,-0.0054556057,-0.00037677214,0.0070518404,-0.0052652005,-0.006348841,-0.0027409066,0.0022105426,0.0014012977,-0.0039207917,0.0016682018,-0.0025456715,-0.004692223,-0.0034686439,0.0077461153,0.0054529402,0.00278797,0.002112044,0.0012857895,0.00280964,0.0054224543,-0.005426705,0.00060875155,-0.0004743915,0.005539462,-0.0012196135,0.0008445233,0.0004040394,0.0032183025,0.0019934718,-0.0035788193,-0.0011542514,0.0067112427,0.007175913,0.0018486772,-0.0019863416,0.002945751,0.0048305765,0.0041939653,0.0031037387,0.007258933,-0.007147994,0.0019618273,0.0025124848,0.003498165,-0.0038841646,0.0011176895,-0.0038209632,-0.0011708885,-0.00079608336,-0.0063635446,-0.00092762895,0.0077659786,-0.0013021026,0.0037629344,0.005536955,-0.0077282675,-0.0074172225,-0.0042335894,-0.003807962,-0.004887525,-0.00034115836,0.0014153868,0.0048722066,-0.006055994,0.0072310027,-0.0010031257,-0.0026251692,0.006021099,0.00051585585,-0.0015491545,-0.00070645474,0.006304076,-0.006953016,0.00674049,0.000609437,0.002031153,0.0013982151,0.0057106633,0.0022942144
miRNA_47,-0.0037217475,0.0048430283,-0.0044995937,0.0059136786,-0.002746638,0.0046691597,0.0028729178,0.0022554975,-0.0031666178,-0.0029936172,0.0042078774,0.0040605403,0.0052993484,-0.0020375755,-0.007520888,0.005244514,0.0024290811,0.007012125,0.0028987397,-0.0017022658,-0.0012062546,0.0014211144,-0.00015800633,0.006255245,-1.739338e-05,-0.006867055,-0.00499684,0.0043525584,0.0022818707,-0.0056301057,0.0023491103,-0.0013356674,-0.005835224,0.0015117787,-0.006097747,-0.0012422521,0.00459899,0.006319739,0.0015124232,-0.0030129962,0.0005344264,0.00687881,-0.005603064,-0.0036766548,-0.0016246699,-0.0045164954,0.0038787127,-0.00397026,-0.0032529235,0.0053034555,-0.0019117054,0.0008107349,-0.0071868654,0.004293237,0.0022483114,-0.0018017627,-0.0035125632,-0.0022651702,-0.0008390937,-0.0048434325,-0.0077392943,0.004814049,-0.0068181306,0.0024735034,-0.0012100115,0.0026782583,0.0029685013,0.00612526,0.0055959,0.004068723,-0.0033007488,-0.0022729784,-0.0027042814,0.0036686454,-0.0049340446,-0.0031272937,-0.0069122035,0.0007200297,-0.004705351,0.005911909,-0.0020676702,-0.00645438,0.003254177,0.0017421916,0.0058649015,-0.0012946073,0.0005432181,-0.00072070584,0.0057181492,-0.0043127164,0.0019849464,-0.0033580977,-0.005584387,0.0075657703,-0.005042348,0.00056429394,-0.0070219524,0.006051665,0.004122151,0.007458659,0.006450217,0.0024327785,0.0027986616,-0.005791262,-0.0056062024,0.0051011443,-0.004077824,-0.0005991347,0.002007125,0.002813127,0.003695989,0.0014804937,0.0028247572,0.0016980935,0.0036008488,-0.0040340237,-0.006911097,0.003871264,0.0011981204,-0.004425872,0.007599678,0.0022017527,0.003777327,-0.0014719944,-0.0025953986,-0.0026740823,-0.005706547,-0.00024467334
miRNA_48,0.007682426,0.00746274,-0.004204374,0.00019188598,0.0019120425,-0.0036143623,0.0071353316,-0.006826641,0.0015532002,-0.007457571,-0.002144644,-0.0027372949,-0.00056295283,0.0041950867,0.0054898206,-0.001256654,-0.0017445255,0.0043038037,0.00699123,0.00059634633,0.003174644,-0.0046121366,-0.0021649078,0.0012037996,-0.007528316,0.0018606689,-0.0054618176,-0.0019100942,-0.0024092756,-0.0036832448,0.0060533974,0.00016023964,0.00094286725,-0.0064446293,-0.0034641717,0.0014394671,-0.003468806,0.0077014435,0.0068433397,-0.0043147113,0.0023489092,-0.006317934,-0.0067664366,0.0048162807,-0.0032697003,-0.006727075,-0.0030989945,0.0064414144,-0.0025264584,0.0060561765,-0.0061046164,0.005540883,-0.0053097475,-0.0072287917,0.003200667,-0.0026683975,0.005813606,-0.00026272796,-0.0040043797,0.0024360828,0.005681539,0.004894577,0.0061574634,-0.0069209393,0.0016302001,0.00032420084,-0.004483495,0.0029160045,-0.0076925866,0.0027340278,0.0024157371,-0.003720669,-0.00061774254,0.00061257,-0.0040975884,0.005223252,-0.004299417,0.0047714394,0.0060037095,-0.0066627543,-0.0034461487,-0.006578395,0.0026956033,0.006800495,0.00570219,0.0015373025,0.004953647,-0.006491579,0.001455104,0.0030052513,-0.0020976663,-0.004894117,0.0009790454,-0.0036694873,-0.0018023271,0.00554391,-0.00018051639,0.0066513456,-0.0063307993,-0.0024067685,-0.007047871,0.001693096,0.0077449065,-0.0066434816,-0.007589383,0.007045297,0.0041655786,-0.0021204036,0.003589481,-0.005112959,0.004070509,0.00013981387,0.0073169693,0.0041834414,-0.00466433,0.004308656,0.0031343196,0.0009610001,-0.00019492395,-0.007518731,0.002203269,-0.0073978547,0.0024950467,-0.0036533475,0.0011789482,0.004074486,-0.0005020611,0.00034298562
miRNA_49,-0.26521143,-0.7316225,0.9006553,0.14710514,0.42077497,-0.05234324,0.1255375,-0.024395838,0.4851829,-0.11636975,0.46411,-0.7846984,0.05464926,-0.09296839,0.51504266,0.49642417,-0.14632882,-0.19112577,1.0978363,0.129369,-0.6084738,-0.27372107,-0.23333089,0.46331605,0.7477402,-0.38682967,-0.17077658,-0.6621685,0.97844476,-0.6294209,-0.7473407,0.25676078,0.43940204,0.9717197,0.087057084,-0.25612515,0.6632691,0.03255804,0.4414238,-0.41888934,0.16953604,0.28375077,-0.089557916,-0.6554411,-0.22220734,0.02665459,0.35532904,-0.7117927,0.44226515,0.8579663,-0.45749825,0.8621728,-0.20668574,-0.10743025,0.30910897,0.18072738,0.17648748,-0.2912123,0.12133283,0.6066287,0.82683265,0.33043906,0.53422886,-0.68999785,-0.5130809,-0.4179494,-0.23423903,0.35664293,0.48194936,0.87581766,0.4013335,0.6381348,0.42965046,-0.83413476,-0.23122406,0.40584293,0.6556321,-0.9189068,0.3418147,-0.7273584,0.38269857,0.44442815,-0.49032408,-0.1458437,-0.43952736,-0.13108748,0.7721424,-0.13156034,-0.15762854,0.063765906,0.5496349,-0.28565547,0.023964122,0.34010237,-0.5652428,0.176976,0.48182163,0.36663175,-0.6805999,-0.21389656,-0.29278946,0.39020124,0.011483879,-0.047938623,-0.35598677,0.3201235,-0.98551667,0.5519135,0.33468717,0.026517415,-0.11558603,0.06561185,0.27205858,0.06322846,-0.002131654,-0.7315298,1.2101271,0.5044493,0.64183223,-0.044993367,-0.74168944,-0.26431358,-0.24454342,-0.2730967,0.6295079,0.108332165,-0.26055908,-0.3204465
miRNA_50,0.0068696216,-0.0054617524,0.0035445746,0.0025687534,-0.007663531,-0.006459497,-0.006021742,0.006292524,-0.0022670943,-0.0020933095,-0.007606415,0.0039777234,-0.0028582737,-0.0077548493,0.0075327586,0.0015580561,0.00589237,0.007414127,0.0030194316,-0.006634269,0.0034720562,-0.0010550395,0.0019186717,0.0017196946,0.0026893169,-0.0033476334,0.0031084623,0.004665531,0.0038814172,-0.0028528403,0.00754722,0.0018861648,0.001408169,-0.0055869687,-0.0022289064,0.00073571317,-0.0036159195,-0.0027857702,-0.007204855,-0.00091809407,0.0071916506,0.0010474194,-0.0067883227,-0.0023174156,5.914457e-05,-0.0034809876,-2.3344532e-05,0.0013674237,0.00078873895,0.0065703522,-0.0014494527,0.007033555,-0.003976425,0.0029543396,0.0073649976,0.00526233,-0.0006013606,-0.0059074163,0.007228341,-0.006098332,-0.00052103214,-0.002602877,-0.0053886026,0.006728051,-0.0069160275,-0.0028486867,-0.005046487,0.0007701628,-0.0007960126,0.006888356,-0.003420312,-0.0071390234,-0.0053261295,-0.0015632119,-0.0054394677,-2.0869076e-05,-0.0011143871,0.0032019,0.005307585,0.0008961912,0.0071066543,0.0055066627,-0.0036061816,-0.002786262,0.0053815767,-0.001640873,-0.005954962,-0.003355788,0.005238466,0.0068574958,-0.0049857497,0.0019756034,0.0038179252,-0.00674597,-0.0012698881,0.0061802603,-0.0013541728,0.006019857,-0.0027921256,-0.0051680934,0.0007266067,0.0006854795,-0.0054857805,0.00031131878,0.0070079714,-0.00030522794,0.0026502684,0.006045649,0.0053944755,-0.002509674,0.0025832485,0.0042524673,-0.0028245337,0.0023882426,-0.0057348926,0.0053636525,0.0020696204,0.0036455207,-0.004858976,0.003643142,0.004255526,0.0010931734,0.00043014437,-0.0037616063,0.0053014103,0.007321097,0.0054929946,-0.004914239
miRNA_51,-0.28511524,-0.68578786,0.3719373,-0.427364,-0.022611786,-0.45173275,0.37716186,0.49922368,0.53435516,0.3232391,0.26006168,0.31776717,0.25976056,0.3382232,0.24426492,0.08648534,0.23310542,0.34979913,-0.3415317,-0.23328054,-0.3337036,0.000799682,-0.5453838,-0.13932881,0.7662148,-0.13202535,-0.05625057,0.6734066,-0.009395888,0.009293301,-0.12362133,0.5459874,-0.018317427,-0.05731682,0.1236135,0.06482251,-0.06274094,0.4827914,0.048390556,-0.34098414,-0.031312507,0.65035516,-0.6544788,0.061554752,-0.69188195,0.007710561,0.75495476,-0.28796715,0.41940066,0.3366451,0.09762144,0.046204258,0.4398009,-0.60599244,0.29610988,-0.006005264,-0.3211753,-0.33844852,-0.21535844,0.3519257,0.2485045,-0.117639534,0.4634565,-0.22417213,-0.9068574,0.036666796,0.11152165,-0.723929,0.18622322,-0.09508663,-0.21899766,0.72802824,-0.24584344,-0.1821454,0.57595444,0.054300282,0.009373879,-0.1975242,0.7642386,-0.49044302,0.25086194,-0.4064523,-0.27664933,0.1585426,0.07574102,-1.3961627,0.68149924,-0.1710158,0.27060696,-0.19565333,-0.118472405,0.14642552,-0.5099035,0.63655955,-0.60606503,0.42479545,0.38749993,0.085941926,-0.13214019,-0.16375755,-0.32598144,0.022378715,0.052885875,-0.049821675,0.03931998,0.20051605,-0.28066352,-0.47634342,-0.7714342,0.6038163,-0.6273046,-0.64011323,0.09660365,-0.32225794,0.6883551,-0.7515726,0.015899267,0.011326194,-0.55502933,-0.15313478,0.73559725,0.6117216,-0.19509655,-0.37883082,0.26166615,0.06490477,-0.11544068,-0.6350817
miRNA_52,0.15573545,-0.54318863,-0.33321097,-0.029531661,0.16938198,-0.041155055,0.60214496,-0.3125268,-0.54516447,0.088082574,0.2831892,-0.113938026,-0.13918525,-0.056438383,0.096680954,0.3162056,-0.5887963,0.24865349,-0.56042176,-0.5154003,-0.03779314,0.7780675,-0.20453416,0.2274067,0.25844425,-0.053170327,0.060969863,0.082377754,0.1737835,0.22096965,-0.20947155,-0.19168769,-0.041749045,-0.43873703,0.13103433,-0.23639971,0.01978418,0.3758472,-0.056229528,-0.07618069,-0.2551122,0.077903435,-0.5151377,0.23291421,0.044350687,0.016291352,0.31355932,-0.23832135,0.06589022,0.47898766,-0.0024591452,0.50671333,-0.013034453,0.2640592,-0.16360505,0.007235461,0.6858543,-0.54409397,-0.080062404,-0.35835534,0.9371501,-0.20195578,0.39667943,-0.24772018,-0.045790456,-0.3788665,-0.45206857,0.24205412,-0.28025693,0.41566232,0.58605486,-0.06783888,-0.052805867,-0.5968478,-0.23375311,0.23012537,-0.20563784,0.20431982,0.19660442,-0.21829282,-0.40116012,-0.010035472,-0.122577995,-0.09479465,0.17738041,0.053206977,0.040527288,-0.49082196,0.017983891,0.036456,0.08812975,0.075022824,-0.09430077,-0.17774041,0.017297076,0.031900752,0.4193896,-0.6182278,-0.21591422,0.19745888,0.03178061,-0.24898241,0.24380356,-0.11223138,0.13428707,0.3662029,0.034621358,-0.15994671,0.34977043,0.3167112,0.13552278,-0.23077741,-0.1800346,-0.40796745,0.2432029,-0.033630278,0.2507596,0.24755326,0.06662564,-0.01900698,-0.14841367,0.5819437,0.07195615,0.39080906,0.152197,0.07777443,-0.06671976,0.015825106
miRNA_53,-0.3114503,-0.24203019,-0.1546913,-0.3421849,0.40467465,-0.3431485,0.65935147,-0.32254148,0.27225047,-0.10718682,-0.108949356,0.076832384,-0.20533928,-0.020402217,0.14742658,0.41290078,-0.31447318,-0.7207186,0.16977179,-0.28995135,0.17891961,0.37463978,-0.045293394,-0.38389167,-0.19378863,0.061087172,-0.73498726,-0.71943176,0.30234462,0.4858317,0.20342687,0.5097686,-0.21843326,-0.13761602,-0.49800926,-0.025900021,-0.12708423,-0.12223112,0.39247218,0.47449365,-0.4896652,0.20457996,-0.1857903,-0.3459876,0.42058927,-0.6646801,-0.2979437,0.06118524,-0.15393162,0.53859663,0.46818602,1.0351988,-0.06802288,0.7425581,-0.4666835,0.55738753,0.9445947,-0.29741964,-0.26420638,-0.19152758,0.46278054,0.17474774,-0.18368083,0.14089844,-0.062673226,0.510501,-0.18109053,0.15861705,0.6194611,-0.4094433,0.4086416,-0.42807278,-0.10109454,0.14036043,-0.41951078,0.47479293,0.10913334,-0.19604237,0.044479933,-0.24444774,-0.06170764,0.4536101,-0.014572537,0.07182944,-0.27552226,0.21880469,0.052467372,-0.8968103,0.078117214,0.07634784,-0.6553308,0.25860083,0.016987648,0.022088038,-0.385183,-0.08250358,0.055221576,-0.20063847,0.08509533,0.2505365,0.32346034,0.34941295,0.0009134559,0.34352502,0.47076866,0.82915,-0.15422617,-0.7479481,0.27858028,-0.18370049,-0.12518807,-0.40929192,-0.24438287,-0.2770064,-0.07231662,-0.6341477,0.19588889,0.6273402,-0.6341535,-0.28243178,-0.12539116,0.12863477,0.2592271,0.16825317,0.15074979,0.14728047,0.45673978,0.26065478
miRNA_54,-0.029613463,-0.36240813,0.059614647,0.48593363,0.20768662,-0.36016095,0.12021044,0.38988206,0.33498508,-0.70145965,0.27769384,1.051206,-0.42523238,0.11742535,0.19925477,0.42795286,0.27193227,0.36380717,-0.14498748,0.1856515,0.3377739,0.1386715,-0.34682518,-0.178218,0.80405897,-0.08841251,-0.22349629,0.21736655,-0.07258781,-0.52504855,0.77777064,0.7216107,-0.104510285,-0.47481638,0.2240489,-0.25804687,-0.13474691,0.003980422,-0.011780723,-0.601178,0.62872666,-0.12057034,-0.12869886,-0.78000224,-0.2826457,-0.68003,-0.21048094,-0.23231207,0.061376806,-0.11538651,-0.22070776,-0.06673874,-0.41810992,0.2537407,-0.12732029,0.17883563,-0.27312165,-0.42481378,0.03102982,-0.040779658,0.19672556,-0.41262412,0.45338362,-0.46676272,-0.65797466,0.31716117,0.08744855,0.24568161,0.6986238,0.6245481,-0.39960718,0.39681062,-0.03179319,-0.06729113,-0.37592977,-0.123876706,0.16238344,-0.38722754,-0.26589194,-0.0012766488,-0.6008577,0.04220817,-0.7132066,0.15510799,0.61997855,-0.298478,0.65996313,-0.09597699,-0.09352674,0.3888721,-0.18099023,0.22439371,-0.32931423,-0.4290335,-0.48588556,0.16872934,0.12866266,-0.45333946,0.31209388,0.043385703,0.23723617,0.36528128,0.28755054,-0.17542158,0.21037489,0.098420046,-0.22634436,0.54769534,0.10980229,0.314057,-0.11693157,0.4328201,-0.0327783,-0.114070095,0.035592716,-0.24958064,0.73185,0.27204347,-0.16605607,0.43286735,-0.28805465,0.5422598,0.30603924,-0.46304733,-0.057669673,0.5547911,0.008438741,-0.11406532
miRNA_55,-0.5728916,-0.1277864,0.94370043,-0.4441775,0.38207212,-0.25448945,0.14817737,-0.573248,0.18796697,0.14475693,0.16899446,0.309371,-0.29088622,-0.28268278,-0.10956979,-0.054210056,-0.20333986,-0.03021393,-0.06883536,-0.447494,0.011569164,0.2220086,-0.2356646,0.24879879,0.43225896,0.19984077,-0.4286796,0.05103446,-0.027704809,0.2508109,0.0855635,0.18859668,-0.2955119,-0.2614013,-0.047779463,-0.46838292,0.49332216,0.037987303,0.26024258,-0.3022989,0.47853404,0.3927777,-0.6399012,-0.2408704,0.5533737,-0.32704082,0.051792096,-0.845763,0.17557567,-0.30679214,-0.11882186,0.11404255,0.17156346,0.29735526,0.6241289,-0.49542603,-0.25075322,-0.40614757,0.40633094,0.16107678,0.64047045,-0.28153634,0.4935758,0.27231857,-0.66386545,0.19601707,0.20090196,0.020402286,0.30954385,-0.14438131,0.021529142,-0.21415916,0.48374492,-0.070994794,0.09633607,0.24504815,0.19911432,0.13022579,-0.5094227,0.13347021,-0.26515383,-0.07732513,0.5984999,0.26231313,-0.25835165,0.0073211244,0.4605963,-0.08470437,-0.13018091,0.6604333,-0.26713786,-0.47055632,-0.7284551,-0.43809175,0.1326035,0.26079023,0.11799895,-0.38011488,-0.73839265,0.21256249,-0.22304998,0.74037665,-0.25629386,0.28105223,0.87621945,-0.2815448,-0.41075426,-0.02015162,-0.14668003,0.17456838,0.33347332,-0.14045823,0.30396822,0.21970473,0.036288586,-0.04914836,0.1675259,0.024690557,0.10441018,0.22042829,-0.22924136,0.79450154,-0.029986378,0.19392483,-0.15292151,-0.10094223,-0.76304334,-0.16521488
miRNA_56,-0.0029670056,-0.0069555566,0.0018623527,4.1283667e-05,0.005411733,-0.0004702285,0.001502825,-0.0017479528,-0.001111459,0.005312901,0.004114097,-0.0066585764,0.0062053,-0.0053093005,0.0077822804,-0.0051366575,0.003091978,-6.2942505e-05,-0.0022764467,0.0025511757,-0.0059182867,-0.006849576,0.006726969,-0.0058046747,-0.0050924793,-0.0024279077,-0.002282301,0.003791606,0.005184248,-0.0065649655,-0.007169774,0.003901882,0.006780008,0.0068879314,0.0021612383,0.0038695075,-0.00047039613,-0.007522268,0.0035597105,-0.006041616,0.0040368494,-0.0047961865,-0.003436759,-0.00012233853,-0.0018249061,-0.006243916,-0.00017033331,0.005544668,0.0027730316,0.007743269,0.006283166,-0.0045283753,0.001835268,-0.0033958964,-0.002938537,-0.0053826645,0.0068721734,0.0048520267,0.0069230534,-0.0044819396,-0.0059800204,0.004378192,0.007297719,0.0076948367,0.006814286,0.0011056513,0.0066697802,-0.00040744804,0.00068903714,-0.00023020431,-0.0028999336,-0.0024556164,-0.0016556792,-0.0033460874,0.0021466464,-0.0070831776,0.0061546955,-0.0006464943,-0.00510359,0.0025219508,0.0076618213,0.0048533715,-0.00078831986,0.006825732,-0.0035441183,-0.007514773,0.0029629283,-0.00594797,0.004431894,0.0068778154,-0.0048830397,0.00768888,-0.0037768632,0.0073871817,0.007392762,0.0052937455,0.005131718,0.0015659165,0.001644209,0.007663157,-0.006158244,0.0049933214,0.0058834665,0.0013484824,0.0034203734,-0.0023388732,0.0045114607,0.004340941,0.00380514,0.0010316186,0.004955044,-0.00087704696,0.005943328,-0.0062020756,0.006666938,0.00020002387,0.006157918,0.0023411568,-0.0020089746,-0.0006903894,0.0052459817,-0.0058337543,-0.005477773,0.003561506,-0.007371871,-0.0015132427,-0.0003419239,0.0052072927
miRNA_57,-0.6626844,-0.061792046,-0.7903122,0.16421975,-0.062738776,0.19585764,-0.12349807,-0.6570952,-0.050295983,0.46715704,0.25257638,0.45491737,1.2758127,-0.12416157,0.064711116,-0.58430624,0.019836541,0.23241183,0.05783097,0.26325083,-0.102694765,0.29184657,-1.1844825,0.2074353,0.257774,-0.07668029,-0.10634868,-0.78687346,-0.1596547,-0.7055572,-0.083192796,-0.008643825,0.46457192,0.03049644,-0.082515165,0.18242417,-0.023558997,-0.37135196,0.18593867,-0.28676304,-0.21812034,-0.7969558,-0.73968923,-0.59392077,-0.3783531,0.17079848,0.09650366,-0.93908024,1.2423817,0.22276913,-0.003761345,0.5755249,-0.07780791,0.67038745,0.22849724,-0.13768679,-0.39531866,-0.61926013,0.07395501,0.26796147,0.5312857,-0.35804287,-0.30567157,-0.4273447,0.69061,-0.0359495,0.36051655,0.21210505,0.13270152,-0.1395624,0.44727662,-0.23913184,-0.12717815,-0.46927586,0.2460649,0.30743152,-0.29674488,-0.7254466,-0.019022098,-0.35347414,-0.19237722,-0.16442817,-0.2700769,0.39802903,-0.103931494,0.018511174,0.004008914,-0.68425053,-0.24343488,0.087986946,0.3572914,-0.16111565,0.13832523,-0.555496,0.22327664,-0.49929988,0.20559143,0.17768864,-0.29657096,-0.05155946,-0.17619091,0.18428482,0.083251104,0.37784573,-0.0234471,-0.37165368,-0.097271085,-0.40524662,0.35740665,-0.12910599,0.13239409,-0.22749941,0.04884873,0.23835406,-0.044015165,-0.33579087,0.47698224,-0.15884627,-0.24364935,0.3885595,-0.14760192,0.2028803,0.21716273,-0.32405597,0.29672775,0.11937091,-0.015819462,-0.15962422
miRNA_58,-0.30434093,0.042838156,-0.44926524,-0.7425115,0.17722374,-0.4665943,0.7131231,-1.1274532,0.41200805,0.47966084,-1.2911401,-0.018713532,-0.0003848396,-0.55683494,-0.35915428,-0.05881126,1.9768199,0.31069335,-0.15130551,0.4101018,0.4392984,1.0150039,-1.8814006,1.304375,0.8257236,-1.4245541,-1.4122435,0.20970935,0.15440068,-0.61868125,0.16034418,0.59857285,0.3847396,-0.34102917,-1.021568,-1.1675386,-0.0885153,0.6899582,-0.057602208,-0.07073099,0.82248133,-0.80017185,-0.6375212,-0.9266976,-0.5071189,-0.020036686,1.9339494,-1.0271745,1.7949796,0.09783395,0.8586938,1.6066155,-0.48210347,-0.65678984,-0.3463252,1.0164669,-0.063801125,-0.7785264,-0.5714783,1.1768639,2.1440225,0.447687,-0.35292706,-1.4433563,-0.7863071,-1.3925006,0.2807316,-0.6917458,-0.03850663,-0.4765058,1.1824923,0.49600536,0.37230185,-1.3306264,0.75576794,1.1108009,0.26367807,-0.5223433,0.045316663,-0.61340004,-0.12770253,-0.010563308,1.5842475,-0.30702868,-0.5568693,-0.32851008,0.19052303,-0.17703544,-0.7922464,-0.3662738,0.13610397,0.47319943,-0.69937754,0.5535898,-0.21537232,0.94526327,0.45127234,-0.2656201,0.28437257,0.2968335,-0.8981751,1.256414,0.83273554,0.42903775,-0.058991812,1.1669749,0.066811085,-0.1873713,0.2798783,2.0783567,-0.18667169,-0.5203717,-0.90159917,-0.8178498,0.48597264,-0.5105477,1.3150477,1.5429078,-0.12140403,0.13527457,-0.5581685,1.3102045,1.1066449,0.17181474,0.097272955,0.01775712,-0.9748291,0.2386345
miRNA_59,0.0018381272,-0.0040933266,0.004899299,-0.0061330944,-0.0069393907,-0.0034591109,0.007374756,0.003970295,-0.0050136372,-0.0032781567,0.0010759253,-0.003792271,0.003244672,-0.0029910374,0.0018442031,0.0035532527,0.00063840486,-0.0058802348,0.000865208,-0.0050842986,0.0013021901,0.004667541,-0.0023835115,-0.0014950149,0.0025770143,0.0066543967,-0.0068813507,0.00562807,0.0013502054,-0.0024349298,-0.0005523339,-0.0053021144,0.0018576477,-0.004075337,0.0011777673,-0.0020226557,0.0053891595,-0.006226955,-0.005708458,0.0061799474,-0.005726164,0.0077632125,-0.0068782307,-0.0039918404,-0.004754493,0.0058665723,-0.001962537,0.005315397,-0.0036077257,0.0059151277,-0.0014638063,0.0063884426,0.0015007462,0.0006717965,0.0040385146,0.0062349625,0.00036845915,0.0067776013,-0.00045499764,0.0006417278,-0.0015478153,-0.004184587,-0.005551262,0.0025304258,0.003331693,-0.0039244164,0.00064286776,-0.0032126792,0.0023738332,0.0008115396,-0.00040520355,0.0014968943,0.0009957906,0.004760364,-0.00591274,-0.0026351493,-0.0064947717,0.0026096106,0.0012289658,-0.0019849632,0.0011978839,0.0025976598,-0.007269649,-0.00021502562,0.0007479023,0.00092265196,-0.0059272014,-0.005509142,-0.004919065,-0.004621269,-0.003929166,-0.0067122877,0.007426871,0.0014857408,-0.0023164414,0.006254306,0.003562374,0.0015473645,-0.0060019847,-0.0070391204,-0.0068149697,-0.00032870285,0.0022258498,0.002141092,-0.006593922,-0.0039070155,-0.0011957381,0.004659498,-0.0029892046,0.0028739255,0.0013446957,0.006810412,-7.0082024e-05,-0.0049003735,-0.0046099275,-0.007004844,0.0051673073,0.0021529086,0.0031799208,-0.005548993,-0.0002542492,-0.00062836334,-4.620105e-05,-0.0070828926,-0.0052918587,0.0023790468,0.0029965155,0.0029631779
miRNA_60,-0.005524723,0.0039703455,-0.0033154245,-0.0039012171,-0.004706165,0.0036590751,0.004301643,0.007582253,0.0061325673,0.0071576405,0.0017039571,-0.0013527181,0.0002994351,-0.0061952826,0.0016529821,0.00770396,0.0013565589,0.002289297,0.0009491239,0.0038484875,-0.0058104657,-0.0061189625,-0.0039655752,-0.003809208,0.004826391,0.007736141,0.0007271711,-0.0069625024,0.0074724406,-0.00670721,-0.0070412867,-0.0012568403,0.0052991156,0.0036534648,-0.0015042108,0.0015075207,-0.005506426,0.0069948956,0.0016471408,0.0036036354,0.003315417,-0.002093505,-0.003021853,-0.007031303,0.0012361966,-0.0025199,-0.005621571,0.007148994,-0.0031942446,0.0032746606,-0.0022289064,-0.0056000017,0.0013155229,-0.0046841055,0.0078099295,0.0020480026,0.0074455068,-0.0051744375,-0.005375864,-0.0022458564,-0.0021942277,-0.0050087906,0.004910568,-0.0039720107,0.004485896,-0.0021261647,-0.0076282546,-0.0010969378,0.002836926,-0.0067820195,-0.0054484997,-0.005703537,-0.0029217675,0.0029587578,0.0076869316,-0.00013165176,-0.0074953493,0.000775313,-0.0026904307,-0.0044925287,-0.0039030425,-0.0018904377,-0.0022860654,-0.0024961773,-0.0032518972,-0.00458958,0.0059139375,-0.0033543669,-0.00038207322,-0.0024977084,0.0015733689,0.0035218,0.006821763,-0.0012258217,-0.0073827934,-0.002422003,0.0075311884,0.005117748,0.0025528874,0.0034237523,0.0072068926,0.0061280634,0.0001989957,-0.00014732778,0.004379729,0.0018803664,-0.005618062,-0.0034555383,-0.00073100626,-0.002363367,-0.007085275,0.0062937867,-0.004130896,-0.006869158,-0.0044159777,-5.798228e-05,-0.004251439,0.006303478,0.006337682,-0.0018929057,0.0025756173,0.00040631555,-0.00090965256,-0.0036517736,0.0033663325,-0.005809132,0.004045313,0.0030685887
