,Dimension_0,Dimension_1,Dimension_2,Dimension_3,Dimension_4,Dimension_5,Dimension_6,Dimension_7,Dimension_8,Dimension_9,Dimension_10,Dimension_11,Dimension_12,Dimension_13,Dimension_14,Dimension_15,Dimension_16,Dimension_17,Dimension_18,Dimension_19,Dimension_20,Dimension_21,Dimension_22,Dimension_23,Dimension_24,Dimension_25,Dimension_26,Dimension_27,Dimension_28,Dimension_29,Dimension_30,Dimension_31,Dimension_32,Dimension_33,Dimension_34,Dimension_35,Dimension_36,Dimension_37,Dimension_38,Dimension_39,Dimension_40,Dimension_41,Dimension_42,Dimension_43,Dimension_44,Dimension_45,Dimension_46,Dimension_47,Dimension_48,Dimension_49,Dimension_50,Dimension_51,Dimension_52,Dimension_53,Dimension_54,Dimension_55,Dimension_56,Dimension_57,Dimension_58,Dimension_59,Dimension_60,Dimension_61,Dimension_62,Dimension_63,Dimension_64,Dimension_65,Dimension_66,Dimension_67,Dimension_68,Dimension_69,Dimension_70,Dimension_71,Dimension_72,Dimension_73,Dimension_74,Dimension_75,Dimension_76,Dimension_77,Dimension_78,Dimension_79,Dimension_80,Dimension_81,Dimension_82,Dimension_83,Dimension_84,Dimension_85,Dimension_86,Dimension_87,Dimension_88,Dimension_89,Dimension_90,Dimension_91,Dimension_92,Dimension_93,Dimension_94,Dimension_95,Dimension_96,Dimension_97,Dimension_98,Dimension_99,Dimension_100,Dimension_101,Dimension_102,Dimension_103,Dimension_104,Dimension_105,Dimension_106,Dimension_107,Dimension_108,Dimension_109,Dimension_110,Dimension_111,Dimension_112,Dimension_113,Dimension_114,Dimension_115,Dimension_116,Dimension_117,Dimension_118,Dimension_119,Dimension_120,Dimension_121,Dimension_122,Dimension_123,Dimension_124,Dimension_125,Dimension_126,Dimension_127
miRNA_0,0.0012636818,0.00047507696,-0.006653156,-0.0016174521,-0.005579902,0.0011814367,0.002941925,0.0054988153,-0.007181648,0.00040661916,-0.0039469823,0.0015453789,-0.0073564146,0.005888732,0.00071778893,0.0073045883,-0.0033442862,-0.0060014743,0.0036552902,-0.0054046623,-0.004807161,-0.0064041484,-0.0058179274,0.00031076185,-0.0050782226,0.00065699965,-0.006205367,0.00696983,-0.00033621117,-0.005095046,-0.0068083797,-0.0074273273,0.001507746,0.0018298775,-0.003720209,-0.00049299374,0.005288705,0.0041547697,0.005040938,-0.001757428,0.005615268,0.0028235037,-0.0066426285,-0.0059780013,-0.006171327,-0.0001632031,-0.001846496,0.003350405,0.006296253,0.0024714042,0.0017279331,-0.0035854764,0.0036092568,-0.0040299445,0.0065034237,-0.0025625154,0.004188208,-0.0073433835,-0.004425831,0.00048611313,-0.0077222195,0.00466956,-0.0043803807,0.0027213637,0.002418911,0.0047262255,-0.0001992397,-0.007297635,0.0010749232,-0.0036374126,-0.0008889511,0.0015792418,0.0024385806,0.0074798297,0.0013373941,0.00022527575,-0.005604744,0.0042113382,0.0013855137,-0.007184228,-0.0013721474,0.0076685324,-0.003693726,-0.00513079,0.0007989537,-0.0026797839,-0.0071637426,-0.0021466631,0.0042429045,-0.005650403,0.0006092433,0.0052068513,0.0008383766,-0.0069564767,-0.0067233033,-0.004351666,-0.00707251,-0.000535788,-0.0076287426,-0.0072656143,0.005962547,-0.004494371,-0.0070860796,-0.004726682,0.0050313454,0.0062885173,0.0056544673,-0.002936475,0.0019596834,0.0013924111,0.005393779,-0.00073385425,0.0037198234,0.0062490087,0.0005664788,0.0023540948,-0.0021574832,-0.0017530266,0.0030396432,0.00050195865,-0.0011480749,-0.0042976607,-0.004180772,0.002804501,0.0057240706,0.003244983,0.0077482183,0.0013175048
miRNA_1,0.0058659054,0.005551871,0.007582873,0.005135471,0.0059246738,-0.0013296381,-0.0005375929,0.007804608,0.0018138662,0.004566228,0.0073591117,-0.0028118324,-0.0007782094,0.0018882286,-0.0022606533,0.0070950836,-0.006897377,-0.005705677,0.003954444,0.00053659827,-0.0052154735,-0.0050578713,-0.005494673,0.00096143596,-0.0021726936,0.0020956602,-0.006627394,0.0003088899,0.0065853,-0.0012565237,0.0014521778,0.003588846,0.00051616505,-0.0025665928,0.007018253,0.00077548996,1.3913959e-05,-0.003388688,0.0012650117,-0.006580202,-0.000334166,0.0067579225,-0.0043464694,3.2648444e-05,-0.0035629943,-0.0007880535,0.0071667247,-0.0025582258,0.0054402407,0.003223585,0.0036752764,-0.0025941227,0.0012321416,-0.0025146436,-0.004038986,0.007369453,-0.0066130348,-0.0021709558,-0.0018264074,0.0063700285,1.22748315e-05,0.0070503894,0.0010632649,0.00015193038,0.00056070276,-0.0072204843,0.007114578,0.0069636665,-0.0004222449,0.0027144272,0.0052853934,0.0044980105,0.0058333427,0.005852094,0.0062193647,0.007077221,-0.0024729911,-0.00011606142,-0.003921006,-0.0014890432,0.0071034227,0.002710186,-0.002530625,0.0023977607,-0.00036321208,-0.0021563675,0.0008852035,0.0053811856,0.0074682683,-0.0022608135,-0.0045462325,0.0072039105,0.0053786747,-0.0029395241,0.0035111066,-0.0065362435,-0.006702207,-0.0010181032,-0.000936063,-0.0073536336,-0.0072227493,-0.0068826787,-0.004743809,-0.00081209466,4.339963e-06,-0.004504189,-0.004710017,0.0026631318,-0.004037285,0.0013513789,-0.0061061326,0.0014080778,-0.0051938053,0.0056155305,0.005665485,-0.00097081997,-0.006737767,-0.0014996119,0.0034558587,0.0078032967,0.006033698,-0.0020556264,0.007507993,-0.004217025,-0.000197215,0.0017595943,-0.005549779,-0.0034194104
miRNA_2,-0.03522123,-0.16651109,-0.2400097,0.06188189,-0.27338114,0.04787339,0.095332794,0.20398419,-0.15226732,0.18949932,0.22876896,-0.26333028,-0.07276743,-0.2302757,-0.13608178,-0.22496448,0.06522122,0.23035467,-0.10931095,0.0030620224,0.14664382,0.09485742,0.13443159,-0.15364823,-0.024768142,0.14989124,-0.18893684,-0.15780707,-0.19463576,-0.21185759,0.3775972,0.002300543,-0.27386695,0.023918338,-0.45526394,0.32518226,0.1574522,-0.05933842,-0.06486143,0.08969652,0.063563325,0.28923744,-0.09516435,-0.24440938,-0.025929691,0.31570825,0.21592496,-0.22330517,-0.08000017,0.11794443,-0.13081881,0.13096142,-0.3248773,-0.13082129,-0.28615355,0.21862604,0.06747283,-0.08339309,-0.13059472,0.08855372,-0.24768777,0.04448473,-0.25970793,0.3907232,-0.21782771,0.22232495,0.031718142,0.19302824,-0.34674272,-0.22898261,0.22616325,0.2017015,-0.46902752,-0.10342898,0.009348527,0.17682838,-0.40583643,0.072609276,-0.1423149,-0.15311061,-0.12948516,-0.3727842,0.1753615,0.10702308,-0.10639263,-0.1716378,-0.14600998,0.31305635,0.3133656,0.20848104,-0.31336674,-0.039907817,0.16986357,0.0627756,0.33633584,-0.31295368,-0.034681976,-0.21773194,-0.2912456,0.1546227,-0.0881237,0.5282435,-0.0628495,0.32443154,-0.033347566,-0.082451664,-0.15847094,0.26428398,0.0023028501,-0.1478016,0.17415856,-0.10082942,0.052759804,-0.0035195833,-0.47968626,-0.18390594,0.1197896,-0.13996187,0.12400142,0.28468034,-0.03260129,0.11921717,-0.08294039,0.299471,-0.1204041,-0.009737337,0.16018665,0.20606205
miRNA_3,-0.30686685,-0.022297641,-0.021799503,-0.022045068,0.31697083,-0.15984106,0.14545643,-0.049705833,-0.20137677,-0.0005665782,0.035989493,0.0006707398,0.069958374,-0.21158496,-0.06270598,0.23959021,-0.06673307,-0.10259478,-0.3118841,0.16225277,0.018555356,-0.1201884,-0.41851106,0.047168396,-0.07270799,-0.17716897,-0.00928033,-0.117367096,0.11169311,-0.049891733,-0.055832576,-0.12808631,-0.11209663,0.023654116,-0.1846151,0.49353307,-0.07054997,-0.0028966481,-0.12833877,-0.085764796,0.20738125,0.1687589,-0.21312526,-0.17613627,0.28459588,-0.21999262,-0.03221206,-0.11913688,0.15366441,-0.15200214,0.080569886,-0.055800878,0.10840275,0.45110703,0.1152465,0.0015219307,-0.043958545,-0.16305305,0.09353283,0.14007272,0.06954977,0.26039094,0.3840204,0.008704574,-0.22598389,0.036324445,-0.12064261,0.13665663,-0.17220147,-0.39386284,0.3693101,-0.47828022,-0.19709516,-0.00390821,0.16078094,-0.29697162,-0.24133551,-0.07254285,-0.25801545,-0.22376858,-0.31294507,0.15186538,0.26884806,0.33392134,0.13835835,0.105277956,-0.013856838,-0.27520075,0.31960365,-0.051606767,-0.10634664,-0.08901621,0.147788,0.0072097834,0.12762356,-0.042095415,0.035573035,-0.01758229,-0.06739498,0.11180094,-0.037433434,0.2100186,0.020782763,0.27156863,-0.362438,-0.34238386,-0.28409,0.15891348,-0.04389079,-0.15095517,0.03315276,-0.3116881,-0.14066914,0.37851295,-0.011960814,-0.105445474,-0.13188085,-0.19431366,-0.084861405,0.012472092,-0.024897838,-0.20506588,0.22853398,-0.09920659,-0.197856,0.09351375,-0.12068436,-0.3469823
miRNA_4,-0.003565617,-0.0050896835,-0.0025672857,-0.0042713955,-0.0070641674,-0.006695317,-0.0031240769,0.00519681,-0.0014462844,0.0077705067,-0.0055795573,-0.0075771697,-0.0060864147,-0.0074256416,-0.007592447,-0.0074962135,-0.0037972126,0.005359752,-0.007412946,0.0014495663,0.004427284,0.003201792,0.0044639744,-0.0038525276,0.0057846457,0.0033094622,0.0055511463,-0.0012599137,-0.005649779,0.002575729,0.006969055,-0.00028241612,-0.00710888,-0.003784353,0.0041209254,-0.000251038,-0.0042853877,-0.006219698,-0.0012433659,-0.0043466073,0.007737709,-0.007740522,-0.00066674873,5.185604e-05,-0.001604097,-0.0015597772,-0.0003266111,-0.0009306185,-0.006738281,-0.0051554497,0.002404118,-0.006761605,-0.0056385826,0.005699454,-0.0021837223,-0.002191566,-0.0013252236,-0.0029052123,0.003153246,-0.0027573612,0.0015138295,0.0073824506,0.00010346249,0.005434649,-0.0013239495,0.00247542,0.0054068174,0.0044357236,0.00043441541,0.002920013,-0.007409187,0.0021136012,-0.0003274493,-0.0004660394,-0.005938148,0.00010246225,0.0036438778,0.004953025,0.0067082625,0.0043521505,-0.003434047,-0.005094724,0.00083707273,-0.002441015,-0.0054124,0.0016641133,-0.004545238,0.0061036013,-4.2380765e-05,0.002765013,-0.003239315,-0.0073829405,-0.0019976627,0.0034539886,0.0048975702,-0.0044061337,0.0066963807,0.0076512974,0.0076587256,-0.0012118015,0.0006735809,0.0060632788,0.0014802963,0.0061127823,-0.0039362777,0.0001924634,0.007462943,-0.0037666261,0.0046092886,-0.002328476,-0.00066910684,-0.0008669514,-0.0058622267,-0.004903445,-0.00036134757,0.0055429228,0.0065226424,0.0062108207,-0.007172184,0.0036978126,0.0075878724,0.0048381984,0.0037801396,-0.0029999875,-0.005886076,-0.0022966713,0.0040804,0.0031795818
miRNA_5,0.10430047,-0.3119941,-0.22338438,0.0933492,-0.15552779,-0.028414844,0.0077470895,-0.10291966,-0.22372007,0.031102039,0.2547588,-0.29765818,-0.16715793,-0.20176008,0.06387542,-0.01826147,-0.09504969,0.06412861,-0.003890092,-0.24302228,-0.0011632986,0.006486929,0.099659346,0.042519767,-0.19014104,0.14666322,-0.07607025,-0.18340605,-0.17900728,-0.37071818,-0.0066874116,-0.12523872,0.06231587,-0.08898891,-0.053641785,0.13356778,0.055731773,0.074144565,-0.040293906,-0.105093524,-0.017115533,0.10325064,-0.3437096,-0.17129025,-0.023968706,0.20293948,0.062096294,-0.10527702,-0.051059894,0.23989213,-0.17885457,0.1477641,0.065676115,0.105980925,-0.14005141,0.13216977,0.23917833,-0.20494515,0.02179581,-0.16607592,-0.11753234,-0.046638772,-0.036243062,0.27255526,0.10083355,-0.17831506,0.017412016,0.0781384,0.055737354,-0.18973184,-0.18004969,0.10955678,-0.08067005,-0.4288376,-0.07347004,0.17897116,-0.28406706,-0.024720535,0.030755848,-0.14219603,-0.2626423,0.057525214,0.036633715,0.21580732,0.12754446,-0.004603962,-0.1730422,0.08684485,0.016731832,0.30733067,0.041831408,-0.13971633,0.07946697,0.11301324,0.1868361,0.12704383,-0.009832771,-0.3860222,0.013336243,0.10284683,-0.23006628,0.4119236,-0.0405844,0.3657832,0.009806673,0.16133268,0.17035444,0.084159836,-0.12284834,-0.017356623,0.024492344,0.011450703,0.03715008,0.13842249,-0.44787183,0.15231283,-0.10782457,0.13396183,0.2509928,0.21706563,-0.10840807,-0.10173845,0.014993387,0.070517436,-0.2659118,0.057036232,-0.091106094,0.28101826
miRNA_6,-0.08709507,-0.3396094,0.20088115,0.0025178944,0.15358278,0.060585823,0.06315384,0.013263903,0.03238788,0.21720646,0.1544897,-0.09951784,0.0583205,0.031263255,-0.010114954,0.20699888,-0.14926833,-0.2799785,-0.30425653,-0.2462374,0.13511857,0.4158496,0.13129447,-0.032271884,0.028581122,0.038672578,-0.053873617,-0.18309474,-0.2912822,0.20387477,-0.04006204,0.11063401,0.04283969,0.15406768,0.18510786,0.033077486,0.28640595,-0.3082204,0.11815214,0.085248716,0.2568899,-0.06411255,-0.17738746,-0.11763715,0.19850637,-0.11598347,-0.120172605,-0.09416963,-0.021692228,0.20474042,0.34793147,-0.054979254,0.114868276,0.19338387,0.03693655,0.1346239,0.44706818,-0.16877568,-0.013404467,0.12175375,0.050908808,0.027516797,0.054324906,-0.15118405,0.0791886,-0.21572079,0.2573255,0.047780607,0.37566054,-0.00434964,-0.02201576,-0.17459764,-0.09668058,-0.122376785,-0.039880786,-0.025967287,0.02092845,0.02855394,0.013006702,0.07678162,-0.24305633,-0.17142798,0.2108558,0.052173764,-0.051392443,-0.030505506,-0.10423181,-0.008027058,0.2793408,0.24720162,0.45657128,-0.012893717,0.08958915,-0.2645097,0.16879198,0.0059987707,-0.11255124,-0.2439339,-0.01396365,-0.13344598,-0.09070142,0.38280293,0.23545557,0.3277919,0.017862037,-0.036641996,-0.08346345,0.13131784,-0.2573281,-0.0999839,0.09142246,-0.06478994,-0.12757629,0.05932865,-0.12624222,-0.0127105815,0.043996077,-0.019338552,0.27309623,-0.011923034,0.02689342,-0.09666647,-0.2117484,0.22621262,-0.05742932,-0.10506076,-0.030924732,-0.39742142
miRNA_7,0.12995434,-0.32487333,0.12989038,-0.18464324,0.18738,-0.3583066,0.024387952,-0.31759474,-0.13830741,0.057334498,0.18685292,-0.11341866,-0.17081863,0.044400852,0.23635252,0.2856191,-0.08488282,0.14641605,-0.0071155974,-0.048124302,0.17763925,0.12533706,0.16179496,-0.11635663,-0.04038886,-0.11248445,-0.08044068,-0.24094976,0.18356055,-0.047630005,-0.013323819,0.10415727,0.016032618,0.00971159,0.19271992,0.14286412,0.18178686,0.007819986,0.015558626,-0.055884562,0.019318033,-0.054814138,-0.38317713,0.009780435,-0.10708156,-0.20328377,0.027311413,-0.09996394,-0.13911396,0.1286239,-0.10601017,-0.067393936,-0.121626176,0.10551721,-0.09001787,-0.006883761,0.32499143,-0.12618873,-0.0851815,0.07413015,-0.09670613,-0.12689279,0.06774973,0.14852972,0.19616209,0.0021756957,0.123175256,0.06770274,0.10608554,-0.2372139,0.03513505,-0.14275108,-0.14655092,-0.006380744,0.034910623,-0.19547592,-0.26102313,-0.13264662,0.117957056,-0.18963587,-0.16766657,0.062846154,-0.04705246,0.27538398,0.2995781,0.24672739,0.061819147,-0.076377735,0.26971763,0.0890568,0.045895834,-0.07049462,0.03399481,0.047586832,0.091066904,0.03792321,-0.073800676,-0.12076444,-0.0053179716,0.090166785,0.101700366,0.08602115,-0.16538076,0.11853557,-0.048861016,-0.013020067,0.15448046,-0.065021805,-0.09306227,-0.33097842,0.0058214315,-0.11579934,0.07364168,0.19002895,-0.22834407,-0.12721944,-0.22968051,-0.23705637,0.025873324,0.073211625,-0.02051488,-0.15804805,-0.29014465,0.050022542,-0.1911852,0.06398261,0.052089144,0.16601458
miRNA_8,0.031237256,-0.0455603,-0.088140085,-0.18114746,0.20019057,-0.00960065,0.15852839,-0.1145167,-0.15230799,0.17308052,-0.0656553,-0.03326518,0.05121278,-0.11389754,0.07379504,0.110385485,-0.06748161,0.042475633,0.05478551,0.14497367,0.032495342,0.11507628,0.14220007,-0.19343704,-0.0635837,0.10856195,-0.1680496,0.07673018,-0.14389741,-0.17290504,0.07345763,0.054783538,0.031136187,0.21504693,-0.10639212,0.0019698183,0.30858865,0.03617042,0.038863335,0.021523815,0.30101442,0.14563738,0.06149207,-0.25471014,0.13888058,-0.009421245,-0.096707724,-0.12086266,-0.03404547,0.09440524,-0.20851694,-0.02240039,-0.035024893,0.10044076,0.008764678,0.048856672,0.20472671,-0.2889728,-0.1587047,-0.04650017,-0.079619646,0.101953365,0.09714496,0.09250375,-0.12294529,-0.13474053,0.0471053,0.15780774,0.104061574,-0.10986916,0.029301384,-0.064125665,-0.22265595,-0.27857095,0.17435011,0.041206077,-0.0062826294,0.11836613,0.014551658,-0.15159503,0.11307738,-0.18585005,0.09273145,0.27977398,0.037831612,0.26730388,-0.10539415,-0.13695194,0.113215335,0.10349779,0.124129966,0.17356908,-0.017226888,-0.018659657,0.08877014,-0.07001941,-0.14483659,-0.12547582,-0.20045999,-0.009515523,-0.2247729,0.08966756,0.0076274523,0.31152394,-0.00092372566,-0.108831964,-0.1965929,-0.18474637,0.12105197,-0.11628959,-0.17929856,-0.14993031,-0.15035632,-0.029802304,-0.0021808303,-0.048605677,-0.12412663,-0.0070882263,0.0564335,0.12453395,-0.30981258,0.097366296,-0.031495027,-0.0015548823,-0.08331835,-0.16068824,-0.2722834,0.11721462
miRNA_9,-0.001849249,0.0059774276,0.0021383017,-0.002471568,-0.0043992605,-0.00082587823,0.0028431993,0.005977493,-0.0050109383,0.0014158934,-0.006605342,0.0065639745,0.007429594,-0.0017713662,-0.0067652967,-0.0018224157,0.002146963,-0.006532928,-0.0026090704,-0.00029221177,-0.002415074,0.006831974,0.0031187274,-0.0032893047,0.0024904292,0.005959647,0.00325666,0.004337685,0.0067646224,0.002154272,-0.007738404,0.0025514495,0.0009778515,0.0051441398,0.0013161805,-0.001290109,-0.0030992068,0.0038836934,4.7154725e-05,0.0075188167,-0.005120065,-0.0044387,0.004356822,-0.0018624477,-0.0057003535,-0.0025289934,0.0033805016,-0.0053058434,-0.00652072,-0.0068312045,-0.0011198763,-0.0061648004,0.0010746792,-0.005709244,0.000766404,-0.0041731615,-0.0036298,0.0034246836,0.002374012,0.006966399,0.006511392,-0.0070385206,0.007225666,-0.0059516355,-0.0029967409,0.006924428,0.0044739638,-0.007258732,-0.0067669563,-0.0076483153,-0.0016229972,-0.0041691866,0.0076713692,0.007705804,0.0048055444,0.00076412037,0.005623307,-0.0050557535,-0.0014920384,0.0014382247,0.0056115147,0.003027089,-0.0056844205,-0.0066734385,0.005076289,-0.0035716668,-0.006049147,-0.003032118,0.005872933,-0.00012070499,-0.004046155,0.005824344,-6.3793734e-05,0.0043946374,-0.0034684911,0.006318338,-0.0064199753,-0.005667627,-0.005737951,0.0029168688,0.0074143484,-0.0075343773,0.0058648624,0.0005710479,0.00014176406,0.0026427414,-0.004561728,-0.0017073806,-0.00056482665,0.0024743434,0.0061831977,-0.0020547956,-0.006949192,0.0021164715,0.0040127505,-0.0044573303,0.006339811,-0.0042412616,0.0064282455,-0.0077215843,0.00029897317,-0.0037288927,-0.0075859576,-0.004555594,0.00076296367,0.007353114,0.001626689,0.0062267203
miRNA_10,0.13277632,-0.17842436,0.17487067,-0.10743565,0.124937646,-0.3077825,-0.007051341,-0.25079,-0.11376923,0.14254895,0.18140815,-0.0912947,0.026652716,0.061207455,0.20245136,0.3567834,-0.09414796,0.2637037,0.10331203,0.17697185,0.037932593,-0.020664534,-0.12844785,-0.25950307,-0.22729553,-0.004357945,-0.031360507,-0.077384494,0.16066086,-0.027483892,-0.19648425,-0.12209856,0.13724118,0.037767656,-0.06493412,0.017042631,0.39832997,0.064841546,-0.045463547,-0.037483376,0.015585743,-0.04099041,-0.2468445,-0.019709067,-0.1421407,-0.037021156,-0.0858694,-0.19963646,-0.14935634,0.09226858,0.11822007,0.07879114,-0.21564482,-0.025280738,-0.04958262,0.20419687,0.13047528,-0.17438197,-0.06660219,-0.0001235522,-0.08530569,-0.22488417,-0.09597329,0.11728807,0.1844762,0.06357596,0.10139455,0.16671656,0.07877657,-0.092725925,0.10813632,-0.02100817,-0.3195305,-0.07644897,0.26983297,-0.0039919033,-0.14611727,-0.18855357,0.038873754,0.012001284,0.001941728,0.024849601,-0.2600775,0.31252593,0.1894529,0.39997566,0.11276084,0.12412474,0.10252885,0.14739692,-0.13696589,0.026641054,0.018799385,0.049501687,0.18162179,0.04912338,-0.09431301,-0.06906692,-0.131995,-0.010744655,0.110812776,0.015412466,0.026400933,0.060519878,0.11717038,0.012379068,0.04966952,-0.16144317,-0.089417994,-0.19953555,0.09818207,-0.054833837,-0.066830195,-0.09091186,-0.18857169,-0.05489198,0.101320185,-0.09630285,-0.02996009,-0.045020595,-0.11330799,0.14025657,-0.1861429,-0.14838667,-0.056956254,0.003600162,-0.06861997,0.19398554
miRNA_11,-0.17339468,-0.14855932,0.08356159,-0.11043506,-0.21386647,-0.35493988,0.12927513,-0.25304204,-0.0053627747,0.14407073,0.46701887,-0.06492386,-0.06544141,0.072338864,-0.11322204,0.11566598,0.010199978,0.17859441,-0.47993276,-0.14151216,0.004958062,0.010422984,-0.24457932,-0.05689891,-0.07724921,0.01497875,-0.32948986,-0.49271807,-0.09841116,0.06593581,-0.13629356,-0.36949372,0.2210084,0.06758235,-0.05029989,0.48350012,0.09532878,-0.031356156,0.22394313,-0.09541051,0.025175503,-0.12651871,-0.12138303,0.22165641,-0.31943536,-0.05354847,0.11712482,-0.07903869,0.023425445,-0.28496155,0.21152867,0.22013146,-0.14511272,-0.01783812,0.17330073,-0.06673281,0.027987879,-0.061797053,-0.06787318,0.19283399,-0.16465488,-0.2884648,-0.026761245,0.101332664,-0.01899729,-0.05799055,0.2033107,-0.09143449,-0.2911899,-0.08163965,0.19107905,0.08942518,-0.14820807,-0.18246306,0.103331886,-0.040099453,0.05034236,-0.0029344838,0.102140225,-0.05142945,-0.0031913132,-0.09076962,-0.2560254,0.39664203,-0.19630396,0.10862842,0.07564102,-0.20715412,-0.06430481,0.11799746,0.03170914,0.016297316,-0.062645406,-0.2522424,0.17194813,0.2965819,-0.028275913,-0.26921308,0.0010148964,-0.22959496,-0.13783084,0.23048736,0.2518966,-0.14671853,-0.15743682,0.30416378,-0.06509051,0.13465436,0.18125741,-0.26887703,0.15213956,-0.008129263,-0.18538493,-0.15999556,-0.09548072,-0.18679829,-0.13892011,0.13912837,0.100001074,-0.045211628,-0.02939369,-0.17253105,-0.0988422,0.35195118,0.056778703,0.016248222,0.105016716,-0.10926368
miRNA_12,0.10866744,0.09996393,0.17938247,-0.049516875,0.21269114,-0.006582872,0.25649887,0.3238605,-0.04175679,0.1012837,-0.13437162,-0.03101971,-0.047075883,0.026130745,0.13378571,-0.024480507,-0.3295958,-0.023467313,-0.12713884,0.1407848,0.1610332,0.1683578,-0.22106756,-0.27099374,-0.31125224,0.234689,0.0928833,-0.1491952,0.091805704,-0.39635372,-0.03694173,-0.2031145,0.17255594,-0.0459737,-0.24679753,0.34238157,0.17379448,0.047662623,-0.04816105,-0.20285773,-0.10903984,-0.08934979,-0.2327119,-0.033777546,0.0016009371,-0.215954,-0.011283512,0.04636363,-0.010562173,-0.13461865,-0.2578479,0.071934804,0.31810117,-0.35018206,0.17160743,-0.1135151,0.046251554,0.25965318,0.115740396,-0.06272575,-0.06949927,-0.019225758,0.07598433,-0.18064684,0.1404984,0.18310426,-0.11939093,0.22266863,0.25285456,-0.2222343,0.061623365,-0.019088045,0.13108177,0.20368588,0.033906892,-0.019183403,0.15802774,-0.24314849,-0.043714114,0.059217144,0.3001952,-0.4090104,0.29419833,0.4241548,0.037239898,0.21567199,0.113927856,-0.2536812,0.017978847,-0.09242623,-0.28920263,0.5167861,-0.10156935,-0.063332275,0.3465607,-0.05950632,-0.070672944,-0.1353555,-0.123863705,-0.014394816,-0.026649736,0.06406029,-0.054181017,0.05907572,0.23714204,0.26421398,-0.0028582308,-0.07011707,-0.13237251,0.038556844,-0.16187274,-0.060295377,0.11628621,0.12617697,-0.29843208,0.07716579,-0.07203959,0.3808388,0.32387155,-0.025109448,-0.046177097,0.049471393,-0.27020702,0.10833018,-0.019735713,-0.26552933,0.095032476,0.044894475
miRNA_13,-0.043289777,-0.082101196,-0.07870823,0.00885425,-0.10947187,-0.18169455,0.13403991,-0.12488222,-0.09970092,-0.07337811,0.08750634,0.019404057,-0.12730762,-0.12124147,0.2328254,0.13278362,-0.033989802,0.11214641,-0.14789881,0.113040544,0.0965846,0.06716442,-0.096221454,-0.18666367,-0.21686219,0.16689526,0.036011964,0.046564225,0.13927722,-0.25944006,-0.032088526,-0.19632323,-0.14262772,0.052367654,-0.101035245,0.16537724,0.18040638,-0.015816605,-0.13223943,-0.05376433,-0.19175585,0.036809243,-0.017673122,-0.19246563,0.033951227,-0.040667612,-0.08467966,-0.20625898,-0.19642,-0.15654396,-0.055433847,0.011962019,-0.15055573,0.07008746,0.052929703,0.030445857,0.075882874,-0.00031480216,-0.094950885,0.10904823,-0.09948624,0.118942656,0.0782945,0.1146366,0.10772288,-0.097239,-0.05738713,0.06467556,-0.008111811,-0.14884952,-0.015214746,-0.10390457,-0.047134053,-0.12011425,0.2517674,-0.056780193,-0.15237375,-0.13945484,-0.1103921,-0.04604057,-0.027917452,-0.09829033,-0.07036782,0.24907742,-0.00094083004,0.13365206,0.010766477,-0.22726576,-0.00070420327,0.047249958,-0.032912116,0.25352615,-0.111054614,-0.036043163,0.24423884,0.192966,-0.13882399,-0.06300276,-0.089069605,-0.051986363,-0.05645983,0.114790365,-0.101639494,-0.004575242,0.15236647,-0.04869704,-0.024078539,0.103937574,-0.15779084,0.2828552,-0.060974363,-0.16865698,0.18474278,-0.032152176,-0.047650307,0.07682124,-0.23188508,0.10985864,0.15034613,0.026912525,-0.20401512,0.051121503,-0.17393215,-0.06965326,0.031160835,-0.08034122,-0.08175832,-0.06821851
miRNA_14,-0.0074480902,-0.0011397842,0.0029458217,-0.0050870404,0.0067969505,0.0037428178,0.0036451984,-0.0019782875,0.0023212358,0.0074554738,0.00659775,0.0018309392,0.0037489906,-0.0014117248,-0.004585637,-0.0043353625,8.606166e-05,0.0020238943,-0.0050453413,-0.0016273335,0.0059989337,0.00636068,0.0009185858,0.0008969549,0.00014569983,0.0028285775,0.0047046244,-0.0072258543,0.0018954892,-0.0023500882,-0.0055769943,-0.0023674536,0.0021230336,-0.0050227027,-0.0037490148,0.0025345683,-0.007561613,-0.0073884055,0.001888562,0.0031331386,-0.0034661163,-0.0064617656,-0.002875222,0.002876928,9.315088e-06,0.0049106963,0.0011129025,0.006187957,-0.00036205165,0.005976828,0.003972858,-0.004077481,-0.0075696297,-0.003484249,0.0056155697,-0.0019613206,0.002981387,0.0070493426,-0.006478442,0.0030313432,-0.0007032398,0.0041922573,-0.0012743026,0.004836984,0.0024835262,-0.0061857104,0.0041295327,0.0001301039,0.0077311993,-0.00403516,0.0018367898,-0.0055236146,-0.0014423393,-0.0074583124,-7.213093e-05,0.0013594814,0.005521558,-0.00356403,-0.004876936,-0.004407238,-0.00075164624,0.0037120562,-0.0035331286,0.00081111677,0.0060524717,-0.0011050571,-0.002216328,0.006021416,0.003137989,7.839687e-05,0.002298791,0.005525388,-0.0038453694,0.0045138076,0.0005420651,0.0066045746,-0.0031159222,5.083531e-05,0.00057400204,-0.0009121187,0.004241893,0.0054942444,-0.0059456564,4.6733767e-06,-0.0033534784,0.0067207105,-0.004478626,-0.0048014857,0.0053231735,0.0020563155,-0.0043981746,0.0020780768,-0.0037113838,0.0016887244,0.0027088597,-0.0012873746,0.0020989906,0.0064545143,-0.0070134476,0.0059939735,-0.0011115894,-0.0053954236,0.0077727195,-0.007549731,-0.0020518824,-0.0059903786,-0.004264705,-0.0024127923
miRNA_15,0.11718083,-0.11445928,0.21910614,-0.034981713,0.4078108,-0.3120879,-0.077296324,-0.38830146,-0.014932954,0.22918192,-0.17487493,0.007276273,0.087591186,0.19894065,0.074658684,-0.088714235,0.17011458,-0.077313356,-0.24412923,0.25947583,-0.35421404,0.013616387,-0.24582008,-0.22204012,-0.31733468,-0.14347513,-0.004981151,0.2315642,-0.32792673,-0.346911,0.053591818,0.019742902,-0.1827436,0.10875881,-0.15739125,-0.042160764,0.014394881,-0.028122496,-0.13169631,-0.30038467,-0.32050118,-0.060305793,-0.40057567,0.030326592,0.1967625,0.40408438,-0.27743086,-0.052460983,-0.18635029,-0.3214827,-0.309424,-0.20885116,-0.42565706,0.30560732,0.22554608,0.09563328,-0.037825327,-0.06635334,0.0932152,0.10269814,-0.27714896,0.099392205,0.32070145,-0.06631968,-0.04412118,0.11922545,-0.16768517,0.043052085,-0.19530211,-0.10929003,-0.07347086,-0.021078039,-0.034903318,-0.35046417,0.18070203,0.0037279304,-0.08795678,-0.09292136,-0.06767859,-0.26705274,-0.20459707,-0.3401694,-0.012628245,0.10249726,0.15639535,-0.116955504,-0.34720665,-0.01425672,-0.025854677,0.11334848,0.024285639,0.16710919,0.19008951,0.15812293,0.38830665,-0.1442418,-0.056593344,-0.020817056,-0.23450206,0.49126858,0.045482613,0.40367362,-0.2921318,0.10817916,-0.14707139,-0.15342435,-0.1826566,0.11650589,0.25706547,-0.27812937,-0.09236105,-0.15256447,-0.12762216,-0.11095949,-0.39213145,-0.03796978,-0.030195227,0.041135207,0.0087553775,0.17067063,-0.035265885,-0.1602881,-0.13288802,0.005586173,-0.066335365,-0.36475927,-0.005860665,0.251443
miRNA_16,0.0030681975,-0.0022958834,-0.0053403825,0.006479753,0.0011997148,-0.0032911077,-0.0059385784,-0.004508322,-0.0071114767,-0.0062959753,-0.0044510458,-0.0050980262,-0.004815964,0.00048649125,-0.0014142357,0.0029779766,0.0042937975,0.00362698,-0.0026105642,-0.007013973,-0.0013484117,0.0009554792,0.0030251108,0.0011976436,-0.0044898596,0.002584476,0.002237076,-0.005773682,0.0015814472,0.0057157036,-0.004273381,-0.0041447114,0.0013476126,-0.0013796389,0.0077906046,0.0026316904,0.0035018139,0.0055103246,0.00455104,0.0040534865,-0.0014516395,-0.0028878935,0.0017047636,0.005047934,-0.0071250983,-0.00015830435,-0.00048350543,0.0056571234,-0.005864177,0.005735997,-0.007668156,0.0012414102,-0.0050907023,-0.004544586,-0.006331051,-0.0056643076,0.006075494,-0.003418889,0.005879566,-0.0044048745,-0.006091593,-0.00043432042,-0.0064346567,0.00058201514,-0.00604116,0.0017093737,-0.0008746367,-0.0056943484,-0.0013515148,0.00095109455,-0.0061281007,-0.0009527579,-0.00025635585,0.002672989,0.0065387636,-0.005077852,-0.0021899417,-0.0008862838,0.0005312357,-0.0053329766,0.002125863,-0.0063852463,-0.0029608943,0.007074794,0.003427038,-0.004858805,0.005181074,-0.0037061311,-0.0058981106,0.007445911,-0.0055983122,-0.005013963,0.00078534335,-0.0018334053,0.0008043032,-0.001803698,-0.004784016,0.0021986682,-0.004649628,0.0019957665,-0.0071910582,-0.005783269,0.0069555063,0.0035032537,0.0030294843,0.00066145323,-0.0015625078,0.007164806,-0.004482219,0.0060645547,-0.0075602867,-0.0022435877,-0.0021608286,0.00073952787,0.003928246,-0.00078910775,-8.7553635e-05,0.0034511462,0.006457098,-0.006833166,0.002294222,0.0017531626,-0.0031512622,-0.0066219643,0.0044109933,0.003921261,-0.006832896,-0.0051081646
miRNA_17,0.0041994583,-0.006848814,0.0046411175,-0.00349015,0.006861465,0.007055646,0.0077073444,9.6483156e-05,0.0051316917,-0.0014763102,-0.007668495,-0.0051687267,-0.007525794,-0.0056015924,0.003845241,0.0051090065,0.0014521088,0.00096157566,0.00092886016,-0.006344391,-0.00016076118,-0.00026202947,0.00731227,-0.0022620223,0.0021409243,0.0076892097,0.0034862515,-0.0050711725,-0.0031094719,-0.00035691448,0.007730264,0.003048012,-0.00044643134,5.5674464e-05,0.0033988394,0.0040239207,-0.004885789,0.0052847117,0.0006471649,0.0066382885,0.0010246541,-0.0061742067,0.0035743024,-0.0016891602,-0.0045213066,-0.0033729188,-0.0030299798,-0.0018383823,0.0075869504,0.0067401566,-0.0007695686,0.007361004,0.001161648,9.404495e-05,-0.0026993938,-0.005593676,-0.0066220704,-0.001628099,-0.00254778,-0.0005160328,0.0024188384,0.0051373783,-0.0006288383,-0.0057612583,-0.0045092497,0.002654586,0.00038823113,0.0076779816,-0.00027563237,0.0076875724,0.00021115318,0.0072156247,0.00082535483,0.004986128,-0.0010388345,0.0004935693,0.0010209531,-4.4139102e-05,0.0036348198,0.003927974,-0.0075844303,0.0051622,0.001723336,-0.0066383183,0.004435975,-0.005789276,-0.00070784986,0.0033850912,-0.0007382482,-0.0059450064,-0.0057087764,0.00677268,-0.0023350902,-0.00765281,0.00086375885,-0.0035726242,-0.0024583004,0.00743464,0.004942119,-0.004570527,-0.0075629875,-0.0028909966,-0.00021873228,0.006340647,0.0046743266,0.0032973718,-0.003180256,0.00030575506,-0.0035816804,0.0067227986,-0.0020844452,-0.00670922,-0.001742512,-0.006004069,0.0071017947,0.0043308623,-0.004984567,-0.0058638547,-0.0021774974,0.001809001,-0.002893662,0.0042573456,0.002337873,0.00014137477,-0.0030636266,-0.007372029,0.0037231613,0.00055857934
miRNA_18,0.0292972,-0.044956237,0.10371485,0.2186102,-0.056202173,-0.08440923,-0.17981102,-0.00439849,0.075406976,0.21222447,0.22894908,-0.21288489,0.48253924,-0.19459595,0.036849882,0.18092693,0.07952393,-0.17880677,-0.23586397,-0.2459594,-0.07414331,0.2785962,0.113141716,-0.08758118,-0.2896102,0.042851966,-0.3537566,0.18796355,-0.17950362,-0.06723253,0.032049604,-0.16709368,0.0958253,0.2826627,0.0347513,-0.0023965242,0.4040863,-0.2346339,0.041173946,0.23663285,0.112905174,-0.1281589,-0.21241169,0.044104923,0.41145763,0.10510341,0.056585714,-0.0947593,-0.3094768,0.111471765,0.08749043,-0.0735056,0.22715965,0.10146356,-0.13158,0.035448395,0.04129544,-0.13511181,-0.19093594,-0.05726027,-0.13829078,0.035292618,-0.08176926,-0.16070588,-0.03653343,-0.00533358,0.06294032,-0.0051225624,-0.01167339,-0.15548968,-0.18043704,-0.25837383,-0.124462865,-0.12507606,0.2801978,-0.11193298,0.10090237,0.07385669,0.07764173,0.10466901,-0.115542136,-0.18548259,0.06848428,0.2508214,-0.19736534,-0.12960568,0.13133498,0.117076404,0.049247067,0.22973098,0.039773453,0.0058901873,-0.20241289,-0.11051841,0.07179363,-0.15651473,-0.011515784,-0.0705387,-0.08967262,-0.25370958,0.03738551,0.21329667,0.26108858,0.1872692,-0.19753233,0.15038723,-0.43059587,-0.13190965,0.06418367,0.19074954,0.26442397,-0.02462163,0.00089062355,0.16786517,0.058355425,-0.012171785,-0.050006106,0.15496092,0.01997258,-0.09254077,-0.056565456,-0.025816796,0.2731887,0.2225199,-0.18614371,-0.13192157,-0.2250359,-0.36512145
miRNA_19,-0.00018595532,0.00480482,0.0014789328,-0.0064292774,-0.0036673415,0.0031932145,0.0071115345,0.0071606636,0.0020895172,-0.003315691,0.0045101605,-0.0010384172,0.00627394,0.0014268905,-0.0065808855,-0.002817208,-0.0064981356,0.00457268,0.0011917241,-0.0043879896,-0.0030023996,0.0031477641,0.0018960014,-0.002593618,-0.004651161,-0.002958428,0.0022733863,0.0065427627,-0.0021005683,-0.006963657,0.007063357,0.0017993953,0.0076734126,0.0052175242,-0.0013481714,-0.00018031336,0.0038400404,-0.004232658,0.0015271213,-0.005446356,0.0032224953,-0.005997168,-0.006358588,-0.00013433024,0.006634325,-0.0044296943,0.0055704117,0.0066447537,-0.0048552733,-0.0038993899,-0.0026256498,0.0014811009,0.0028069392,-0.0036689155,0.0037186146,-0.0038381498,-0.006792849,0.003200734,0.00021490641,0.0063493196,-0.000992287,-0.003311772,-0.00554231,-0.0061940495,-0.0020999461,-0.007153759,-0.0019998848,0.0066470522,0.0020145122,-0.0075191483,0.00030955113,0.0015999954,-0.0076066945,0.002669042,-0.00019600056,-0.0018903036,-0.0002981741,0.00091097504,0.0008983426,0.0065243617,0.0056668576,-0.003783282,-0.005542906,-0.005682161,0.0019323062,0.0067653228,0.0010782741,-0.005386362,-5.137548e-05,-0.0036740415,-0.0071020517,-0.006080663,0.005742274,0.005889613,-0.0057268273,-0.0036828537,0.0077821165,0.003740538,0.0020491648,0.006992385,-0.0039235074,-0.0063272044,-0.0021034349,-6.390177e-05,0.0063728914,0.0065506827,0.003116427,-0.0010677706,0.007205745,-0.00023954734,-0.0022034552,-0.003088722,0.0016964749,-0.0008113347,0.0007579811,-0.0062054526,-0.0042662807,-0.00044880994,0.0055976063,0.005561782,-0.0067232177,0.0032037478,0.0066092797,0.006865874,0.0062881615,-0.0049863067,0.0015293881,0.001943972
miRNA_20,0.076717444,0.14249124,-0.2530293,0.08566331,-0.10901654,-0.1915618,0.08522233,0.21008079,-0.06055604,0.2703646,0.11735956,-0.18632753,-0.12309263,0.01747373,0.117176495,0.116554774,-0.24620475,0.0154660065,-0.38797787,0.23156385,-0.049512874,0.021850094,-0.19202298,-0.20116353,-0.3261932,0.0368552,-0.37097,0.16120167,0.112237155,0.16454008,-0.3303217,0.058604226,0.24551645,0.2521478,-0.11109297,0.17711443,0.004264105,-0.21579199,0.018222332,-0.21019298,-0.28810987,-0.08480002,0.068593115,-0.0682736,0.16341755,-0.08289089,0.0433965,0.2525585,-0.163024,-0.031921253,0.09878213,-0.18584001,0.04377852,0.20393537,-0.1481187,0.14681819,-0.043856896,0.102956444,-0.08446789,0.11334312,0.15608926,-0.04560251,-0.027505456,0.059080973,0.24535431,-0.064110495,0.35917783,0.27991638,0.24538642,-0.0025133705,0.22223036,0.21791549,-0.2567875,0.048929248,-0.32283178,-0.26572222,0.08998451,0.422512,-0.13523999,-0.046963565,-0.00785413,-0.16617185,-0.2302001,0.35899845,0.18440293,-0.002692795,-0.165935,-0.1787802,0.0876577,-0.047512498,0.006401827,0.32999924,-0.07934818,-0.120835066,-0.061940398,0.23260587,-0.2562114,-0.13468423,-0.01064807,0.055003844,-0.21462174,-0.22364122,0.16710223,0.15684988,0.35674167,0.07528149,-0.18384005,-0.014891033,0.23959516,-0.1751453,0.035717174,-0.10541294,-0.0951124,0.13968824,-0.32478225,0.27419743,-0.22825117,0.05414021,0.15502694,0.12998417,-0.04316331,-0.040541016,0.0885062,-0.13219859,-0.042150803,-0.20093855,-0.14800382,0.03136085
miRNA_21,-0.0031979103,-0.004452737,-0.0021034516,0.0043627974,-0.0026945714,0.005140053,-0.001844516,0.0075465273,-0.0029385928,0.0039252434,-0.00011949241,-0.0022864193,-0.00511021,-0.0072557665,-0.0070845,-1.173839e-05,-0.0038188025,-0.004615104,-0.005659301,-0.003399536,0.0030100737,0.00033049285,0.0011611003,0.00039361045,-0.0031112004,0.0071573313,0.0041275956,-0.0046711266,-0.0070372466,-0.0067717247,-0.0066055525,0.00578502,-0.0036486909,-0.006846063,-0.0074275676,-0.00075181946,0.007400213,0.0030540414,-0.0004864037,-0.0057646874,0.0019136034,0.0074758567,0.0014773123,0.0010721609,0.00016195327,0.0035790112,0.0030682478,-0.0037431512,0.0067523867,-0.0029794518,-0.0033767484,0.004500637,0.00092855096,-0.0019586422,0.0037894752,0.0074130464,0.0021082107,0.0019272994,-0.005976172,0.0070638657,-0.0041444115,0.0009277947,-0.0011656638,-0.001098875,0.0037173685,0.0050085057,0.0028708316,-0.0061611254,-0.0051602665,-0.0059396066,-0.0065653864,0.0048422627,0.0010522678,0.0035532974,0.004281979,-0.004361462,0.004482245,-0.007567985,-0.006683221,-0.0015846435,0.004717903,0.00018429011,0.003560461,5.71087e-05,-0.0030761622,-0.0077863,0.004999146,0.0061736926,0.00034612976,0.006553393,0.002149269,-0.0027338099,-0.0059125945,0.00068118796,-0.0045491587,0.0035621151,0.0037701558,-0.00516269,0.0050440915,0.004918635,0.0062643923,-0.004788449,0.0076745525,0.0018630326,0.00035987422,0.0075429287,-0.006163759,0.0013321918,0.00082810037,-0.003238203,0.0018635914,-0.0013059303,0.0029210765,0.0035029445,0.005178185,0.0027299933,0.0076438747,0.0012356807,-0.004566675,0.00720603,6.935373e-05,-0.0023876578,0.0042556357,-0.0043655634,0.0047875512,0.006063938,0.005544711,7.979944e-05
miRNA_22,-0.0017749518,-0.0071355514,-0.0040745866,-0.0037741885,-0.0049316883,-0.0034868885,0.0053227693,-0.0020488072,-0.0013637934,0.0037239417,-0.0060406476,0.0016524792,-0.0058940295,-0.006874632,-0.0003836006,-0.0022350773,0.007298982,0.0064297672,0.0010887273,-0.0020866413,0.0042357836,-0.007126471,-0.0018189829,-0.0049569476,-0.007313641,-0.0072725005,0.00080885924,-0.0073646847,-0.00016970374,-0.00051698275,0.0018480718,-0.0036594346,0.0068740267,-0.003191121,-0.0073568784,-0.0066075325,-0.0063092634,-0.0009711087,0.001468569,-0.0026922077,-0.0035647582,-0.0067479983,0.006629916,-0.006564252,0.0011322238,0.0034071226,0.0025365483,0.00021933392,-0.0034195017,0.003980644,0.00047912262,0.00074828044,-0.00504715,0.005886063,-0.006400183,-0.0040187743,0.0027661435,0.007809773,-0.0052459855,-0.0047120247,-0.007681884,0.0045697503,0.0071206987,-0.0059320945,-0.0013140775,-0.004736867,0.0045229215,-0.0038808268,0.007036682,0.004576143,0.0025485717,-0.0024495628,-0.007390447,-0.0057917275,0.0064788535,0.0077173766,0.0050550904,-0.0028596763,0.0067361426,0.0045998767,-0.0044392515,-0.006536687,-0.0010677278,-0.007351853,0.0062134564,-0.0070492215,-0.0053900927,-0.0036681052,-0.0014297534,-0.0069626886,0.00568974,0.006723514,0.0036036987,-0.007007422,0.0013130642,0.0019271486,0.005547352,-0.0052589793,0.0062863156,0.006471835,0.0006640069,0.005313728,0.005324276,-0.0034382753,0.0076300576,-0.0028950516,0.0064489283,0.004065849,0.0069078784,0.007232491,-0.0025432538,0.0060256235,-0.0008483473,-0.0011028405,-0.0015713312,0.0051817,0.00092004053,0.0069262553,0.0004554335,-0.0047309883,0.0030547641,0.005536113,-0.006252937,-0.0048431754,0.00659742,-0.0046010464,0.0008273497,0.0063483715
miRNA_23,-0.0049894135,0.0027158782,0.0073092654,0.0063255373,-0.0023166593,-0.002899766,-0.004609812,-0.004399257,-0.0036751274,-0.0040427577,-0.004842177,0.0062763896,-0.0038714074,0.005578965,0.0023353864,-0.005344942,-0.0037107598,-0.0038464423,0.007650312,0.006348612,-0.0033147056,-0.0074412692,0.0038758162,-0.0042313673,-0.00030255876,0.0075454265,0.006130727,-0.007149279,0.00723242,0.0013108533,0.0036004558,0.0067730173,-0.0062035304,0.0064502936,0.0053553823,0.00023943745,0.004909463,0.006253965,0.005411893,0.0065465067,0.0032569729,-0.0026032794,0.0072729755,0.004930174,-0.0044324007,0.0038527008,-0.004559554,-0.006800512,0.007517023,-0.0049850196,-0.0068326853,-0.0072774254,0.00010247715,0.00029275566,-0.004277421,0.00077352114,0.006739078,0.003340425,0.00050158054,0.0020035729,-0.0037425794,0.001310613,-0.0031109191,0.0061248075,-0.0048397314,-0.0064452514,0.0043907594,0.0065753944,-0.00053020194,0.005916463,2.7485192e-05,-0.002721738,0.00417169,-0.0031934623,0.00010288693,0.0070520025,0.0038063992,0.00022456236,-0.00335907,0.006420912,-0.002447378,0.00038049184,0.0028036144,0.004438311,-0.0054423213,0.0058887247,0.004387494,0.006271517,0.003907023,-0.0070106257,-0.0041333064,0.0076317824,0.006577052,-0.0041304287,-0.003766045,0.0029013716,0.00029709376,-0.005630845,-0.007374916,-0.0011736061,0.0063707493,-0.0055619124,0.0004491806,0.0007621031,0.0007298067,-0.004446665,-0.0052984115,0.0040297043,0.0018954743,-0.0023189578,-0.0049658436,0.007285664,-0.0031029936,0.0067114998,0.0014719628,0.0032542665,-0.001031585,-0.001966536,-0.00411791,-0.001400046,-0.006590752,0.0002551172,0.0012163352,0.0019970052,-0.00675907,0.004520215,0.0019495562,-0.001401741
miRNA_24,-0.0053793285,0.0030016657,-0.002664378,-0.0043254104,-0.0002797637,0.0047603883,0.006022772,0.0066354256,0.00066836365,0.004571734,-0.0001773648,-0.0047266725,0.006258823,6.419048e-05,0.0065775774,-0.0053800736,0.0044375136,0.006661549,0.0075093824,0.0074291956,-0.0016778111,-0.0025544893,-0.0050145593,-0.002047196,-0.005817855,0.004329065,0.001087496,-0.0035674702,-0.006875191,-0.0071668047,-0.0052765813,-0.0043447837,-0.0049972963,-0.0056136306,-0.0047326908,0.005381448,2.1316111e-05,0.003602758,-0.0069366544,0.0038664527,-0.0064364057,0.0026103258,0.0028517991,0.0064770114,-0.007520074,-0.0032493528,-0.0040320586,0.0011620466,-0.0028185137,0.0021454003,-0.0066803116,-0.006985523,-0.0015850216,0.0066262186,-0.0037853234,-0.0024790429,-0.0065761544,-0.0062292293,-0.0016251821,0.00080779754,-0.0019728038,0.0043595824,-0.004926089,-0.0038367677,-0.0013008378,-0.0017981529,-0.0073125064,-0.0038396232,-0.002579704,-0.0017763898,0.0054846928,-0.003051458,-0.002604181,0.0066126715,0.0044803955,-0.0068670977,-0.0014496204,0.006603984,-0.0006933231,0.00301156,-0.0073838327,0.0003766697,-4.5724213e-05,-0.0070154984,0.0015237182,-0.0044728257,-0.0038048662,0.00686278,-0.0026051495,-0.00645181,-0.0045965053,0.0031029116,0.0007518362,-0.002622323,0.0042726137,-0.0020387229,-0.0017562266,-0.003168609,-0.0020513535,0.001857508,0.0025491975,0.0014701281,0.0019304268,-0.0065560006,0.006918894,0.0046189204,0.0003129728,0.00092219375,0.0017043743,-0.00015189312,-0.0052659884,0.00040809996,-0.0043813586,-0.004961325,0.0023626834,-0.000110685825,0.0070800297,-0.005420288,0.007054407,0.0031176563,-0.0068313032,0.0039063245,0.00506809,-0.0014097523,0.005186742,0.006680187,0.0005792733,9.662099e-05
miRNA_25,-0.16266279,-0.010326535,-0.1677462,-0.27439186,-0.16269879,-0.061276954,-0.026415594,-0.109432355,-0.05487404,0.1328433,0.19798522,-0.37340823,0.14411975,0.022415444,0.09526813,-0.13586998,-0.17111215,0.30908236,-0.009719575,0.061090913,0.19417399,0.37124577,-0.039436623,-0.2627864,-0.1850776,0.03936179,0.16198267,0.43885687,0.042200174,-0.2872994,-0.14610957,-0.22562394,0.16282418,-0.0005379279,-0.028171087,0.16528438,0.19386674,0.008084888,0.15713073,-0.047834713,0.2732128,0.23161572,0.0068073743,-0.12557499,0.45729548,0.04018432,-0.38684368,0.01984638,-0.074042484,-0.23739834,0.37990597,0.0023741291,0.037996378,0.07195656,-0.006258393,-0.028502218,-0.040466398,0.024537599,0.00590093,0.03092934,-0.25431544,0.08529685,0.21021663,0.2843453,0.1366683,-0.087129116,-0.15317497,-0.077763,-0.09993597,0.13387452,0.07994202,-0.06041677,-0.021937124,-0.06049752,0.08154756,-0.41967943,-0.40792817,-0.24630897,-0.20365633,0.0073218727,0.17301634,-0.31908005,0.042516265,0.20652343,0.39500922,0.17837206,-0.064484455,-0.114829004,0.09244041,0.18799654,-0.029299656,0.08583449,0.099699035,0.29589033,0.093594894,0.2953198,0.029151028,-0.13221309,0.19402324,0.121387795,0.030262431,0.24988271,-0.08941924,0.11113694,0.076412655,-0.054280434,-0.03962262,-0.1335832,-0.3883965,0.18692435,-0.13138317,0.28363153,0.20991236,0.28160328,-0.009833487,0.08863705,-0.2532423,0.116535194,-0.1658474,-0.2307012,-0.13705772,-0.11388925,-0.079905935,0.030760065,-0.2760918,-0.00223355,-0.09871131,0.12479249
miRNA_26,0.25456288,-0.11028511,-0.06318242,-0.027731298,-0.19452907,0.08561564,0.3735194,0.19596945,0.023608737,-0.063712,0.12182074,-0.22757196,-0.14671881,-0.08761881,0.3921136,-0.056850906,-0.29101837,0.1071316,-0.4151091,-0.090641394,0.0644737,0.1522562,-0.3319677,0.014259715,-0.5898229,0.038370077,-0.016828105,0.20463851,-0.23649457,-0.13177383,0.25504267,0.22968018,-0.17433399,0.09004358,-0.087927036,0.38885623,0.004399042,-0.16951764,-0.4354565,0.035965364,-0.23640119,-0.105636925,0.07470717,0.26344234,0.049029563,-0.3157501,-0.05787162,-0.016048161,-0.16383,0.018182883,-0.007851542,0.00084434054,0.23483296,-0.18205927,-0.3885781,-0.13593279,0.23218195,0.21176158,-0.14490764,0.3010018,-0.40974447,-0.24497226,0.1525761,0.27373195,0.29893366,-0.13222426,0.26244482,-0.00014394388,-0.1650467,-0.15036726,-0.20961964,-0.23245981,-0.09803739,-0.098658465,-0.018835766,0.0696633,-0.1166137,0.0145710055,-0.2605618,-0.30645326,0.16086346,-0.25131917,0.2992189,0.23636554,0.09933497,-0.06293889,-0.054734737,-0.5422637,-0.051791266,-0.008535044,-0.27050224,0.41647625,-0.19982085,-0.074210994,0.043964483,0.012935845,0.22972815,-0.18216395,-0.15539956,0.34155104,-0.15786378,-0.00568445,0.0054399385,0.16086835,0.019431042,-0.02032679,-0.10452929,-0.06443846,0.007126294,0.06958349,-0.15584199,0.012906833,0.05265352,0.25419065,-0.1331061,0.032805666,-0.5443342,0.17993197,0.155769,-0.22685158,0.011920276,0.10249298,-0.1678971,-0.068976566,0.19384648,-0.27226806,-0.07740415,0.12398242
miRNA_27,-0.0017146748,0.002943594,0.0022351425,0.0074207075,0.0067188684,0.0042775683,-0.006016843,-0.0038384143,-0.0005733259,-0.0021876153,0.005379848,0.0034422968,-0.0034009013,-0.00076489337,-0.007326465,-0.0026392452,0.0068633463,0.002070628,-0.0073718876,0.0036710259,0.0065134447,0.004787734,-0.0015159622,0.0068339594,0.0038089268,0.005720323,0.001607852,0.0052290875,0.0051598176,-0.0058845095,-0.007621048,-0.0015501771,-0.0058569517,0.007182436,0.00010541454,-0.0046657007,-0.0074901525,-0.0038618091,-0.0006271899,0.0005996488,-0.00021391176,-0.0061138812,0.0038336404,-0.0017722715,-0.005878892,0.0051423702,0.00019776635,-0.0016157143,0.0023487452,-0.0062553566,-0.0030996967,-0.0045034997,-0.007595511,0.001586115,0.0057600196,0.0011998601,0.0032830816,-0.0014601648,-0.0004740823,-0.0012523402,-0.0069561563,-0.006583819,0.0042101797,-0.002634542,-0.0016640313,-0.0056540966,-0.002231814,-0.006969098,-0.0049420744,0.0010792203,0.002189463,-0.00545232,0.0058062114,-0.0064514354,0.004842872,0.00029317848,0.0043583326,0.0056909677,-0.0060217865,0.005041275,-0.0035469774,0.005774183,-0.0049815327,-0.004080618,0.004964294,-0.003105566,-0.005526997,-0.0016361885,0.00080902316,0.0048997886,-0.0051171556,-0.0016631428,-0.004206676,0.0019598883,0.002245862,0.0033780523,-0.0023736693,-0.005169835,-0.0020975154,0.004030796,0.00072177313,-0.0031083673,0.0075737834,0.0045480058,-0.0063666087,-0.0045366324,0.00280332,-0.0052601956,0.007806234,-0.0033198372,-0.0065218788,-0.0056995526,-0.007122388,0.003628876,-0.0059963074,-0.0013915859,-0.006806694,-0.0056660045,-0.005220663,0.0074494444,-0.004959667,-0.0076534394,-0.0070835184,-0.004343504,0.007132273,0.0030986443,-0.004887672,0.0045344755
miRNA_28,0.004319668,0.004422631,-0.003983494,0.0041431654,0.00044856407,-0.0025661178,0.007142216,-0.005252827,-0.0038205795,0.0037153643,0.004972333,-0.0028219465,-0.0027677119,-0.006399948,-0.0025742035,0.0027963202,0.0074549112,-0.005876988,1.770258e-05,-0.0059426185,-0.0058036353,0.007138226,0.002598554,0.0027021393,0.005500702,0.003630057,0.0068089496,-0.0073232446,0.006286813,0.004532676,-0.0012894943,0.004879333,-0.006022021,-0.0033618286,-0.0058525763,0.0037877057,-0.0072608218,-0.002508182,-0.00042624585,-0.007066885,-0.00020055659,0.004171239,0.003947301,0.006025998,6.354228e-05,0.0037059896,0.0022731945,0.0011362564,-0.005741665,-0.0028455406,-0.0065807514,0.007356355,0.0030333176,-0.0068618655,-0.0038037281,-0.0069465265,0.003152363,0.0061703194,-0.0042807385,-0.0009909794,0.00058464706,-0.00312501,0.0064033847,0.00044039637,-0.001698345,0.0077574607,0.0015021805,-0.005999921,-0.006120544,0.0046674553,0.0016418025,0.0068627745,0.0073484126,-0.005690625,0.005228415,0.0030591283,-0.005856799,0.0043843817,-0.0072530434,-0.002671184,0.0047146883,0.0022016559,0.0051440652,0.0054608025,-0.003639467,0.0049374867,0.0019724146,-0.0007224679,0.0024532229,0.0020656958,0.0055405237,0.0045342464,0.0010589808,0.0053291228,0.0007591136,-0.007230308,0.004850764,0.0035825986,0.0018262155,0.0021390803,0.007087432,0.0053917076,-0.0074906945,0.0016103797,-0.0033094678,-0.00088150613,0.0060664974,-0.0054872837,0.007193895,0.0055955984,-0.0043247677,0.0020700675,-0.0029954743,-0.00094574876,0.003759995,0.0066948477,0.007205257,0.0024755355,-0.0029969532,-0.0039106105,0.0052781887,-0.004250828,-0.0022427458,0.0007124655,0.00580409,-0.0020607337,0.004289856,-0.00035677478
miRNA_29,-0.0046919305,-0.0058484953,0.0036031734,-0.00071792863,0.0050982125,-0.006750008,0.0029763896,0.006452121,-0.007460773,-0.0056601986,0.006414935,0.0038038604,0.005674418,-0.0042840205,0.004782172,-0.0065131392,-0.0046136007,0.0009833295,-0.0026523545,-0.0029924344,-0.0026288107,-0.0022758543,-0.0031223148,0.006420115,0.0053435043,-0.0012732483,-0.0065070465,-0.00081569515,-0.004471494,0.004618114,0.0046872515,-0.0030667782,0.00011123344,0.00196491,-0.005808281,0.0008408502,-0.0026175305,0.0041139033,-0.004516734,0.0034385007,0.0056205727,-0.0076580103,-0.0060783066,-0.0011337213,-0.0026800074,0.0016165469,0.0058006253,0.0063244905,0.002492059,-0.00035799667,-0.004981162,-0.0041192565,-0.0035482626,-0.006986251,0.006855989,-0.001467485,-0.0053493828,0.0030454807,0.0017317943,-0.0018034279,0.0010854751,0.0070292354,-0.0035499148,-0.0048683845,-0.0031496268,-0.0045386404,0.0011814851,0.006333638,0.002971856,0.0038447268,0.0048664603,0.001630228,-0.0002520401,-0.0031579211,0.0032481365,0.001023788,0.0029995237,-0.0026852097,0.00079502724,-0.00074965134,-0.002814101,-0.0023797844,-0.005882267,-0.0066052414,0.00649786,-0.0051731244,-0.000987852,-0.0017909091,-0.0073353183,-0.006169645,0.005176937,-0.004609542,0.0011417381,0.004066998,-0.0038553402,-0.0011844672,0.0032801349,0.0036559459,0.0036348663,0.0017337631,-0.0014636554,-0.007191358,0.0011683498,-0.00023684278,-5.585514e-05,0.0072693657,-0.00657098,0.0047397297,0.0030088164,-0.0027941596,-0.000115128234,-0.005867632,-0.0043895096,0.007396374,-0.0067509413,0.0038789771,-0.0042086206,-0.0060649645,0.0039653294,0.0076680835,0.0008089766,0.0077969655,-0.003196055,0.0040855072,0.0011182036,0.00498439,0.00038807653,0.0070183
miRNA_30,0.00032244436,-0.0026849303,0.0010151844,-0.0029347744,-0.0034632739,-0.0035826284,0.00037040748,0.0049032066,0.0011820756,0.0059516374,-0.0026780386,0.00036564097,0.0025345683,-0.0050341655,0.004590664,-0.0016458295,-0.0028382614,-0.0033213105,-0.001185339,0.0006668493,0.0023743287,-0.0065495744,-0.0059451386,0.0056117065,-0.0022440348,-0.0054474436,-0.006573703,0.0011790246,0.006689826,-0.0044201594,0.006768657,-0.007544739,-0.0070893,0.0020862482,0.0037145,9.07965e-05,0.003156228,0.0036659017,0.0045495983,0.0033995975,-0.0029209238,-0.007486852,0.007554041,0.0018927045,-0.0009527635,-0.0007517934,-0.0007301178,-0.0055159032,-0.004201466,-0.004478138,-0.0025492609,0.0044501666,-0.0025892016,-0.0017745253,-0.0024664141,0.0027533844,0.0023368075,0.0065552946,-0.004055368,0.0058137216,-0.0074727293,-0.0072195698,4.1818246e-05,0.006079333,-3.6811456e-05,0.0015327726,0.0028543267,-0.00050145946,-0.006053921,0.006853562,-0.0030818991,-0.001010498,-0.005223954,-0.0027088448,0.005851643,-0.00083963946,-0.0012866072,-0.00299903,-0.005382385,6.756559e-05,0.003270099,-0.0045289155,-0.0025921538,-0.006130513,0.0061633047,0.0072087906,-0.005807463,0.003017569,-0.0010477938,-5.2731484e-05,0.0025668219,0.00018952787,0.00076922216,0.0011561811,-0.0053349826,-0.0038587004,-0.0011437982,-0.007765241,-0.0005511604,0.0033351257,0.0020801164,-6.441586e-05,-0.007267479,-0.0071883053,0.005837716,-0.0063826647,-0.00667239,-0.004755903,-0.0065444894,-0.00053554773,0.0014153682,0.0072122253,0.0010234546,0.0021714047,-0.0030759666,-0.005363019,-0.0028779525,0.0028306432,-0.00060409494,0.0023161117,0.001158936,-0.0035058688,4.7182664e-05,0.0021761004,0.003943896,0.00039196946,-0.0010458063,-0.0073012486
miRNA_31,-0.26115936,0.25709105,-0.2738092,0.2632527,0.11387289,-0.17060183,-0.35635915,0.4347387,0.31120306,-0.2721683,0.19847398,-0.035236333,0.22186808,-0.28753567,0.27882943,0.08521747,0.02607873,0.41486022,-0.60705525,0.42327276,0.019515902,0.094802864,0.17269935,0.06328705,-0.23997885,0.2465172,-0.38375613,0.27813554,0.21843718,0.08717144,-0.34210894,-0.281726,0.4179556,0.16249575,0.01613483,0.25259063,-0.34446028,-0.26429492,0.012591654,0.10976043,-0.32603076,-0.44636464,-0.2549356,0.11427653,0.034037028,0.23353249,0.29197037,0.24049763,-0.46428844,0.22823277,0.33728108,-0.5470228,-0.116413444,0.13615556,-0.156662,0.034778006,0.1773328,-0.251018,0.13150711,0.030177783,-0.016562762,0.07971926,0.1440669,0.13466315,0.3200291,-0.32469985,0.10437305,-0.014687333,0.06905045,0.022301752,0.16310234,0.4420206,-0.12984033,-0.12221509,-0.05293462,-0.06889928,-0.010038821,0.48441505,-0.4406895,0.07620544,-0.03356796,-0.47635993,0.016807454,0.06531684,0.36541438,0.08914744,-0.05390797,-0.007284207,0.07013433,0.21816207,0.31301007,-0.16670482,-0.105334714,0.19208753,-0.0034986632,-0.26910838,-0.20985144,-0.31751636,-0.04002413,0.013658146,-0.24706155,-0.2078899,0.13839273,-0.042016115,0.18386707,-0.13742231,-0.18444562,0.13562246,-0.42376956,0.2577212,0.08279169,-0.55452573,-0.05356654,0.27869928,-0.2856431,-0.070774555,0.002988612,0.05240858,-0.078565925,-0.057059485,-0.112678096,-0.44224423,-0.029727507,0.3888182,-0.13895845,0.14470212,-0.0031697294,-0.02117513
miRNA_32,-0.0043115653,-0.006868746,0.006247731,0.0021608956,0.005931517,0.00012898631,-3.5841018e-05,0.0070893895,-0.007186368,-0.0067788344,0.004362965,0.007480068,-0.002456313,0.0037312768,0.0049981587,0.0055991895,6.131269e-05,-0.0062645487,0.0022832174,0.00489169,-0.0068967324,-0.0025297925,-0.0022821873,-0.0038180482,0.006489465,-0.005125895,0.005230464,0.0015854575,-0.0059289187,-0.002294179,0.001219511,-0.0031148717,-0.003807092,0.0039861966,0.003499234,0.006391406,0.0050938018,-0.0027757417,0.0015025046,0.00739149,-0.0007478073,0.004627319,0.00057915226,-0.0070745535,0.0046638846,0.007751446,-0.007072389,-0.0026228148,0.0016279109,0.0023133233,0.0072128084,-0.0033054892,-0.0015147161,-0.0050242804,-0.0015378725,0.00591651,-0.0072718803,0.0060523674,-0.002468627,0.005654104,0.0022242982,-0.0031509884,-0.0065788366,-0.0038288552,-0.004259901,0.0003523752,0.001997346,-0.0048737396,-0.0056454316,-0.0012659822,-0.0017921589,-0.0028423965,0.0032122284,0.005167855,-0.0036061574,0.0052424837,0.0052960776,-0.0016086455,0.0036643222,0.0067831036,0.0071844906,0.0068450384,-0.007528968,-0.0077656284,0.0064516924,-0.0061801746,-0.0019855332,-0.001405919,0.0073106457,0.0030297358,0.0033002906,0.00024360977,0.0005000718,-2.91951e-05,-0.00200418,0.007300442,-0.0054928586,-0.0077288933,-0.0067758914,0.0073079783,-0.0047754087,0.0043431316,0.0051800497,-0.005503854,0.004780242,0.0070413593,0.005029248,-0.004676927,0.000902554,-0.0028635953,0.00630551,0.0069376994,-0.007169811,0.0054883063,-0.0023987442,0.0035934597,0.0071828533,0.00082059763,0.005654646,-0.0073868725,-0.0028955787,0.0062713493,0.003517503,0.0069561563,0.0058004074,-0.007751584,-0.0013368092,0.0023201164
miRNA_33,-0.0068337377,0.002117699,-0.001801908,-0.0070457403,-0.0034945402,0.0012827795,0.001667913,0.0034969673,0.0045172367,0.005979972,-0.00042134523,0.0039274655,0.0061746053,0.0064195357,-0.003950106,-0.0067128055,-0.0024919193,-0.004315922,0.0031024609,0.0070078503,0.003530888,0.0059564207,0.0010556821,0.005961597,0.00072337873,-0.00047329254,0.0034318492,-0.0067968536,-0.003929341,-0.002942752,-0.007387733,0.0034890044,-0.0073522218,0.0026011374,0.002436351,-0.0056874044,-0.003493853,-0.0064812023,-0.0040629525,-0.006657174,0.00085330196,0.0018655211,0.005064763,-0.0029390864,0.007330967,0.003158616,-0.006154632,-0.0034985188,0.0005802829,0.0044955704,0.0011053979,-0.002804909,-0.0022757389,0.0056530423,0.0017907172,0.005487494,0.005670741,-0.00478415,0.0006393008,-0.0030257218,0.0013050232,-6.5365806e-05,-0.0036453567,0.007042952,0.004297739,0.0062884074,0.0048255213,-0.0005549621,0.0021860562,-0.0011802241,0.002912473,0.0073406007,-8.6573884e-05,0.0069659334,0.0038844086,-0.0013804361,0.00551017,0.005014641,0.0010007862,0.0047037546,-0.00554025,0.00692755,0.0030123629,0.0028100293,0.000424264,-0.006958347,-0.0019719247,-0.0006680917,-0.003759805,0.007631285,-0.007235173,0.0065427814,0.005960524,-0.0030975621,-0.007073026,-0.0017814692,0.00028825924,-0.0026361253,-0.0053844023,-0.0018290058,-0.0025369842,-0.0008634962,-0.00063550845,-0.0017624758,0.0025807414,-0.0009870026,0.007748898,0.0019502062,-0.0066191535,-0.0016034469,-0.0016947258,-0.0024495944,0.002702348,-0.0009441301,-0.0002626758,0.003602393,-0.0066422224,-0.0048616994,0.0050905515,0.0014343858,0.0005109068,0.0073305145,-0.0075113066,-0.006697882,0.0012017675,0.0041201115,-0.0074612554,-0.00312767
miRNA_34,-0.037347674,-0.0050657378,-0.008725701,-0.09549416,-0.32835674,-0.03784941,0.06707132,-0.009359604,0.14318687,0.103842884,0.1606534,-0.20408677,-0.017703872,-0.14551415,0.16279905,0.11397965,-0.09657985,0.09579094,-0.23219313,-0.004170354,-0.03644504,0.16855232,-0.022272991,-0.097909756,-0.16081256,0.054860927,-0.0449063,0.03523899,0.08727577,-0.10448191,-0.013853234,0.09923222,-0.07667635,-0.0015523249,-0.023410795,0.2669878,0.024322469,-0.10172713,0.073113635,0.05165668,0.05693517,-0.034323998,-0.002358186,-0.02098325,0.16975656,0.16270585,-0.014770912,-0.03217629,-0.104201555,-0.11722318,-0.0344902,0.03812994,0.052316673,0.07545494,0.047093395,-0.1252574,0.10629595,0.2045486,-0.29662296,-0.030745285,-0.2704077,-0.088050544,0.22980711,0.085389465,0.15889017,0.10157685,0.02399108,-0.03972859,-0.033632375,-0.18934241,0.034471653,-0.009629349,-0.12456643,-0.05994616,0.12738179,-0.23978211,-0.11301675,-0.039921854,-0.2778936,0.048378322,-0.061261564,0.06868802,-0.00094065344,0.18759246,-0.021027861,0.04059784,-0.104684554,-0.21000719,0.103580795,0.1834947,-0.011436679,0.17272165,-0.053943038,-0.05402287,0.043005474,0.15328278,-0.1186166,-0.21318462,0.09994228,-0.08025767,-0.16883823,0.12470823,0.072605215,-0.107335545,0.026627436,-0.03210144,-0.11189666,-0.08707087,-0.114638105,-0.025818309,-0.0714641,-0.06145937,0.17572595,0.15957648,0.0215498,0.02811444,-0.36308292,0.20773727,0.018157575,-0.13642596,-0.1484589,0.030758178,-0.0103213405,0.03160534,0.021393003,-0.13058445,-0.25136536,0.04979454
miRNA_35,-0.13890369,-0.026306717,0.31395406,0.008234584,-0.036499728,-0.22589983,0.0026627493,-0.1693888,-0.040585928,0.016706923,0.07848347,0.096929185,-0.27830338,-0.104980074,0.1690009,0.085685074,-0.4052277,-0.19610216,-0.0014122985,0.06528952,0.27472556,-0.10106851,-0.16957688,-0.20670655,-0.10669168,-0.055114932,-0.060670488,-0.19278479,0.3109481,-0.2039183,0.27591518,-0.32121104,-0.24608378,0.17975263,-0.19180708,0.14526232,0.22087108,-0.10332202,0.021645444,0.16043738,-0.026041407,-0.014575011,-0.034125075,-0.15776008,0.053392682,0.089387946,-0.15837555,0.14651233,0.0771558,0.30375373,-0.049788922,-0.074969895,0.0012909623,0.20709181,-0.21718906,-0.11175296,0.15611462,0.23624507,0.012341979,0.06276479,-0.015847424,0.25939682,0.26548263,-0.06145135,-0.0013123769,0.10338223,0.00056975,-0.026006347,-0.31722176,-0.17284234,-0.19650967,-0.18706846,0.006377665,-0.0004165358,0.10543411,-0.31389073,-0.07156095,-0.09620055,0.20193523,0.3345613,-0.06435575,-0.34338135,0.2390525,0.041051522,0.30042768,-0.0049165594,0.3524559,-0.14561102,0.08549999,-0.32170528,-0.11246828,-0.025135614,-0.0709129,0.103986405,0.084651455,-0.09600497,-0.029763812,-0.17615478,-0.19965434,-0.07143893,-0.31168342,-0.19648805,-0.21218997,-0.028826052,-0.24785392,0.08467188,-0.069589235,0.22338594,-0.03820583,0.17991899,0.17334975,-0.0648308,-0.20150319,0.06677482,0.027986964,0.11210329,-0.25605643,0.12843427,0.047979288,0.15165326,-0.21638514,-0.058771577,-0.13075024,0.05420065,-0.054760758,-0.05994804,0.037340015,0.2173733
miRNA_36,-0.15568627,0.085960805,-0.09818423,-0.22190322,-0.124799944,-0.019508366,0.08866202,-0.031258628,-0.07551747,0.14883433,0.18238829,-0.30935282,0.029340649,-0.07526035,0.16621742,-0.22717349,-0.12766077,0.28392267,-0.0026018056,-0.06159132,0.0952338,0.39453194,-0.034338802,-0.20691967,-0.14801422,0.018147767,0.16686462,0.35202098,0.14665622,-0.37802038,0.012642346,-0.22313079,0.06330153,0.11389959,-0.056982636,0.085734725,0.22929774,0.08323051,0.196479,-0.049036145,0.019796899,0.16112943,0.009607927,-0.10331952,0.34053692,-0.019860663,-0.2924848,-0.017132936,-0.12968156,-0.24943794,0.27685916,-0.03319712,-0.076232366,-0.09012427,-0.003663844,-0.08692005,-0.059354838,0.05288668,0.041151818,0.18827087,-0.26950243,0.15340838,0.17844024,0.20961238,0.15875937,0.022012886,-0.19780652,-0.17242274,-0.16811231,0.13115162,0.10728276,-0.06727465,0.01588311,-0.04873309,0.035511587,-0.4059774,-0.38020068,-0.22305375,-0.10290348,-0.015709616,0.13626647,-0.4064082,0.1702935,0.25676584,0.33395365,0.25772926,0.048587997,-0.24079277,0.11029771,0.07657934,0.0014466605,0.10019287,-0.10737934,0.17629243,0.15627885,0.34955657,0.017154358,-0.16897368,0.10751332,0.032832693,0.04630369,0.17458783,-0.17258163,0.07915819,0.08047325,-0.068118535,-0.066497855,-0.026807321,-0.32489803,0.23911388,-0.19550459,0.0784843,0.29750788,0.24482726,-0.022054998,0.2225903,-0.30845445,0.10935171,0.032804284,-0.22121453,-0.174093,-0.11174249,-0.07460045,0.028738385,-0.23835865,-0.087478064,-0.07945566,0.10167627
miRNA_37,-0.19719854,-0.17718671,-0.16188255,0.14094487,-0.14946258,-0.20008458,0.023220535,0.062488355,-0.07376906,-0.049063392,-0.05278437,0.104421444,-0.17828837,0.21497893,0.016670302,-0.18179901,-0.20294884,0.22998127,0.04803149,0.24213094,0.12831914,0.23727573,-0.2075335,-0.29045668,-0.20122565,0.32018018,0.3137463,0.35030642,-0.17040034,-0.23886889,-0.05246195,-0.068872795,-0.14571401,0.016019592,-0.12398608,0.25384554,-0.0491971,-0.10397905,-0.03209771,-0.00023240903,-0.20714663,-0.16795796,-0.10230993,0.010750821,0.21741201,0.12163354,-0.046110064,-0.24248256,-0.06937709,0.0018156075,-0.15988909,-0.042685825,-0.21982147,0.21944132,0.10750244,-0.017574238,0.033131905,-0.050600193,-0.19054396,0.09269374,-0.29631516,0.009141398,-0.05104321,0.1525892,0.14329141,0.05769029,0.1976239,-0.029583974,-0.17116946,-0.26617333,-0.018031014,-0.022878021,-0.1328624,-0.28703037,0.20392385,-0.090564825,-0.36606997,0.01993576,-0.14194219,-0.09204303,0.16880523,-0.29568422,-0.21759333,0.24354264,-0.22337523,0.077253595,-0.1388135,-0.108903304,0.100698434,0.22909027,-0.3234965,0.18271697,0.21047229,-0.32013437,0.1400067,-0.14701313,-0.26265013,-0.014187564,-0.13566262,0.17972338,0.0692791,0.1771955,-0.12902363,-0.13457142,0.072140716,0.066439524,-0.051874727,0.0645449,-0.0857118,-0.24657355,0.16754983,-0.16600038,0.16388786,-0.013409651,-0.11133166,-0.008969206,-0.22599582,-0.093500555,-0.1055953,-0.0445706,0.10134645,-0.1446856,-0.0651569,-0.10528879,-0.2162331,-0.20441626,-0.037123702,-0.25608364
miRNA_38,-0.22792263,0.07023878,-0.13519195,-0.023773633,0.014082391,-0.010384537,0.10548801,0.06639852,0.058140967,0.111969516,-0.00028027836,-0.037791934,-0.10837746,-0.012198165,0.1423576,-0.08602427,-0.12512136,0.19430193,-0.09314958,-0.03070947,-0.0059951274,0.15565936,-0.040131446,-0.190161,-0.10220693,0.45090207,0.25526246,0.100938946,0.035476625,-0.12275324,0.16734679,-0.049986634,-0.19471084,0.12410145,-0.11104256,-0.05909035,0.017641759,-0.16615431,-0.042350393,-0.1418707,-0.07507944,-0.16737773,0.079058915,-0.21929322,0.20439558,0.12441267,-0.045938376,-0.19848724,0.082611725,-0.136514,-0.15400103,0.039405998,-0.21014477,0.113714926,0.14708447,-0.07322457,0.1565515,0.074987344,-0.12122449,-0.011413146,-0.15866749,0.02847556,0.004464169,-0.006530269,0.20422222,0.1401623,0.14891125,0.09609961,-0.27527955,-0.051193364,-0.032095343,-0.032336198,-0.17616484,-0.15997346,0.102421895,-0.12980658,-0.15881486,-0.0067700054,-0.10551644,0.050447214,0.07654182,-0.20475842,-0.10440597,0.25389302,0.029524934,0.0833046,-0.08683826,-0.36422682,0.029342107,0.14349796,-0.16790533,0.22258852,0.06276268,-0.21900088,0.37949732,-0.16067623,-0.22371152,-0.03366981,-0.3357755,-0.10636656,-0.08250949,0.055616885,-0.051691577,0.12667157,0.081967734,0.10663091,-0.19079,0.23854895,-0.08188687,-0.25760043,0.08024521,-0.33800322,-0.025770066,-0.056026913,0.1406031,0.06339486,-0.25926676,0.11848586,0.0218689,-0.047589023,0.056438737,-0.20029499,-0.021802172,-0.054231852,0.014533712,-0.2486635,-0.11248362,-0.21111344
miRNA_39,0.00018960983,-0.006827835,0.0035423897,0.005710315,-0.0047595575,0.0071001723,0.0011346191,-0.0077642146,0.0045027807,-0.0021436885,-0.0045052804,0.00745504,-0.0009862855,0.004509913,0.0023446474,-0.004985735,-0.0018173996,0.0065419264,0.0033294018,0.00092941336,0.00047121383,0.006908063,-0.0054653995,0.007255042,-0.002628222,0.0074378382,0.0027793683,0.0023760032,0.0005672388,-0.003099583,0.0074592754,0.0038608368,-0.0023370776,-0.0010822173,-0.005682515,-0.005106872,-0.0016130153,-0.0048426148,-0.0056839585,-0.00471773,0.005343724,0.006880261,0.00626543,-0.0044538137,0.001150839,0.0043697506,0.005528912,-0.00082176365,-0.0031200238,0.004985485,0.004860064,-0.004708823,-0.003973482,-0.005179772,0.0027570147,0.004884757,0.0034558326,-0.0032616816,0.0071946606,-0.0053165667,-0.00050215237,-0.0056211725,0.0055291783,0.0023252927,0.0042935777,-0.0043649822,0.004599672,-0.0043791197,0.0065118726,-0.0046893544,-1.3366342e-05,0.0007658694,-0.004947217,0.0029584598,0.0066552274,-0.0050531533,-0.007046096,0.0060790014,0.0020254664,-0.0013935212,0.006194316,-0.0054710265,0.0025523212,0.003780255,-0.0030283257,-0.005026631,0.0043673404,0.005677238,0.0008622259,-0.0048326068,0.004693413,0.0013800487,0.0077864043,-0.006683275,0.00674551,-1.2490898e-05,0.0033190772,0.006095683,0.007130379,-0.001284875,-0.0018448383,-0.007574741,0.00039645657,-0.003175864,0.0031583179,0.0012218654,0.0043556914,0.0063782,0.006090995,-0.0047772303,-0.0043388065,0.0024142917,-0.0039976873,-0.0040002353,-0.0044255015,-0.0014806502,0.00751115,-0.005533371,-0.002475854,-0.0017174333,-0.0019327719,0.0059811063,-4.55752e-05,-0.007773299,-0.0022818502,0.00047063455,0.0011269078,-0.0044936966
miRNA_40,-0.16666286,0.03482931,-0.048479825,-0.071658105,0.31009182,-0.17352766,0.16010426,0.03693538,-0.089502394,0.0558404,0.046831768,0.0043425295,0.07458556,-0.1931585,0.05406151,0.19098108,0.026791815,-0.07092722,-0.33474746,0.18111831,-0.06612785,-0.039021198,-0.3764634,0.11376592,-0.028258275,-0.28402334,-0.039513707,-0.07068644,-0.0021175442,-0.16928796,0.02000684,-0.16417417,-0.18216993,0.0665289,-0.07554072,0.38816223,0.04718342,0.094590314,-0.07893724,-0.20382866,0.21749708,0.15285626,-0.22855455,-0.21456139,0.14101925,-0.2838602,0.024451748,-0.06715294,0.05132694,-0.18442827,0.09891692,-0.15464768,0.18609,0.37180108,0.18884355,-0.0044497857,-0.06820211,-0.07580767,0.039162528,0.1778422,-0.0367576,0.25349206,0.45226935,-0.002500224,-0.32922143,-0.0049531017,-0.11557239,0.1716661,-0.16205455,-0.45924705,0.25631785,-0.4829608,-0.24890049,-0.060086418,0.09031037,-0.4158111,-0.28626248,0.02210225,-0.35818377,-0.16063927,-0.24726447,0.06301505,0.14092383,0.30609012,0.09162547,0.10017381,-0.018703172,-0.24696255,0.35609245,-0.052218508,-0.09226171,-0.11031155,0.15237848,-0.11062623,0.11040096,-0.16784559,0.01838647,0.023380335,-0.15725577,0.13644099,-0.16557595,0.08738346,0.10567166,0.16502614,-0.27516496,-0.35785562,-0.17115168,0.24186717,-0.0539247,-0.017871805,0.059170272,-0.20794272,-0.07211598,0.28747657,-0.00822846,-0.043276805,-0.16123378,-0.15722303,-0.065160744,0.0007540712,0.0024839551,-0.2932133,0.12799887,-0.17246176,-0.17462942,0.29061136,-0.19594273,-0.27939436
miRNA_41,-0.21301742,-0.053854425,-0.09959607,-0.10253565,0.27057773,0.003910709,0.02794933,0.017234763,-0.09748236,0.097113326,0.13137859,-0.030420398,0.17541707,-0.21607937,-0.07789798,0.14325601,-0.008757171,-0.038037542,-0.41641748,0.16246374,0.0405977,-0.093459584,-0.38488612,0.09742769,0.043652672,-0.21313989,-0.007959527,-0.13598372,0.00861021,-0.079000935,-0.03279739,-0.12118028,-0.16300552,0.17089306,-0.13503395,0.40701318,0.014937809,0.010207374,-0.09016803,-0.084747694,0.19971594,0.19578108,-0.14033929,-0.082744166,0.084864415,-0.26243597,-0.024817988,-0.069695204,0.14581908,-0.09854741,0.10456178,-0.111885756,0.14097846,0.43088314,0.21965249,-0.027976375,0.00496564,-0.18163037,-0.09027437,0.10435786,-0.045290332,0.18765998,0.45030898,-0.07044854,-0.29172036,0.021812096,-0.20931968,0.19645528,-0.22743158,-0.31914476,0.22912149,-0.5282201,-0.22362997,0.08582143,0.14076401,-0.35391548,-0.29924986,-0.033005472,-0.27017105,-0.23622783,-0.27744475,0.06183305,0.091213614,0.38641632,0.08675976,0.19391514,-0.0988635,-0.29136887,0.3272314,-0.07070506,-0.029677274,-0.1688826,0.13257883,-0.06773411,0.16615228,-0.21039271,-0.01543442,0.03893831,-0.15970854,0.1402101,-0.10660426,0.18678087,0.054348823,0.23708019,-0.22132616,-0.3166434,-0.27033037,0.2087311,-0.014430489,-0.12136225,0.05226305,-0.35741976,-0.0050592883,0.403499,-0.047662184,-0.1860951,-0.22808297,-0.07584945,-0.16039321,-0.041719813,-0.061581746,-0.24789684,0.2503035,-0.16563334,-0.19846767,0.23480083,-0.1458682,-0.19206072
miRNA_42,0.004738502,0.0056166723,-0.0013859272,-0.0017284136,0.0002034381,-0.0063784122,-0.0065517984,-0.0026038066,-0.0038716532,0.005945513,-0.0035095047,0.0053900126,0.0043716896,-0.0056703743,0.0009750575,-0.0074994657,0.0032103006,0.0054157916,-0.00477631,0.0020087566,0.00017000176,-0.0032434948,-0.0061208755,0.0061729047,-0.0040484443,-0.0067924876,0.0054389965,-0.0065080356,0.00087191723,-0.0054123886,0.0064777397,-0.0018499009,0.0018094778,0.0056358557,0.0040520485,-0.0056689177,-0.004325282,0.0069929045,-0.0064222794,0.005983291,-0.0047006533,-0.0020109713,0.0025834646,0.0076838657,-0.0020901822,-0.0009768978,-0.0023186244,-0.0028265826,-0.0009519961,0.006648125,-0.007484067,0.0049283374,0.0055679735,-0.0061462913,0.0051117055,0.0072734933,0.001042679,-0.00023600645,0.0035623256,0.0014143027,-0.0074414928,-0.00598057,-0.002954539,0.0053422395,-0.00311427,0.006214779,0.0032601561,-0.0050946847,-0.005974345,-0.0034203064,0.0031948239,0.0061230976,-0.00054553896,-0.0074517652,-0.0018446725,-0.0019290894,0.00025337562,-0.005122982,-0.0047342908,0.0020275079,-0.0011974256,-0.0034324434,-0.001583973,0.0023681205,-0.0020990968,-0.0044811685,-0.0035766661,0.005904272,0.0055175703,-0.005919935,-0.0016498137,-0.001691116,-0.003882669,0.002745375,-0.007730078,0.00155898,0.003743425,0.0018941462,-0.0029278602,0.0036414415,0.004148308,0.006189773,0.006247727,0.0055052415,-0.002352409,-0.0026291646,-0.002052715,0.002702577,0.00065341033,0.00350455,-0.004447935,-0.0024627745,0.006392915,-0.0043494366,-0.006675413,-0.0074266754,0.0048261043,0.007019084,-0.000773035,-0.0071341097,-0.0012463499,0.0031310339,0.0042038094,-0.002005525,0.00060496666,-0.0004959088,0.004919132,0.0005112719
miRNA_43,-0.04358807,-0.08474735,0.08088439,0.015183233,0.19378226,0.12862308,-0.0066030184,-0.13588634,0.015752792,-0.019687928,-0.066553876,-0.3601827,-0.060274728,-0.12935565,-0.09116747,-0.18466842,-0.13748801,-0.20345847,-0.3605228,-0.1534529,-0.027564751,0.079541385,-0.11659172,-0.030101772,-0.15073562,-0.1306053,-0.099859685,-0.28005737,-0.054504186,0.05993491,0.19417349,-0.4142408,-0.10001094,0.12923193,-0.22464074,0.35782543,-0.0011140126,0.31107277,0.07983643,-0.3152341,-0.237529,0.2640496,-0.22632106,-0.20949185,0.100749075,0.2966598,-0.03879008,-0.3275349,-0.042180296,-0.2863933,0.16549596,-0.032888547,-0.007999927,0.55250144,0.24973114,0.23368806,-0.10050834,-0.32998183,0.12696025,0.10474167,0.031454664,0.18607278,0.46600345,0.13752356,0.0007472376,0.27660862,-0.01267148,0.17471376,-0.076684006,-0.4599937,0.20722656,-0.06927001,0.10235701,-0.2441182,0.16703086,-0.2669365,-0.041561875,-0.096027195,-0.3833335,-0.28286618,-0.267898,-0.009720433,-0.009535894,0.014545219,0.1392894,-0.10348878,-0.032140575,-0.13232277,0.30291247,0.084901676,-0.19212282,-0.15939423,0.26475948,0.3167177,0.105644554,-0.41269657,0.12222616,-0.011070801,-0.095546246,0.33687449,-0.019159125,0.298624,0.23629458,0.24912097,-0.35486177,-0.46896288,-0.24645653,0.20279434,0.09816614,-0.062116623,-0.10679818,-0.16065028,-0.117893636,0.3925992,-0.25285974,-0.040231887,0.007127344,-0.050900497,0.25582615,-0.03051054,-0.26456493,-0.17536885,0.12722357,-0.07843073,-0.24725075,0.08993119,-0.04432004,7.386916e-05
miRNA_44,-0.3133496,0.021760348,-0.052295513,-0.044479977,0.16289416,-0.10476603,0.075432524,-0.04136636,-0.08997471,0.10559475,0.15295835,-0.018888976,0.20502448,-0.06830568,-0.044659052,0.14142187,0.060701337,0.020243954,-0.33790883,0.15513435,0.0019298984,-0.05882597,-0.39514214,0.14840114,-0.10003145,-0.15763117,-0.07528265,-0.07013453,0.002803526,-0.20624797,0.09694028,-0.06329848,-0.23235835,0.05578203,-0.12750685,0.47845083,-0.00067457993,0.16221344,-0.093063585,-0.17134152,0.34861416,0.12471872,-0.17622031,-0.22124667,0.21312714,-0.3209288,-0.092501804,-0.07333621,0.008198469,-0.1266245,0.1787893,-0.15111764,0.12794112,0.41656306,0.06016058,0.051164646,0.06348066,-0.09838246,-0.017708147,0.19332093,-0.08079427,0.21373773,0.40165132,0.08136222,-0.18974183,0.044198684,-0.11481964,0.10343262,-0.106039986,-0.34779888,0.32748744,-0.51529783,-0.0997443,0.12214564,0.08965625,-0.41627878,-0.19562908,0.033409387,-0.33965316,-0.23019482,-0.47727472,0.054120436,0.05296375,0.17865594,0.11603956,0.13427836,-0.1788701,-0.29222092,0.3073586,-0.058979288,-0.09485892,-0.16790576,0.15578784,-0.011231155,0.11524415,-0.26389423,0.0011550741,-0.1068072,-0.12830494,0.15174957,-0.13133961,0.18947826,0.05822448,0.10836531,-0.31762317,-0.34238446,-0.27806103,0.1896745,-0.07419254,-0.06676253,0.07007331,-0.30901846,0.0069979955,0.39023566,-0.06613606,-0.070214406,-0.07326651,-0.09574715,-0.11101419,0.08600582,-0.11209029,-0.18545336,0.14216165,-0.16002719,-0.11651774,0.23092929,-0.21974303,-0.2745725
miRNA_45,-0.32342458,0.052352224,-0.029720506,-0.14575498,0.22931176,-0.1986095,0.12993996,0.0078556575,-0.0956605,0.048191555,0.058168232,-0.074444816,0.14834975,-0.10062203,-0.10934442,0.19538796,-0.067732066,0.023561139,-0.33533704,0.17311427,0.031218722,-0.115824275,-0.31798828,0.10158249,-0.12793297,-0.18325874,-0.07169288,-0.08321385,-0.09589646,-0.13645263,0.07331946,-0.10492185,-0.1791483,0.112259984,-0.17300338,0.45437032,0.019225765,0.084244885,-0.14616865,-0.19389139,0.19910924,0.1434864,-0.08197166,-0.20286731,0.14643493,-0.23928447,-0.0918187,-0.10377741,0.1732797,-0.15780827,0.1744799,-0.16490877,0.12155626,0.43044797,0.14001018,0.10270723,-0.057778906,-0.15415749,-0.012749295,0.2241961,-0.09878177,0.23651208,0.37624747,0.03760476,-0.3519263,0.037097413,-0.16409636,0.20418899,-0.18988834,-0.37876123,0.2593167,-0.4395148,-0.14743192,-0.019361457,0.102596045,-0.35363114,-0.29390314,0.05383291,-0.25893018,-0.11943349,-0.3097267,0.08663612,0.043995075,0.44949225,0.080805354,0.1455908,-0.028532172,-0.34339836,0.4270805,-0.03309777,-0.102723345,-0.15861736,0.12833425,-0.07469453,0.1302081,-0.24502039,0.07715261,-0.0010582168,-0.09693466,0.17744663,-0.095766306,0.0802252,0.09926244,0.19740605,-0.11611904,-0.3259066,-0.2345512,0.17887762,-0.1176665,-0.011798369,-0.015649686,-0.32833365,-0.012144558,0.4383721,0.0023977347,-0.029068843,-0.12522067,-0.16714486,0.017347384,-0.042872395,-0.04973874,-0.20754191,0.13824753,-0.21556604,-0.1646139,0.16227867,-0.098484695,-0.30923694
miRNA_46,-0.0036484506,-0.005565349,-0.005612623,-0.007728683,-0.0029033627,0.006274225,-0.0027827024,0.0033140853,0.0043220557,0.0007746313,-0.0040554404,-0.0067695435,0.0024823043,0.0059758686,-0.0045998935,0.0012784563,0.006003948,-0.0013269912,-0.0030137952,0.0015768036,0.0057148393,0.004734842,-0.0074012484,-0.0077805277,0.006129889,0.0032933038,-0.0059293173,-0.0005487446,-0.0041748993,0.006207874,-0.0028559957,0.005460711,0.0073157195,0.0039882157,0.002003258,-0.0074943565,-0.003245175,8.157268e-05,-0.0072155762,0.00033599325,-0.002076324,-0.004087534,0.002071267,-0.0011974443,0.007655237,0.0048842505,-0.0051136035,-0.0057261977,-0.0012503881,0.0058935285,-0.005738687,-0.0009669885,-0.0037495513,0.0015977658,0.0025818422,-0.007443985,0.0034647528,0.007083647,0.0024708938,-0.0030863788,0.0046662744,0.0015189238,0.0025436431,-0.004199289,-0.005384568,-0.005905928,-0.0010019187,0.0053956155,-0.0016479753,0.0017434992,0.005265722,-0.003891712,0.0054497384,-0.0037404727,0.0031215064,-0.0003034789,-0.005985478,-0.006153235,0.004276227,0.0007304773,0.0001641661,0.0043471735,0.0057744607,-0.0036736634,-0.0004281383,0.007636005,0.0034348127,-0.006701531,-0.0055093803,-0.002271166,-0.0050777774,-0.005103154,0.006092185,-0.0005530454,-0.0013308711,0.0018305331,-0.0060535707,-0.0025904775,-0.0071616843,-0.0005271621,-0.0069484487,0.004198117,-0.002453886,0.004341183,0.0035057142,-0.005835861,0.0036980715,0.0018606167,-0.0017602295,0.00049406104,-0.005921848,0.004391946,0.0009455979,0.002326794,0.004243359,0.0012123715,-0.004091639,0.0044618975,-0.0053369794,-0.00048497878,-0.0076607466,-0.0026812796,-0.0014485065,-0.0051216483,-0.0059466753,0.0009626206,0.0033917185,0.0034175832
miRNA_47,-0.0016199909,0.0049139075,0.0040846877,-0.007263465,0.0038144533,-0.0048255622,-0.0018248428,0.0065551996,-0.0058945697,-0.0014339741,-0.002041772,0.0057322476,-0.0074875,0.0009009689,-0.007811995,0.001311304,-0.004555974,0.0070119556,0.0052802023,-0.0015283693,0.005271461,0.0053156875,-0.007349957,-0.0063421354,-0.005459832,0.0029066708,-0.0062880293,-0.003907025,0.0026583746,-0.0077628847,0.0029835403,-0.00044120662,-0.0013378114,-0.0074065533,0.0043725427,-0.0057298224,0.007492766,0.005323032,-0.0063013174,-0.0025230423,0.006059453,0.004480744,-0.0015925355,-0.001538083,0.005936466,0.0061773006,0.0052159857,-0.005132664,0.0007136129,0.0036276132,-0.0044133887,-0.006913949,0.0059467815,0.0048613977,-0.0055447444,0.0026785359,0.004435189,0.0036718957,0.0019120555,-0.0015526619,-0.00012302399,0.0051788427,0.0031838156,0.0073520206,0.005645236,0.0048221257,0.002784321,-0.0007664915,-0.0015364382,0.0037581418,-0.0077677723,-0.0044152755,-0.0077025313,0.003484359,-0.0072667375,0.00142234,0.003988417,-0.0025410391,0.0052766055,0.003065411,-0.004326666,-0.006387105,0.004382804,0.00020766072,0.0073802676,0.0056812763,0.003546942,-0.001787141,-0.0038619265,-0.0018307436,0.0026056953,-0.0012365468,0.0008180365,0.0007333178,-0.0021718629,-0.0063324794,0.005579423,-0.0052676853,0.0067548435,0.0060264245,0.0027226023,-0.0053637456,-0.0021653846,-0.0006141979,-0.0061122756,-0.0013023,-0.0013466794,0.000443995,-0.0038035158,0.0044902824,0.007570509,-0.0028572753,0.00644901,0.006295098,-0.006480921,0.005978644,0.004401868,0.00321367,0.003664542,-0.005477581,0.0060445946,-0.003375642,-0.004087249,0.0016951449,-0.00035081245,0.0053220354,-0.005466789,0.0038984045
miRNA_48,0.00084918924,-0.00481081,0.007412199,0.0050883293,0.002257008,0.0013966057,-0.004499249,0.0063089,-0.0071865357,0.00067455694,-3.222376e-07,-0.006007552,0.00023717433,-0.0023896098,-0.0027521364,0.0054012537,0.0012250766,0.007187767,0.0055780653,-0.00569351,-0.00086950324,-0.00494346,-0.0024531838,-0.0053250827,-0.00015182234,0.0020143185,0.001961138,0.0043674316,0.0029650014,-0.005555263,-0.0016061813,0.0046201777,-0.0014189947,-0.00713329,-0.0049245544,0.00457613,-0.0023392402,0.004558835,-0.00023487769,-0.004047664,-0.006016236,0.007624721,0.0039031152,0.0051736645,-0.003791863,-0.0064170174,-0.004160097,0.006759044,0.004516056,-0.004438335,-0.0043098778,-0.0008479208,0.0075049847,0.0076082386,-0.0019093417,-0.00044008344,0.0066613313,-0.0018404294,-0.0068442896,0.00637359,0.00029663928,-0.00094412826,-0.002105547,-0.0057889074,0.003958678,0.0013665967,0.0011405535,0.0050507896,-0.0015350766,-0.0072963946,-0.005064668,-0.0035834275,0.00083681755,0.0014235713,-0.0060804114,-0.0030166674,0.0044922307,-0.005511986,-0.0011952985,-0.0030354485,-0.005216509,0.003514085,-0.0014826618,0.00016455166,-0.0044640787,0.0018053111,-0.0024207626,-0.004390318,-0.003287511,0.0034545138,0.00031215698,-0.007470561,0.006283084,-0.0037821587,0.0056433436,-0.0013060719,-0.0064099114,0.00032816269,0.007016439,-0.0035127029,-0.004780438,0.0072725173,-0.0018479358,-0.007037049,0.006842375,-0.003034981,-0.004470175,0.007450128,-0.0042677,-0.0027023163,-0.0012747161,-0.0029974487,0.003507197,-0.0032268837,-0.0049538705,0.00039051846,-0.005525876,0.0073012523,-0.004379945,0.00089814886,-0.0074422695,-0.0015593078,0.0032963734,-0.0040239897,-0.0036791563,-0.0018319637,0.006101571,0.00065987185
miRNA_49,-0.24319018,-0.09910641,-0.024634665,-0.05506036,-0.12592232,-0.2326544,0.051522788,-0.23326248,-0.13249171,-0.016987538,0.11504869,0.015024271,-0.10263753,-0.013973274,0.050990876,-0.091186084,-0.008554175,0.05646726,-0.5338767,0.33527696,-0.08143928,-0.11268636,-0.11913966,-0.13249984,-0.15007137,0.047805477,-0.25616586,-0.24898402,-0.079706475,0.08215642,-0.235674,-0.17408411,0.10091725,0.14458922,-0.06715517,0.287307,0.20124337,-0.051736396,0.061016984,-0.10728082,0.1248824,-0.088027075,0.022163836,-0.23083985,0.1586106,0.042529844,-0.10805406,-0.19500351,-0.032441594,-0.104003556,0.14659116,0.10810425,0.19138949,0.065976046,0.23640674,0.14967884,-0.09512747,0.120622925,-0.064460166,0.327495,-0.08358217,0.07332968,-0.15615349,0.1432053,0.03729923,-0.1488512,-0.12591411,0.38940066,-0.18523058,-0.29652414,0.29329807,-0.08602954,-0.13089667,-0.12166485,-0.13702732,-0.49267393,-0.08465304,-0.053754274,0.012288508,0.074115954,-0.12915714,0.18269584,-0.08944788,0.24382517,0.03870227,-0.12766297,-0.055315673,-0.25159213,0.1831975,0.02627063,0.061240472,-0.10257523,0.21040009,0.021997388,0.072015904,0.12187057,-0.004312541,-0.3233246,-0.021931749,-0.05588893,-0.018977737,-0.0014172455,0.34072566,0.1652393,-0.25165212,-0.0036124522,0.09211237,0.06369042,0.16677469,-0.2611803,-0.17452809,0.0044429414,-0.091824986,0.016113158,-0.12308214,0.030672904,-0.33540267,-0.1785342,-0.06200923,0.31648296,-0.14644727,-0.10638458,-0.05463893,0.08654965,0.05484961,0.13296096,0.016117841,-0.06286843
miRNA_50,-0.2500275,-0.05002093,-0.019433638,-0.04650624,0.27483702,-0.07835636,0.13746598,-0.007774871,-0.1454301,-0.051252723,0.148055,-0.124519594,0.07373175,-0.146759,-0.09670112,0.22887923,-0.07980655,-0.1017092,-0.2873357,0.19824955,0.019816332,-0.020208187,-0.32291088,0.140441,-0.06589366,-0.22763656,-0.036725424,-0.058808018,0.022057794,-0.17083874,0.03684256,-0.1792984,-0.21919098,0.045647815,-0.068229884,0.46819368,-0.025106648,0.06608669,0.03223994,-0.20983344,0.24699198,0.18977712,-0.1634036,-0.16182055,0.27557704,-0.23795186,-0.05657069,-0.10630368,0.07903567,-0.12595154,0.107720524,-0.118330225,0.132959,0.45030665,0.17587702,0.05613839,-0.11427937,-0.1591388,0.006076247,0.22560856,-0.033485003,0.17331187,0.43045014,-0.052563608,-0.3846612,0.043136224,-0.17583978,0.11670717,-0.11765277,-0.39073732,0.36359313,-0.49207187,-0.20573547,0.033971652,0.17645791,-0.31842303,-0.28322616,0.06832253,-0.32065693,-0.28716114,-0.30211094,0.13616462,0.08782232,0.2594043,0.0527962,0.12332047,-0.083701216,-0.28724468,0.3356895,-0.04003729,-0.044710822,-0.076538175,0.14351113,-0.15627299,0.19441631,-0.10597906,0.014190465,-0.089920625,-0.1463483,0.15845467,-0.09656085,0.0752232,0.08325248,0.15771858,-0.19042902,-0.37778232,-0.22838227,0.24371243,-0.0978916,-0.11991604,0.035996936,-0.35705966,-0.0742574,0.4534596,-0.0072386484,0.029580047,-0.1276534,-0.11128843,-0.040943936,-0.028750004,-0.010387606,-0.22130117,0.20175938,-0.20848669,-0.12702869,0.15696228,-0.12750836,-0.2670394
miRNA_51,-0.12033586,0.048588187,-0.04411722,-0.1953666,0.03793243,-0.16014399,0.11782847,-0.20632856,-0.3102647,0.041904762,-0.19036867,0.1930248,0.2670292,-0.09852602,0.32593223,-0.09876841,0.32971913,0.1300317,-0.31467038,0.37533972,-0.18683067,0.005728101,0.02175015,-0.37140015,-0.087054856,0.0070782616,-0.120688826,0.10841959,-0.12681651,-0.027106931,-0.029468616,0.2538302,-0.07342683,0.28763968,-0.30914575,0.07539755,0.44526032,-0.18817176,0.14729327,-0.358111,0.052088983,0.054636426,0.08669158,-0.16040705,0.12229066,-0.047912516,-0.20485951,-0.15785284,-0.016540129,0.026828766,0.25887004,0.09993608,0.091910645,0.34815285,0.00046376523,-0.000119784774,-0.15540121,-0.13405475,-0.22918496,0.2650491,-0.09364989,0.18256383,0.080981866,0.11516834,-0.11191152,-0.075121656,0.12425897,0.30105287,-0.013948052,-0.5218439,0.2097354,-0.021997564,-0.11981375,-0.23935789,-0.09697883,-0.40536076,-0.49658072,-0.043023262,-0.22327463,-0.19013764,-0.16238655,0.07601615,0.008206664,0.21172036,0.08304885,0.127334,-0.11754606,-0.011771033,-0.006274175,-0.012250745,0.1636172,-0.09490068,0.30264044,-0.1529974,-0.007519305,0.15041511,0.0044049583,-0.35611603,-0.044180095,-0.0013786419,-0.076487444,-0.031691093,0.117820576,0.16368607,-0.20737293,-0.33100054,0.09007789,-0.21017906,0.4048467,-0.07528074,-0.18249555,-0.12500183,-0.15145841,0.30744994,-0.34740293,-0.008721943,-0.14586864,-0.060146898,-0.020760875,0.30203456,-0.20930919,-0.11548335,-0.10381825,-0.108443275,-0.013897355,0.23590088,-0.10585035,0.014022145
miRNA_52,-0.038527325,-0.096517004,-0.2572448,0.09852872,-0.103356816,0.12452233,0.024555815,-0.09966544,0.18587734,0.24417542,0.086387336,0.010730676,0.22461998,-0.13857877,0.21145637,-0.04424556,-0.1164555,0.06925467,-0.24451455,0.29019797,0.045930754,0.07132918,-0.0110064,-0.048067868,-0.22725587,0.32164007,0.23768511,-0.13402647,-0.007135281,0.21519959,0.25705716,-0.20843123,-0.13175723,0.24032302,-0.03509075,0.22748299,0.26631913,-0.40078914,-0.0646668,-0.12101368,0.16443492,0.06912623,0.21833393,-0.020470316,0.5726817,-0.13714013,-0.2639139,0.065513216,0.14758341,0.013643228,-0.096278094,0.11234513,0.33982798,0.28239697,-0.3883808,0.03863239,0.04632858,0.17763911,-0.14691907,-0.06268092,0.07639741,0.049094867,0.20064756,-0.16482711,0.20733236,-0.026609324,0.13400556,0.14029454,-0.20016328,-0.42411882,0.017796868,-0.3414379,0.044294253,-0.18809411,-0.22127293,-0.1319204,0.13092501,-0.025269808,-0.018909162,0.18074097,0.035613887,-0.083441146,0.034259778,0.27775812,0.23405147,-0.015802937,-0.15010212,-0.39823923,0.3109837,-0.0026320263,-0.05682669,0.31644663,0.25530767,0.12078721,-0.032637827,-0.044124823,0.052317016,-0.50570387,0.0955429,-0.001933525,0.18708353,-0.20883037,0.16010936,0.14420207,-0.05536021,0.055922125,-0.040085908,-0.48309973,0.11559742,-0.03316628,0.11871194,0.005460889,-0.3322885,-0.0803663,-0.20786116,-0.036197055,-0.20056237,0.036490846,-0.20429158,0.14760356,-0.31415695,0.09791679,-0.18941225,-0.1250305,0.40756133,0.27817854,-0.024794212,-0.1963788
miRNA_53,-0.012971917,-0.06486634,-0.022160362,-0.19878793,0.043775454,-0.037446238,0.19701257,-0.1311769,-0.17141786,0.18583281,0.07336595,-0.0022920046,0.08501593,-0.047191855,0.19841921,0.1863568,0.05203799,0.114439316,-0.04624862,0.24256472,0.11661978,0.074003994,0.07607294,-0.19343232,-0.0150919,0.0112050725,-0.05394518,0.08790848,0.04286181,-0.08824212,0.116526216,-0.0032133558,-0.050329443,-0.0078386525,-0.19988619,0.060062505,0.2342442,0.037605952,0.18356115,-0.0649227,0.27487922,0.07475913,-0.031055866,-0.23982641,0.034814097,-0.081096,-0.13581483,-0.09947258,-0.075797565,0.030421218,-0.032055028,0.028443586,-0.063728355,0.21843548,0.11875547,0.03821143,0.15561989,-0.1910264,-0.002775648,0.055183284,-0.04047663,0.055811156,0.33423856,0.024691701,0.10793619,-0.017581206,0.07815535,0.11729612,0.161214,-0.35403416,0.10163096,0.11671029,-0.1711436,-0.14402474,0.2103845,-0.25578824,-0.22150643,-0.073953584,-0.02334354,0.06659112,-0.14858676,-0.11098913,0.0009935217,0.09279583,0.015140244,0.17995898,-0.114515275,0.008012797,0.12593806,-0.014953272,0.09516418,0.16443957,0.21849492,0.112646475,0.004356272,0.15121633,-0.14361337,-0.22610144,-0.056114543,-0.06322779,-0.061149623,0.09908402,-0.0960363,0.100372605,0.004169811,-0.13463692,0.07219532,-0.12343725,0.03749028,-0.1397997,-0.0016129187,-0.027868645,-0.09386025,0.34924504,-0.12929757,-0.14093012,-0.023550933,0.08871028,0.02576984,0.16081278,-0.14313433,0.06749023,-0.21619427,-0.09769987,-0.024839763,0.017064057,-0.12491188,0.04229634
miRNA_54,-0.08652429,-0.103922024,-0.051375065,-0.13116902,0.16521172,-0.3941923,-0.009896138,-0.30792993,-0.45580354,0.034515124,0.042622976,0.023618218,-0.039177798,-0.13498358,0.1334001,0.15437356,0.11201468,0.114416875,-0.10003268,0.25983402,0.20060968,0.11336309,-0.24598041,-0.2603957,0.01799914,0.044975154,0.10230089,0.21742791,-0.09824371,-0.42775622,-0.055878613,0.047589213,-0.09292789,-0.060663257,-0.18490477,0.18917154,0.18150769,-0.07968932,0.02475812,-0.13544641,0.20550708,0.2633322,-0.082134806,-0.092253245,0.044333335,-0.27913246,-0.07041434,-0.16980128,-0.3072156,-0.095666684,0.19012012,0.053060018,-0.15933162,0.4581171,-0.08197917,-0.009556333,-0.0389318,-0.34641695,-0.01999495,0.1239853,0.016051324,0.21868657,0.47364303,0.09281592,-0.074928954,-0.15057872,0.054008998,0.046886034,0.019481117,-0.41136834,0.31300908,-0.07313762,-0.10844992,-0.16337778,0.27597237,-0.19886035,-0.51002467,-0.32059044,-0.21683738,-0.2812655,-0.20609744,-0.18644145,0.007882913,0.19627923,0.027630072,0.23417008,-0.14098921,0.044867173,0.2068244,-0.06417436,-0.11746568,-0.05752727,0.25756288,-0.07404587,0.029879712,-0.022405706,0.09774677,-0.048480928,-0.25208667,0.12217792,-0.0354436,0.25510058,0.031153707,0.19130832,-0.13059324,-0.4193436,-0.10601162,0.090032555,0.12061145,0.07908624,-0.13823019,-0.21224368,-0.07234705,0.3565753,-0.10641423,-0.29805008,-0.18729971,-0.06522608,-0.036984082,0.07432457,0.040860698,-0.11964373,-0.14941204,-0.16523635,-0.04666173,0.29474935,0.07051057,-0.12633641
miRNA_55,0.045086537,-0.11361152,0.10776413,0.011571802,-0.049883794,-0.33483538,0.07815145,-0.06215346,0.054491207,0.117273785,0.27708212,-0.08047225,-0.1354191,0.122759365,0.013506212,0.07397645,-0.099963665,0.05298266,-0.18629779,0.10629043,0.042720616,0.02927715,-0.17328514,0.062622465,-0.14153022,0.13869356,-0.22822578,-0.2620394,0.16345355,-0.02418657,-0.12412263,-0.28346086,0.010447321,-0.18627489,-0.08540862,0.2197227,0.08168465,0.01869302,0.16768724,0.05505678,0.10796952,-0.0072014346,-0.14690967,-0.25927234,-0.031240897,-0.025064006,0.032509524,0.079291604,0.04877719,-0.14227009,0.07169836,0.100784354,0.027435843,-0.01677176,0.18720925,0.061646428,0.39343613,-0.05427148,0.15130831,0.0947285,-0.07256899,-0.22309181,-0.071810775,-0.0326976,0.10617668,-0.024628835,0.07574731,0.106334224,-0.02628405,-0.13498418,0.19204876,-0.031085381,-0.1748416,-0.30597666,0.21996295,-0.14266154,0.00010479999,-0.11921227,0.067807525,0.21191697,-0.031058822,0.0129930135,-0.14193161,0.11440501,0.08731249,-0.05091982,-0.018761255,0.005637726,0.18746185,0.087333955,0.0013798057,-0.006922794,0.04951027,0.03468789,0.2468463,0.33290964,-0.15929571,-0.24106197,-0.014809639,-0.10225677,-0.045249283,0.12304558,0.10962617,0.020185713,-0.035716414,0.18951409,0.04456336,0.0041594757,-0.056874458,-0.34536952,0.015750973,-0.093497895,-0.072971955,-0.107848585,0.026515016,-0.019662049,-0.166332,0.2112887,-0.08870427,0.010974416,-0.1022097,-0.050736316,-0.14366192,0.020936806,0.12343379,-0.16179326,0.014157206,0.12185721
miRNA_56,-0.0050658844,-0.0043576322,-0.0018682815,-0.0062753204,-0.007415021,0.0010587573,0.00018910132,-0.003752306,3.4971163e-05,-0.005231764,0.004841104,0.0059157554,0.005323196,0.00640139,0.0030028298,0.0049094297,-0.0024195202,0.0070028976,-0.0005338285,-0.00037446804,-0.001816852,-0.007347841,-0.005017327,-0.0055105053,-0.006714007,-0.0069971774,-0.0071094465,-0.0015234984,-0.0016944855,-0.004253097,0.0023607034,-0.0053793844,0.007710602,9.544194e-06,-0.0054537077,-0.004756484,0.00618227,-0.002008291,0.0048958883,0.0005815625,-0.0030080527,-0.006472703,-0.00043236278,0.0044060014,0.002638936,0.00054130517,-0.0059675816,0.0048489757,-0.0035632048,-0.0017036665,0.00395895,0.0023927074,-0.0008347258,0.005014457,-0.002806479,0.00491911,-0.0020415895,0.005761558,-0.0003092233,-0.0043982714,0.0070705954,0.0025778562,0.002091147,-0.0038060714,0.0044187047,-0.006599538,-0.0073657054,0.0039783344,-0.0022356585,0.0065582357,-0.001549067,0.005740015,0.0069767777,0.0074111708,0.002022665,0.0020774547,-0.006416114,0.004841706,0.0073803775,0.0046677403,-0.006054431,0.0014044028,0.004838107,-0.0040982496,0.0045558996,-0.007725263,-0.005481027,-0.004019825,0.0045768637,0.0017975457,0.007702682,-0.003041871,-0.0016895216,0.00059341453,-0.0032811835,0.001973752,-6.108545e-05,-0.003969161,0.00056080706,0.0055652745,-0.0054233856,-0.0049965195,0.007029893,-0.004977204,-0.002766922,0.0065623857,0.0014944505,0.0018794872,-0.0012871455,0.0078123566,0.0033050515,0.0017177239,0.0046357755,0.0009092055,-0.0009133462,-0.0024232306,0.0049060713,-0.0022473931,0.0063899904,0.004425913,0.0016306005,0.0039902404,0.0032490566,0.0011352729,-0.0034338087,0.0065383334,0.0018200725,0.004051173
miRNA_57,0.060486954,-0.14374955,-0.007102445,-0.0093617225,-0.039714158,-0.19339712,0.04412469,-0.21461433,-0.13675894,0.17384125,0.22669181,-0.11626849,0.025587149,0.037272546,0.14257817,0.15450862,-0.16164541,0.108739726,-0.07091299,0.20349063,0.2500845,0.020992186,-0.14585546,-0.14579497,-0.09316473,0.18259303,-0.08911645,-0.010877588,0.10421465,-0.13719285,-0.13586152,-0.12123469,0.09314886,-0.18886463,-0.31787795,0.10998721,0.2567856,-0.009517781,0.07994466,0.031588543,0.17489561,0.080296755,-0.09024632,-0.17060097,-0.053876467,-0.09129733,-0.11462138,-0.07997801,-0.1973129,-0.041677322,0.030319424,0.09508262,-0.111659974,0.16432068,0.050989505,0.13840966,0.2185374,-0.13089313,0.14788412,0.039172057,-0.08226732,-0.11626014,0.10958602,0.18943547,0.15012567,-0.13919604,0.06640381,-0.03884625,0.053668234,-0.1234102,0.12586261,0.24833086,-0.23560254,-0.27993312,0.29797316,-0.14216864,-0.1767963,-0.16856799,0.16797158,0.032758858,0.012994641,-0.08067781,-0.13600434,0.15100692,-0.09102794,0.17888074,0.033580758,0.13390586,0.10469726,0.011112013,0.00509418,0.09091433,0.051653396,-0.0030745997,0.121919,0.27778202,-0.13229357,-0.22984762,-0.0551721,-0.058538157,0.026348712,0.1294572,-0.10690523,0.01678499,0.06750909,0.13075073,0.19214986,-0.07152591,0.026242685,-0.19038638,0.041723277,0.083557464,-0.0010257242,-0.024865994,-0.13997522,-0.08234833,0.052862916,0.05285302,-0.05737329,0.11719928,-0.17538933,0.012002894,-0.30892453,-0.057100702,0.022059118,-0.014719619,-0.035290375,0.034057736
miRNA_58,-0.07143829,-0.0265211,0.012858835,-0.16425878,-0.008349181,-0.010789295,0.16177957,-0.05289285,0.18892628,0.2133428,0.046158016,0.06809387,0.058354672,-0.0143380165,0.07497886,0.11667958,-0.020089166,0.101274,-0.14945097,0.16033073,0.08747495,0.075727716,0.053970747,-0.13843314,-0.12685192,0.08944753,-0.17965856,0.012579223,0.13508017,-0.021470957,0.12159657,-0.028220825,-0.09920755,0.007427489,-0.12183904,0.030206965,0.10567885,-0.050204143,0.14399716,-0.048660144,0.24910331,0.07618862,-0.09717117,-0.3750788,0.0901187,-0.031624444,-0.13788362,-0.06735189,0.11647621,0.09672546,-0.14976762,0.047225416,0.029968243,0.15992983,0.24158245,0.11715802,0.19395614,-0.033697985,-0.087514244,-0.006753285,-0.07982768,0.051884267,0.29631904,0.00078315486,0.038036156,0.070318766,-0.01950173,0.22098763,0.13151221,-0.19520582,0.12584695,0.06303633,-0.24722657,0.05523759,0.08700576,-0.30884483,-0.095016554,-0.035780966,-0.06465761,0.25197858,-0.27042282,-0.024670394,0.011145865,0.074345395,0.049695782,0.117801026,-0.01924944,-0.07323509,0.15285437,0.0015224383,0.09185187,0.14726107,0.21457642,0.07020222,-0.07630226,0.06215224,-0.20663424,-0.1950881,-0.03393358,-0.039719,-0.21038802,0.015704205,0.0003248397,0.05409816,-0.032824278,0.002028338,-0.015450883,-0.034382474,-0.09063968,-0.19348486,0.06151761,-0.0553864,-0.14161101,0.3038886,-0.041778266,-0.08180272,-0.092868544,0.079827994,0.009859139,0.03489702,-0.1721473,-0.02689409,-0.13484837,-0.006269049,-0.060682304,-0.073795535,-0.15632927,-0.05332105
miRNA_59,0.0010078251,0.0035607386,-0.0073126964,-0.0077227913,0.0065952837,-0.0076388586,0.007108951,-0.0045178775,0.0036105793,-0.002700422,0.0067459606,-0.0035349298,-0.0013383329,0.0020996537,-0.0054083094,0.0048456118,0.002793396,0.004288733,-0.0023010336,-0.00017471798,0.0045615286,0.0002644956,0.005400507,0.0049619917,-0.0036348123,0.003585687,0.0045148637,0.0035579205,0.0034030117,-0.0054460093,-0.0048843455,0.0039820764,-0.0039615016,-0.0020488016,-0.0002443269,0.0060709845,-0.0026940499,0.0061731897,-0.0016785674,-0.0059513394,-6.895885e-05,0.0036486872,0.0003967788,0.0014894046,0.006099716,-0.003302861,0.0019999407,0.0018076021,-0.00035542995,-0.004672626,-0.0015012734,0.002650313,0.0023568645,-0.00413559,7.420778e-05,0.0038209166,-0.0035174172,-0.0012061559,0.00609196,-0.0036356281,0.003195215,-0.0069899894,-0.007557193,-0.0010911971,-0.0070961937,0.0040920004,-0.006523993,0.006010877,-0.0076208096,-0.00042670034,-0.0047943722,-0.0016829558,-0.0063872803,0.0017695297,0.00081324764,0.0033513699,-0.007224234,0.0040137637,0.00060129166,0.00022718683,0.0016431361,-0.00079468265,-0.0027368888,-0.005307596,-0.0073999744,0.002353765,0.0036801696,0.004331488,0.0040954594,0.0004216358,-0.0026281998,0.0018927846,0.00020792522,-0.004597347,-0.00500129,0.0075990334,-0.0040711425,0.004777439,0.0025011227,1.359731e-07,-0.0077278037,0.005939806,-0.0014356207,0.003193114,-0.00044839457,0.001867827,-0.0026545282,-0.003541844,0.0046720654,-0.002125498,0.0075668376,0.004895782,-0.002619708,0.00700764,-0.0032880213,0.004833866,0.0007503871,0.0054368004,0.0037914515,-0.004253065,0.0044886284,0.0039219316,0.0061512217,0.007457329,0.0053778086,0.0020436067,0.006189307,0.0078013856
miRNA_60,-1.4265999e-05,0.0041061826,-0.002057435,0.0077773593,0.0046919454,0.00584824,0.005417088,0.005783124,0.0014697239,-0.0045317467,-0.0028719213,-0.005071733,-0.0019088183,0.004176054,0.00028759055,-0.006909063,-0.004183406,-0.00042937696,0.001967037,0.006528791,0.0055063292,0.00023294054,0.0033777654,-0.007004628,0.0054406673,-0.0060588233,0.003594337,-0.0066414047,0.0005213935,-0.0036424622,-0.0045906994,0.0025140084,-0.005120637,0.0076463316,0.007002581,-0.0018288493,-0.0046918504,-0.0073327683,0.00043816492,-0.004718853,0.0024361052,-0.0040211193,0.0074310694,-0.007744234,-0.003725037,-0.0040528663,-0.007277943,0.007708328,0.0044962913,0.0071999654,-0.0060703196,0.00016022846,-0.0046297815,-0.004573278,-0.0050834417,-0.0015156828,-0.0050750487,0.0061020926,-0.002640592,-0.0010289103,0.005102815,0.0004403442,0.005267136,-0.007682856,-0.0041144975,-0.006397346,0.0028428994,0.0013695918,0.0048719198,0.00092865527,0.0027525146,-0.0038007572,-0.0046205446,0.0017330628,-0.0058788266,-0.0067782477,0.0034128502,-0.0048619807,0.006641688,0.0051698107,-0.006873397,0.0020763054,0.001805082,-0.0019451156,-0.004946163,0.007579956,0.0019856207,-0.0029764753,-0.00074066035,-0.0067189634,-0.0027982388,-0.0044119507,-0.004130099,0.0036829188,0.0017315745,-0.0009861104,-0.00321915,0.0024067182,0.0008031968,-0.0021877158,-0.0024702456,0.0002901908,-0.0023635756,-0.0064604096,-0.0037628077,-0.00059011206,-0.0016574673,-0.002481563,-0.00554738,0.0070557073,0.001052048,-0.0034065545,0.005217962,-0.0034458842,-0.00434749,0.0011026114,-0.003967559,0.001756167,-0.0070167556,-0.005466329,-0.0064154696,-0.0057100505,-0.006948052,-0.003306467,0.00035619177,-0.0015222691,0.003805779,0.00607072
